{
  "learner": {
    "attributes": {
      "scikit_learn": "{\"_estimator_type\": \"classifier\"}"
    },
    "feature_names": [
      "default_flag",
      "sy_snum",
      "sy_pnum",
      "disc_year",
      "pl_controv_flag",
      "pl_orbper",
      "pl_orbpererr1",
      "pl_orbpererr2",
      "pl_orbperlim",
      "pl_orbsmax",
      "pl_orbsmaxerr1",
      "pl_orbsmaxerr2",
      "pl_orbsmaxlim",
      "pl_rade",
      "pl_radeerr1",
      "pl_radeerr2",
      "pl_radelim",
      "pl_radj",
      "pl_radjerr1",
      "pl_radjerr2",
      "pl_radjlim",
      "pl_bmasse",
      "pl_bmasseerr1",
      "pl_bmasseerr2",
      "pl_bmasselim",
      "pl_bmassj",
      "pl_bmassjerr1",
      "pl_bmassjerr2",
      "pl_bmassjlim",
      "pl_orbeccen",
      "pl_orbeccenlim",
      "pl_insol",
      "pl_insolerr1",
      "pl_insolerr2",
      "pl_insollim",
      "pl_eqt",
      "pl_eqterr1",
      "pl_eqterr2",
      "pl_eqtlim",
      "ttv_flag",
      "st_teff",
      "st_tefferr1",
      "st_tefferr2",
      "st_tefflim",
      "st_rad",
      "st_raderr1",
      "st_raderr2",
      "st_radlim",
      "st_mass",
      "st_masserr1",
      "st_masserr2",
      "st_masslim",
      "st_met",
      "st_meterr1",
      "st_meterr2",
      "st_metlim",
      "st_logg",
      "st_loggerr1",
      "st_loggerr2",
      "st_logglim",
      "ra",
      "dec",
      "sy_dist",
      "sy_disterr1",
      "sy_disterr2",
      "sy_vmag",
      "sy_vmagerr1",
      "sy_vmagerr2",
      "sy_kmag",
      "sy_kmagerr1",
      "sy_kmagerr2",
      "sy_gaiamag",
      "sy_gaiamagerr1",
      "sy_gaiamagerr2"
    ],
    "feature_types": [
      "int",
      "int",
      "int",
      "int",
      "int",
      "float",
      "float",
      "float",
      "float",
      "float",
      "float",
      "float",
      "float",
      "float",
      "float",
      "float",
      "float",
      "float",
      "float",
      "float",
      "float",
      "float",
      "float",
      "float",
      "float",
      "float",
      "float",
      "float",
      "float",
      "float",
      "float",
      "float",
      "float",
      "float",
      "float",
      "float",
      "float",
      "float",
      "float",
      "int",
      "float",
      "float",
      "float",
      "float",
      "float",
      "float",
      "float",
      "float",
      "float",
      "float",
      "float",
      "float",
      "float",
      "float",
      "float",
      "float",
      "float",
      "float",
      "float",
      "float",
      "float",
      "float",
      "float",
      "float",
      "float",
      "float",
      "float",
      "float",
      "float",
      "float",
      "float",
      "float",
      "float",
      "float"
    ],
    "gradient_booster": {
      "model": {
        "gbtree_model_param": {
          "num_parallel_tree": "1",
          "num_trees": "400"
        },
        "iteration_indptr": [
          0,
          4,
          8,
          12,
          16,
          20,
          24,
          28,
          32,
          36,
          40,
          44,
          48,
          52,
          56,
          60,
          64,
          68,
          72,
          76,
          80,
          84,
          88,
          92,
          96,
          100,
          104,
          108,
          112,
          116,
          120,
          124,
          128,
          132,
          136,
          140,
          144,
          148,
          152,
          156,
          160,
          164,
          168,
          172,
          176,
          180,
          184,
          188,
          192,
          196,
          200,
          204,
          208,
          212,
          216,
          220,
          224,
          228,
          232,
          236,
          240,
          244,
          248,
          252,
          256,
          260,
          264,
          268,
          272,
          276,
          280,
          284,
          288,
          292,
          296,
          300,
          304,
          308,
          312,
          316,
          320,
          324,
          328,
          332,
          336,
          340,
          344,
          348,
          352,
          356,
          360,
          364,
          368,
          372,
          376,
          380,
          384,
          388,
          392,
          396,
          400
        ],
        "tree_info": [
          0,
          1,
          2,
          3,
          0,
          1,
          2,
          3,
          0,
          1,
          2,
          3,
          0,
          1,
          2,
          3,
          0,
          1,
          2,
          3,
          0,
          1,
          2,
          3,
          0,
          1,
          2,
          3,
          0,
          1,
          2,
          3,
          0,
          1,
          2,
          3,
          0,
          1,
          2,
          3,
          0,
          1,
          2,
          3,
          0,
          1,
          2,
          3,
          0,
          1,
          2,
          3,
          0,
          1,
          2,
          3,
          0,
          1,
          2,
          3,
          0,
          1,
          2,
          3,
          0,
          1,
          2,
          3,
          0,
          1,
          2,
          3,
          0,
          1,
          2,
          3,
          0,
          1,
          2,
          3,
          0,
          1,
          2,
          3,
          0,
          1,
          2,
          3,
          0,
          1,
          2,
          3,
          0,
          1,
          2,
          3,
          0,
          1,
          2,
          3,
          0,
          1,
          2,
          3,
          0,
          1,
          2,
          3,
          0,
          1,
          2,
          3,
          0,
          1,
          2,
          3,
          0,
          1,
          2,
          3,
          0,
          1,
          2,
          3,
          0,
          1,
          2,
          3,
          0,
          1,
          2,
          3,
          0,
          1,
          2,
          3,
          0,
          1,
          2,
          3,
          0,
          1,
          2,
          3,
          0,
          1,
          2,
          3,
          0,
          1,
          2,
          3,
          0,
          1,
          2,
          3,
          0,
          1,
          2,
          3,
          0,
          1,
          2,
          3,
          0,
          1,
          2,
          3,
          0,
          1,
          2,
          3,
          0,
          1,
          2,
          3,
          0,
          1,
          2,
          3,
          0,
          1,
          2,
          3,
          0,
          1,
          2,
          3,
          0,
          1,
          2,
          3,
          0,
          1,
          2,
          3,
          0,
          1,
          2,
          3,
          0,
          1,
          2,
          3,
          0,
          1,
          2,
          3,
          0,
          1,
          2,
          3,
          0,
          1,
          2,
          3,
          0,
          1,
          2,
          3,
          0,
          1,
          2,
          3,
          0,
          1,
          2,
          3,
          0,
          1,
          2,
          3,
          0,
          1,
          2,
          3,
          0,
          1,
          2,
          3,
          0,
          1,
          2,
          3,
          0,
          1,
          2,
          3,
          0,
          1,
          2,
          3,
          0,
          1,
          2,
          3,
          0,
          1,
          2,
          3,
          0,
          1,
          2,
          3,
          0,
          1,
          2,
          3,
          0,
          1,
          2,
          3,
          0,
          1,
          2,
          3,
          0,
          1,
          2,
          3,
          0,
          1,
          2,
          3,
          0,
          1,
          2,
          3,
          0,
          1,
          2,
          3,
          0,
          1,
          2,
          3,
          0,
          1,
          2,
          3,
          0,
          1,
          2,
          3,
          0,
          1,
          2,
          3,
          0,
          1,
          2,
          3,
          0,
          1,
          2,
          3,
          0,
          1,
          2,
          3,
          0,
          1,
          2,
          3,
          0,
          1,
          2,
          3,
          0,
          1,
          2,
          3,
          0,
          1,
          2,
          3,
          0,
          1,
          2,
          3,
          0,
          1,
          2,
          3,
          0,
          1,
          2,
          3,
          0,
          1,
          2,
          3,
          0,
          1,
          2,
          3,
          0,
          1,
          2,
          3,
          0,
          1,
          2,
          3,
          0,
          1,
          2,
          3,
          0,
          1,
          2,
          3,
          0,
          1,
          2,
          3,
          0,
          1,
          2,
          3,
          0,
          1,
          2,
          3,
          0,
          1,
          2,
          3,
          0,
          1,
          2,
          3,
          0,
          1,
          2,
          3,
          0,
          1,
          2,
          3
        ],
        "trees": [
          {
            "base_weights": [
              0.2366617,
              1.4595376,
              -0.6207595,
              1.7474542,
              0.74876845,
              0.040000003,
              -0.6246826,
              1.5103927,
              1.920434,
              1.5307918,
              0.17954071,
              0.15384616,
              -0.62857145,
              1.6724409,
              1.0292886,
              0.4,
              1.9555143,
              1.6284829,
              -0.15384616,
              0.6622951,
              -0.06373627,
              0.058823533,
              -0.03529412,
              -0.6305015,
              0,
              1.6932907,
              0.011764706,
              1.2941177,
              0.33766234,
              0.10588236,
              -0.15384616,
              0.19697542,
              0.8965517,
              1.7114754,
              0.15384616,
              -0.03529412,
              0.011764706,
              1.2340425,
              -0.24,
              -0.06564992,
              -0.5528613,
              0.011764706,
              0.17147487,
              0.015384616,
              0.14210527,
              -0.011320755,
              0.1,
              0.011764706,
              -0.03529412,
              0.011764706,
              0.120000005,
              0.18709677,
              0.08923077,
              0.058823533,
              -0.03529412,
              0.018867925,
              0.15524475,
              -0.047272727,
              0.09565218,
              -0.014285715,
              -0.06601227
            ],
            "categories": [],
            "categories_nodes": [],
            "categories_segments": [],
            "categories_sizes": [],
            "default_left": [
              0,
              0,
              0,
              0,
              0,
              0,
              0,
              0,
              0,
              0,
              0,
              0,
              0,
              0,
              0,
              0,
              0,
              0,
              0,
              0,
              0,
              0,
              0,
              0,
              0,
              0,
              0,
              0,
              0,
              0,
              0,
              0,
              0,
              0,
              0,
              0,
              0,
              0,
              0,
              0,
              0,
              0,
              0,
              0,
              0,
              0,
              0,
              0,
              0,
              0,
              0,
              0,
              0,
              0,
              0,
              0,
              0,
              0,
              0,
              0,
              0
            ],
            "id": 0,
            "left_children": [
              1,
              3,
              5,
              7,
              9,
              -1,
              11,
              13,
              15,
              17,
              19,
              21,
              23,
              25,
              27,
              29,
              31,
              33,
              35,
              37,
              -1,
              -1,
              -1,
              39,
              -1,
              41,
              -1,
              43,
              45,
              -1,
              47,
              -1,
              49,
              51,
              53,
              -1,
              -1,
              55,
              57,
              -1,
              59,
              -1,
              -1,
              -1,
              -1,
              -1,
              -1,
              -1,
              -1,
              -1,
              -1,
              -1,
              -1,
              -1,
              -1,
              -1,
              -1,
              -1,
              -1,
              -1,
              -1
            ],
            "loss_changes": [
              880.35187,
              69.49774,
              2.2270966,
              7.166565,
              44.90782,
              0,
              1.5870361,
              6.717987,
              6.5917053,
              7.2655106,
              24.034645,
              0.9230769,
              0.59446716,
              2.3739014,
              5.0350113,
              1.7592759,
              0.2678833,
              4.6779327,
              0.21719459,
              19.964287,
              0,
              0,
              0,
              0.62306213,
              0,
              2.443924,
              0,
              2.857109,
              2.987503,
              0,
              0.21719459,
              0,
              0.7156186,
              3.311592,
              0.9230769,
              0,
              0,
              7.5290337,
              4.803162,
              0,
              5.5733147,
              0,
              0,
              0,
              0,
              0,
              0,
              0,
              0,
              0,
              0,
              0,
              0,
              0,
              0,
              0,
              0,
              0,
              0,
              0,
              0
            ],
            "parents": [
              2147483647,
              0,
              0,
              1,
              1,
              2,
              2,
              3,
              3,
              4,
              4,
              6,
              6,
              7,
              7,
              8,
              8,
              9,
              9,
              10,
              10,
              11,
              11,
              12,
              12,
              13,
              13,
              14,
              14,
              15,
              15,
              16,
              16,
              17,
              17,
              18,
              18,
              19,
              19,
              23,
              23,
              25,
              25,
              27,
              27,
              28,
              28,
              30,
              30,
              32,
              32,
              33,
              33,
              34,
              34,
              37,
              37,
              38,
              38,
              40,
              40
            ],
            "right_children": [
              2,
              4,
              6,
              8,
              10,
              -1,
              12,
              14,
              16,
              18,
              20,
              22,
              24,
              26,
              28,
              30,
              32,
              34,
              36,
              38,
              -1,
              -1,
              -1,
              40,
              -1,
              42,
              -1,
              44,
              46,
              -1,
              48,
              -1,
              50,
              52,
              54,
              -1,
              -1,
              56,
              58,
              -1,
              60,
              -1,
              -1,
              -1,
              -1,
              -1,
              -1,
              -1,
              -1,
              -1,
              -1,
              -1,
              -1,
              -1,
              -1,
              -1,
              -1,
              -1,
              -1,
              -1,
              -1
            ],
            "split_conditions": [
              1,
              0.00031515915,
              -0.00075757573,
              2018,
              2017,
              0.040000003,
              -0.0409,
              0.29563513,
              0.06687,
              0.1,
              0.88,
              14.189859,
              17.4584,
              0.211,
              0.103,
              0.71,
              2022,
              0.208,
              97.84,
              0.001047,
              -0.06373627,
              0.058823533,
              -0.03529412,
              1,
              0,
              0.002541,
              0.011764706,
              2016,
              15.3216,
              0.10588236,
              0.000509,
              0.19697542,
              0.000509,
              0.00106,
              -15.069495,
              -0.03529412,
              0.011764706,
              0.847,
              2019,
              -0.06564992,
              -0.09,
              0.011764706,
              0.17147487,
              0.015384616,
              0.14210527,
              -0.011320755,
              0.1,
              0.011764706,
              -0.03529412,
              0.011764706,
              0.120000005,
              0.18709677,
              0.08923077,
              0.058823533,
              -0.03529412,
              0.018867925,
              0.15524475,
              -0.047272727,
              0.09565218,
              -0.014285715,
              -0.06601227
            ],
            "split_indices": [
              2,
              16,
              8,
              3,
              3,
              0,
              11,
              18,
              9,
              53,
              48,
              6,
              65,
              52,
              66,
              48,
              3,
              66,
              41,
              72,
              0,
              0,
              0,
              0,
              0,
              57,
              0,
              3,
              71,
              0,
              6,
              0,
              6,
              72,
              61,
              0,
              0,
              48,
              3,
              0,
              50,
              0,
              0,
              0,
              0,
              0,
              0,
              0,
              0,
              0,
              0,
              0,
              0,
              0,
              0,
              0,
              0,
              0,
              0,
              0,
              0
            ],
            "split_type": [
              0,
              0,
              0,
              0,
              0,
              0,
              0,
              0,
              0,
              0,
              0,
              0,
              0,
              0,
              0,
              0,
              0,
              0,
              0,
              0,
              0,
              0,
              0,
              0,
              0,
              0,
              0,
              0,
              0,
              0,
              0,
              0,
              0,
              0,
              0,
              0,
              0,
              0,
              0,
              0,
              0,
              0,
              0,
              0,
              0,
              0,
              0,
              0,
              0,
              0,
              0,
              0,
              0,
              0,
              0,
              0,
              0,
              0,
              0,
              0,
              0
            ],
            "sum_hessian": [
              837.75,
              345,
              492.75,
              244.5,
              100.5,
              1.5,
              491.25,
              107.25,
              137.25,
              41.625,
              58.875,
              2.25,
              489,
              78.375,
              28.875,
              3.375,
              133.875,
              39.375,
              2.25,
              37.125,
              21.75,
              1.125,
              1.125,
              487.5,
              1.5,
              77.25,
              1.125,
              20.25,
              8.625,
              1.125,
              2.25,
              131.25,
              2.625,
              37.125,
              2.25,
              1.125,
              1.125,
              22.5,
              14.625,
              359.625,
              127.875,
              1.125,
              76.125,
              2.25,
              18,
              5.625,
              3,
              1.125,
              1.125,
              1.125,
              1.5,
              30,
              7.125,
              1.125,
              1.125,
              5.625,
              16.875,
              12.75,
              1.875,
              27,
              100.875
            ],
            "tree_param": {
              "num_deleted": "0",
              "num_feature": "74",
              "num_nodes": "61",
              "size_leaf_vector": "1"
            }
          },
          {
            "base_weights": [
              0.8752617,
              -0.06647378,
              1.957241,
              0.011764706,
              1.9612244,
              0.19631808,
              0.058823533
            ],
            "categories": [],
            "categories_nodes": [],
            "categories_segments": [],
            "categories_sizes": [],
            "default_left": [
              0,
              0,
              0,
              0,
              0,
              0,
              0
            ],
            "id": 1,
            "left_children": [
              1,
              -1,
              3,
              -1,
              5,
              -1,
              -1
            ],
            "loss_changes": [
              1393.8674,
              0,
              3.368164,
              0,
              0.16137695,
              0,
              0
            ],
            "parents": [
              2147483647,
              0,
              0,
              2,
              2,
              4,
              4
            ],
            "right_children": [
              2,
              -1,
              4,
              -1,
              6,
              -1,
              -1
            ],
            "split_conditions": [
              1,
              -0.06647378,
              -0.00075757573,
              0.011764706,
              17.73,
              0.19631808,
              0.058823533
            ],
            "split_indices": [
              2,
              0,
              8,
              0,
              65,
              0,
              0
            ],
            "split_type": [
              0,
              0,
              0,
              0,
              0,
              0,
              0
            ],
            "sum_hessian": [
              834.75,
              344.625,
              490.125,
              1.125,
              489,
              487.875,
              1.125
            ],
            "tree_param": {
              "num_deleted": "0",
              "num_feature": "74",
              "num_nodes": "7",
              "size_leaf_vector": "1"
            }
          },
          {
            "base_weights": [
              -0.47389072,
              0.29317853,
              -0.56215304,
              -0.29765013,
              1.0063695,
              -0.38741574,
              -0.066523604,
              -0.57740587,
              0.15789473,
              -0.24299066,
              1.5906976,
              -0.46601942,
              0.56647396,
              -0.06411483,
              -0.10526316,
              0.14482759,
              -0.13740458,
              0.5,
              -0.5060241,
              -0.040000003,
              1.7241379,
              0.9433962,
              -0.5012407,
              1.2,
              0.01980198,
              -0.048275862,
              0.058823533,
              -0.42696628,
              0.4,
              0.09565218,
              -0.03529412,
              -0.05945946,
              0.011764706,
              0.17837839,
              0.7692308,
              -0.03529412,
              1.2727273,
              -0.17956656,
              -0.56,
              -0.03529412,
              1.4366198,
              0.75,
              -0.2857143,
              -0.05945946,
              0.026086956,
              0.1304348,
              -0.02857143,
              0.011764706,
              0.10588236,
              0.040000003,
              0.15,
              0.08085107,
              -0.03380282,
              -0.06260472,
              -0.032911394,
              0.17142858,
              0.026086956,
              -0.03529412,
              0.1304348,
              -0.047058824,
              0.058823533
            ],
            "categories": [],
            "categories_nodes": [],
            "categories_segments": [],
            "categories_sizes": [],
            "default_left": [
              0,
              0,
              0,
              0,
              0,
              0,
              0,
              0,
              0,
              0,
              0,
              0,
              0,
              0,
              0,
              0,
              0,
              0,
              0,
              0,
              0,
              0,
              0,
              0,
              0,
              0,
              0,
              0,
              0,
              0,
              0,
              0,
              0,
              0,
              0,
              0,
              0,
              0,
              0,
              0,
              0,
              0,
              0,
              0,
              0,
              0,
              0,
              0,
              0,
              0,
              0,
              0,
              0,
              0,
              0,
              0,
              0,
              0,
              0,
              0,
              0
            ],
            "id": 2,
            "left_children": [
              1,
              3,
              5,
              7,
              9,
              11,
              -1,
              13,
              15,
              17,
              19,
              21,
              23,
              -1,
              25,
              -1,
              27,
              29,
              31,
              -1,
              33,
              35,
              37,
              39,
              41,
              -1,
              -1,
              43,
              45,
              -1,
              -1,
              -1,
              -1,
              -1,
              47,
              -1,
              49,
              51,
              53,
              -1,
              55,
              57,
              59,
              -1,
              -1,
              -1,
              -1,
              -1,
              -1,
              -1,
              -1,
              -1,
              -1,
              -1,
              -1,
              -1,
              -1,
              -1,
              -1,
              -1,
              -1
            ],
            "loss_changes": [
              56.240097,
              36.590347,
              13.127777,
              6.192421,
              29.040455,
              21.117588,
              0,
              0.83161545,
              7.4389243,
              2.866907,
              7.8287125,
              13.255535,
              7.465644,
              0,
              1.5274901,
              0,
              2.7189298,
              1.8951406,
              0.6430557,
              0,
              0.07312012,
              3.2775702,
              4.6602173,
              4.181608,
              3.0307636,
              0,
              0,
              1.4378326,
              4.2484474,
              0,
              0,
              0,
              0,
              0,
              0.48868775,
              0,
              0.49090862,
              6.594906,
              3.0344543,
              0,
              2.4501781,
              2.9060106,
              1.8319329,
              0,
              0,
              0,
              0,
              0,
              0,
              0,
              0,
              0,
              0,
              0,
              0,
              0,
              0,
              0,
              0,
              0,
              0
            ],
            "parents": [
              2147483647,
              0,
              0,
              1,
              1,
              2,
              2,
              3,
              3,
              4,
              4,
              5,
              5,
              7,
              7,
              8,
              8,
              9,
              9,
              10,
              10,
              11,
              11,
              12,
              12,
              14,
              14,
              16,
              16,
              17,
              17,
              18,
              18,
              20,
              20,
              21,
              21,
              22,
              22,
              23,
              23,
              24,
              24,
              27,
              27,
              28,
              28,
              34,
              34,
              36,
              36,
              37,
              37,
              38,
              38,
              40,
              40,
              41,
              41,
              42,
              42
            ],
            "right_children": [
              2,
              4,
              6,
              8,
              10,
              12,
              -1,
              14,
              16,
              18,
              20,
              22,
              24,
              -1,
              26,
              -1,
              28,
              30,
              32,
              -1,
              34,
              36,
              38,
              40,
              42,
              -1,
              -1,
              44,
              46,
              -1,
              -1,
              -1,
              -1,
              -1,
              48,
              -1,
              50,
              52,
              54,
              -1,
              56,
              58,
              60,
              -1,
              -1,
              -1,
              -1,
              -1,
              -1,
              -1,
              -1,
              -1,
              -1,
              -1,
              -1,
              -1,
              -1,
              -1,
              -1,
              -1,
              -1
            ],
            "split_conditions": [
              -0.00106,
              0.013,
              1,
              0.7891026,
              1.5102769,
              -0.07,
              -0.066523604,
              16.419516,
              264.567,
              3655,
              99.55515,
              3290,
              -0.064,
              -0.06411483,
              392.872,
              0.14482759,
              15.87209,
              -15.069495,
              5711,
              -0.040000003,
              17.5202,
              4.2,
              4.223,
              4868,
              -0.032,
              -0.048275862,
              0.058823533,
              4.1573734,
              0.001307,
              0.09565218,
              -0.03529412,
              -0.05945946,
              0.011764706,
              0.17837839,
              4059,
              -0.03529412,
              0.195,
              -11.303563,
              14.189859,
              -0.03529412,
              -7.369,
              4898,
              134.58,
              -0.05945946,
              0.026086956,
              0.1304348,
              -0.02857143,
              0.011764706,
              0.10588236,
              0.040000003,
              0.15,
              0.08085107,
              -0.03380282,
              -0.06260472,
              -0.032911394,
              0.17142858,
              0.026086956,
              -0.03529412,
              0.1304348,
              -0.047058824,
              0.058823533
            ],
            "split_indices": [
              73,
              6,
              2,
              17,
              61,
              54,
              0,
              61,
              62,
              40,
              60,
              40,
              52,
              0,
              62,
              0,
              5,
              61,
              40,
              0,
              71,
              56,
              56,
              40,
              54,
              0,
              0,
              17,
              72,
              0,
              0,
              0,
              0,
              0,
              40,
              0,
              44,
              15,
              6,
              0,
              64,
              40,
              41,
              0,
              0,
              0,
              0,
              0,
              0,
              0,
              0,
              0,
              0,
              0,
              0,
              0,
              0,
              0,
              0,
              0,
              0
            ],
            "split_type": [
              0,
              0,
              0,
              0,
              0,
              0,
              0,
              0,
              0,
              0,
              0,
              0,
              0,
              0,
              0,
              0,
              0,
              0,
              0,
              0,
              0,
              0,
              0,
              0,
              0,
              0,
              0,
              0,
              0,
              0,
              0,
              0,
              0,
              0,
              0,
              0,
              0,
              0,
              0,
              0,
              0,
              0,
              0,
              0,
              0,
              0,
              0,
              0,
              0,
              0,
              0,
              0,
              0,
              0,
              0,
              0,
              0,
              0,
              0,
              0,
              0
            ],
            "sum_hessian": [
              827.25,
              85.125,
              742.125,
              46.875,
              38.25,
              277.125,
              465,
              28.875,
              18,
              12.375,
              25.875,
              256.5,
              20.625,
              25.125,
              3.75,
              2.625,
              15.375,
              3,
              9.375,
              1.5,
              24.375,
              5.625,
              250.875,
              9,
              11.625,
              2.625,
              1.125,
              10.125,
              5.25,
              1.875,
              1.125,
              8.25,
              1.125,
              22.125,
              2.25,
              1.125,
              4.5,
              39.375,
              211.5,
              1.125,
              7.875,
              3,
              8.625,
              8.25,
              1.875,
              1.875,
              3.375,
              1.125,
              1.125,
              1.5,
              3,
              4.875,
              34.5,
              163.125,
              48.375,
              6,
              1.875,
              1.125,
              1.875,
              7.5,
              1.125
            ],
            "tree_param": {
              "num_deleted": "0",
              "num_feature": "74",
              "num_nodes": "61",
              "size_leaf_vector": "1"
            }
          },
          {
            "base_weights": [
              -0.6493813,
              -0.06526062,
              -0.48101267,
              0.10588236,
              -0.06308725
            ],
            "categories": [],
            "categories_nodes": [],
            "categories_segments": [],
            "categories_sizes": [],
            "default_left": [
              0,
              0,
              0,
              0,
              0
            ],
            "id": 3,
            "left_children": [
              1,
              -1,
              3,
              -1,
              -1
            ],
            "loss_changes": [
              0.14678955,
              0,
              5.225485,
              0,
              0
            ],
            "parents": [
              2147483647,
              0,
              0,
              2,
              2
            ],
            "right_children": [
              2,
              -1,
              4,
              -1,
              -1
            ],
            "split_conditions": [
              0.041,
              -0.06526062,
              0.000368,
              0.10588236,
              -0.06308725
            ],
            "split_indices": [
              69,
              0,
              72,
              0,
              0
            ],
            "split_type": [
              0,
              0,
              0,
              0,
              0
            ],
            "sum_hessian": [
              847.5,
              828.75,
              18.75,
              1.125,
              17.625
            ],
            "tree_param": {
              "num_deleted": "0",
              "num_feature": "74",
              "num_nodes": "5",
              "size_leaf_vector": "1"
            }
          },
          {
            "base_weights": [
              0.25142735,
              -0.47892967,
              0.6297138,
              -0.5837649,
              0.0039719,
              0.071661964,
              1.1698505,
              0.23650573,
              -0.60311264,
              -0.4342773,
              0.7654092,
              0.7097654,
              -0.089534245,
              1.3565048,
              0.4998877,
              0.69925815,
              -0.044410598,
              -0.6304414,
              -0.28984293,
              -0.48621514,
              0.057250965,
              0.9377674,
              -0.057371195,
              1.0190715,
              0.013039874,
              -0.12592377,
              0.12562129,
              0.93119985,
              1.5143315,
              0.2707208,
              0.1508051,
              0.11753732,
              -0.03369327,
              -0.1343215,
              -0.63487154,
              -0.44366556,
              0.37079123,
              -0.5409651,
              0.053497214,
              0.22580037,
              1.0844486,
              -0.045109034,
              0.054364216,
              0.25953248,
              1.1528021,
              0.0958157,
              -0.19254494,
              -0.19697373,
              0.5699956,
              0.6705854,
              1.4222873,
              1.5494977,
              -0.047466837,
              1.118884,
              -0.018675344,
              0.01291496,
              -0.033687215,
              -0.06393538,
              -0.013981814,
              0.0072696293,
              -0.05405868,
              -0.041761052,
              0.10547765,
              -0.059571404,
              -0.001700173,
              0.09281001,
              -0.04212174,
              0.030835679,
              0.12537307,
              0.09295483,
              -0.03006146,
              0.12893164,
              0.04433157,
              -0.045795158,
              0.06392337,
              0.0052296263,
              -0.042811297,
              -0.050897688,
              0.08282617,
              0.043675642,
              0.13514155,
              0.008043384,
              0.1499076,
              -0.039791852,
              0.15704949,
              0.045541167,
              0.14316891,
              0.11473435,
              -0.029235387
            ],
            "categories": [],
            "categories_nodes": [],
            "categories_segments": [],
            "categories_sizes": [],
            "default_left": [
              0,
              0,
              0,
              0,
              0,
              0,
              0,
              0,
              0,
              0,
              0,
              0,
              0,
              0,
              0,
              0,
              0,
              0,
              0,
              0,
              0,
              0,
              0,
              0,
              0,
              0,
              0,
              0,
              0,
              0,
              0,
              0,
              0,
              0,
              0,
              0,
              0,
              0,
              0,
              0,
              0,
              0,
              0,
              0,
              0,
              0,
              0,
              0,
              0,
              0,
              0,
              0,
              0,
              0,
              0,
              0,
              0,
              0,
              0,
              0,
              0,
              0,
              0,
              0,
              0,
              0,
              0,
              0,
              0,
              0,
              0,
              0,
              0,
              0,
              0,
              0,
              0,
              0,
              0,
              0,
              0,
              0,
              0,
              0,
              0,
              0,
              0,
              0,
              0
            ],
            "id": 4,
            "left_children": [
              1,
              3,
              5,
              7,
              9,
              11,
              13,
              15,
              17,
              19,
              21,
              23,
              25,
              27,
              29,
              31,
              -1,
              33,
              35,
              37,
              -1,
              39,
              41,
              43,
              45,
              47,
              -1,
              49,
              51,
              53,
              -1,
              -1,
              -1,
              55,
              57,
              59,
              61,
              63,
              -1,
              65,
              67,
              -1,
              -1,
              69,
              71,
              -1,
              73,
              75,
              77,
              79,
              81,
              83,
              -1,
              85,
              87,
              -1,
              -1,
              -1,
              -1,
              -1,
              -1,
              -1,
              -1,
              -1,
              -1,
              -1,
              -1,
              -1,
              -1,
              -1,
              -1,
              -1,
              -1,
              -1,
              -1,
              -1,
              -1,
              -1,
              -1,
              -1,
              -1,
              -1,
              -1,
              -1,
              -1,
              -1,
              -1,
              -1,
              -1
            ],
            "loss_changes": [
              236.44298,
              14.795319,
              169.76823,
              3.9529953,
              18.056654,
              28.681026,
              35.121643,
              2.2792883,
              1.8278198,
              2.0745149,
              2.8567162,
              12.102371,
              11.07861,
              13.5798645,
              14.369632,
              2.4233723,
              0,
              0.38757324,
              2.2674494,
              2.145906,
              0,
              1.4677391,
              1.2782725,
              3.6543236,
              3.739847,
              10.893027,
              0,
              7.1141777,
              12.016235,
              13.112313,
              0,
              0,
              0,
              0.2128113,
              0.38318634,
              0.90214634,
              2.8418598,
              0.9082041,
              0,
              2.2378066,
              1.3653107,
              0,
              0,
              2.9507294,
              2.6057549,
              0,
              3.7943494,
              11.463793,
              6.121598,
              6.267233,
              2.0394669,
              7.1147156,
              0,
              2.1673794,
              13.3394375,
              0,
              0,
              0,
              0,
              0,
              0,
              0,
              0,
              0,
              0,
              0,
              0,
              0,
              0,
              0,
              0,
              0,
              0,
              0,
              0,
              0,
              0,
              0,
              0,
              0,
              0,
              0,
              0,
              0,
              0,
              0,
              0,
              0,
              0
            ],
            "parents": [
              2147483647,
              0,
              0,
              1,
              1,
              2,
              2,
              3,
              3,
              4,
              4,
              5,
              5,
              6,
              6,
              7,
              7,
              8,
              8,
              9,
              9,
              10,
              10,
              11,
              11,
              12,
              12,
              13,
              13,
              14,
              14,
              15,
              15,
              17,
              17,
              18,
              18,
              19,
              19,
              21,
              21,
              22,
              22,
              23,
              23,
              24,
              24,
              25,
              25,
              27,
              27,
              28,
              28,
              29,
              29,
              33,
              33,
              34,
              34,
              35,
              35,
              36,
              36,
              37,
              37,
              39,
              39,
              40,
              40,
              43,
              43,
              44,
              44,
              46,
              46,
              47,
              47,
              48,
              48,
              49,
              49,
              50,
              50,
              51,
              51,
              53,
              53,
              54,
              54
            ],
            "right_children": [
              2,
              4,
              6,
              8,
              10,
              12,
              14,
              16,
              18,
              20,
              22,
              24,
              26,
              28,
              30,
              32,
              -1,
              34,
              36,
              38,
              -1,
              40,
              42,
              44,
              46,
              48,
              -1,
              50,
              52,
              54,
              -1,
              -1,
              -1,
              56,
              58,
              60,
              62,
              64,
              -1,
              66,
              68,
              -1,
              -1,
              70,
              72,
              -1,
              74,
              76,
              78,
              80,
              82,
              84,
              -1,
              86,
              88,
              -1,
              -1,
              -1,
              -1,
              -1,
              -1,
              -1,
              -1,
              -1,
              -1,
              -1,
              -1,
              -1,
              -1,
              -1,
              -1,
              -1,
              -1,
              -1,
              -1,
              -1,
              -1,
              -1,
              -1,
              -1,
              -1,
              -1,
              -1,
              -1,
              -1,
              -1,
              -1,
              -1,
              -1
            ],
            "split_conditions": [
              0.11331791,
              137.75,
              1,
              18,
              -0.023,
              -14.83,
              0.00031515915,
              -1.011,
              0.082131,
              0.0108,
              18.819296,
              244.32904,
              0.035,
              -0.084733,
              -0.059,
              0.2176099,
              -0.044410598,
              235,
              -0.581,
              -108.1,
              0.057250965,
              13.478,
              0.411081,
              0.000222,
              12.2951,
              -51,
              0.12562129,
              11.866,
              0.099,
              10.5643835,
              0.1508051,
              0.11753732,
              -0.03369327,
              4.38,
              129,
              -0.140946,
              1,
              -0.027046,
              0.053497214,
              1.3,
              0.000342,
              -0.045109034,
              0.054364216,
              0.00032,
              -17.673,
              0.0958157,
              4.6,
              -1.23299,
              0.034,
              0.441,
              0.48,
              0.0877,
              -0.047466837,
              -19.54305,
              125.00718,
              0.01291496,
              -0.033687215,
              -0.06393538,
              -0.013981814,
              0.0072696293,
              -0.05405868,
              -0.041761052,
              0.10547765,
              -0.059571404,
              -0.001700173,
              0.09281001,
              -0.04212174,
              0.030835679,
              0.12537307,
              0.09295483,
              -0.03006146,
              0.12893164,
              0.04433157,
              -0.045795158,
              0.06392337,
              0.0052296263,
              -0.042811297,
              -0.050897688,
              0.08282617,
              0.043675642,
              0.13514155,
              0.008043384,
              0.1499076,
              -0.039791852,
              0.15704949,
              0.045541167,
              0.14316891,
              0.11473435,
              -0.029235387
            ],
            "split_indices": [
              49,
              41,
              0,
              41,
              50,
              64,
              16,
              64,
              49,
              10,
              61,
              60,
              69,
              58,
              46,
              14,
              0,
              35,
              64,
              42,
              0,
              65,
              44,
              72,
              71,
              42,
              0,
              68,
              53,
              61,
              0,
              0,
              0,
              13,
              36,
              50,
              0,
              50,
              0,
              13,
              72,
              0,
              0,
              6,
              64,
              0,
              14,
              15,
              66,
              49,
              44,
              9,
              0,
              61,
              60,
              0,
              0,
              0,
              0,
              0,
              0,
              0,
              0,
              0,
              0,
              0,
              0,
              0,
              0,
              0,
              0,
              0,
              0,
              0,
              0,
              0,
              0,
              0,
              0,
              0,
              0,
              0,
              0,
              0,
              0,
              0,
              0,
              0,
              0
            ],
            "split_type": [
              0,
              0,
              0,
              0,
              0,
              0,
              0,
              0,
              0,
              0,
              0,
              0,
              0,
              0,
              0,
              0,
              0,
              0,
              0,
              0,
              0,
              0,
              0,
              0,
              0,
              0,
              0,
              0,
              0,
              0,
              0,
              0,
              0,
              0,
              0,
              0,
              0,
              0,
              0,
              0,
              0,
              0,
              0,
              0,
              0,
              0,
              0,
              0,
              0,
              0,
              0,
              0,
              0,
              0,
              0,
              0,
              0,
              0,
              0,
              0,
              0,
              0,
              0,
              0,
              0,
              0,
              0,
              0,
              0,
              0,
              0,
              0,
              0,
              0,
              0,
              0,
              0,
              0,
              0,
              0,
              0,
              0,
              0,
              0,
              0,
              0,
              0,
              0,
              0
            ],
            "sum_hessian": [
              853.70496,
              291.20667,
              562.4983,
              239.0922,
              52.114452,
              277.21814,
              285.28015,
              5.250879,
              233.84132,
              33.349586,
              18.764868,
              55.22077,
              221.99736,
              222.317,
              62.963142,
              3.1093884,
              2.1414905,
              214.14723,
              19.694082,
              32.205254,
              1.1443332,
              15.399239,
              3.3656282,
              37.92264,
              17.298132,
              217.03508,
              4.9622836,
              62.03844,
              160.27856,
              52.335274,
              10.62787,
              2.0384352,
              1.0709534,
              2.1725001,
              211.97473,
              16.24095,
              3.4531317,
              31.01279,
              1.1924617,
              3.064422,
              12.334817,
              2.184216,
              1.1814123,
              6.1176157,
              31.805025,
              2.4364789,
              14.861653,
              197.58008,
              19.455,
              42.075153,
              19.96329,
              157.71114,
              2.5674284,
              12.584961,
              39.750313,
              1.1017563,
              1.0707438,
              209.78386,
              2.190878,
              2.6061664,
              13.634784,
              1.7850375,
              1.668094,
              27.954851,
              3.0579395,
              1.2611213,
              1.8033006,
              2.7139552,
              9.620862,
              2.4853323,
              3.6322837,
              25.987453,
              5.817572,
              11.6073675,
              3.2542858,
              95.43396,
              102.146126,
              3.5699356,
              15.885064,
              32.54067,
              9.534484,
              1.1914048,
              18.771885,
              1.4908326,
              156.22029,
              4.81918,
              7.765781,
              6.949476,
              32.80084
            ],
            "tree_param": {
              "num_deleted": "0",
              "num_feature": "74",
              "num_nodes": "89",
              "size_leaf_vector": "1"
            }
          },
          {
            "base_weights": [
              0.7847432,
              1.4763932,
              0.3482787,
              1.5967505,
              0.8781666,
              0.9784558,
              -0.44681284,
              0.71262646,
              1.61048,
              1.3461838,
              0.028496383,
              0.61060953,
              1.324539,
              -0.5560905,
              0.9933048,
              -0.038586404,
              0.11278345,
              0.89379543,
              1.61878,
              1.4001063,
              2.6337946e-06,
              -0.3398378,
              0.6286963,
              0.30056733,
              1.0988692,
              1.3964667,
              -0.20194355,
              0.11978128,
              -0.5810385,
              -0.2408112,
              0.15383774,
              -0.0004653513,
              0.12374778,
              0.1621743,
              0.051889885,
              1.4456443,
              0.004941709,
              0.036516577,
              -0.45254758,
              0.12083801,
              -0.27286974,
              1.1686805,
              0.12892677,
              0.031087592,
              1.2130105,
              1.4510754,
              0.38568243,
              0.054850023,
              -0.05416398,
              -0.61046696,
              0.5181717,
              0.023220249,
              -0.05070276,
              0.15076444,
              0.023209492,
              -0.058996256,
              0.006278625,
              0.011041543,
              -0.044570215,
              -0.03858497,
              0.13575737,
              -0.036693096,
              0.036622442,
              0.09239618,
              -0.035094656,
              -0.038435575,
              0.12653595,
              0.14717849,
              -0.008063931,
              -0.044514593,
              0.07078141,
              -0.062316835,
              -0.0038300354,
              0.09705524,
              -0.041757874
            ],
            "categories": [],
            "categories_nodes": [],
            "categories_segments": [],
            "categories_sizes": [],
            "default_left": [
              0,
              0,
              0,
              0,
              0,
              0,
              0,
              0,
              0,
              0,
              0,
              0,
              0,
              0,
              0,
              0,
              0,
              0,
              0,
              0,
              0,
              0,
              0,
              0,
              0,
              0,
              0,
              0,
              0,
              0,
              0,
              0,
              0,
              0,
              0,
              0,
              0,
              0,
              0,
              0,
              0,
              0,
              0,
              0,
              0,
              0,
              0,
              0,
              0,
              0,
              0,
              0,
              0,
              0,
              0,
              0,
              0,
              0,
              0,
              0,
              0,
              0,
              0,
              0,
              0,
              0,
              0,
              0,
              0,
              0,
              0,
              0,
              0,
              0,
              0
            ],
            "id": 5,
            "left_children": [
              1,
              3,
              5,
              7,
              9,
              11,
              13,
              15,
              17,
              19,
              21,
              23,
              25,
              27,
              29,
              -1,
              -1,
              31,
              33,
              35,
              -1,
              37,
              39,
              41,
              43,
              45,
              47,
              -1,
              49,
              51,
              -1,
              -1,
              -1,
              -1,
              -1,
              53,
              -1,
              -1,
              55,
              -1,
              57,
              59,
              61,
              63,
              65,
              67,
              69,
              -1,
              -1,
              71,
              73,
              -1,
              -1,
              -1,
              -1,
              -1,
              -1,
              -1,
              -1,
              -1,
              -1,
              -1,
              -1,
              -1,
              -1,
              -1,
              -1,
              -1,
              -1,
              -1,
              -1,
              -1,
              -1,
              -1,
              -1
            ],
            "loss_changes": [
              269.54352,
              23.495972,
              275.904,
              2.3320312,
              23.877525,
              38.27539,
              38.915073,
              3.2526112,
              0.22753906,
              2.8133926,
              5.161898,
              22.480007,
              17.556213,
              10.638237,
              12.177258,
              0,
              0,
              1.6903028,
              0.061279297,
              2.2206955,
              0,
              1.3190008,
              4.9617634,
              13.786606,
              7.0488358,
              7.7407837,
              2.3246,
              0,
              7.585106,
              0.90372884,
              0,
              0,
              0,
              0,
              0,
              2.359871,
              0,
              0,
              0.9551468,
              0,
              0.3330231,
              5.0214596,
              9.455843,
              2.5897248,
              4.8767014,
              4.632721,
              2.7424936,
              0,
              0,
              1.5698853,
              3.1144624,
              0,
              0,
              0,
              0,
              0,
              0,
              0,
              0,
              0,
              0,
              0,
              0,
              0,
              0,
              0,
              0,
              0,
              0,
              0,
              0,
              0,
              0,
              0,
              0
            ],
            "parents": [
              2147483647,
              0,
              0,
              1,
              1,
              2,
              2,
              3,
              3,
              4,
              4,
              5,
              5,
              6,
              6,
              7,
              7,
              8,
              8,
              9,
              9,
              10,
              10,
              11,
              11,
              12,
              12,
              13,
              13,
              14,
              14,
              17,
              17,
              18,
              18,
              19,
              19,
              21,
              21,
              22,
              22,
              23,
              23,
              24,
              24,
              25,
              25,
              26,
              26,
              28,
              28,
              29,
              29,
              35,
              35,
              38,
              38,
              40,
              40,
              41,
              41,
              42,
              42,
              43,
              43,
              44,
              44,
              45,
              45,
              46,
              46,
              49,
              49,
              50,
              50
            ],
            "right_children": [
              2,
              4,
              6,
              8,
              10,
              12,
              14,
              16,
              18,
              20,
              22,
              24,
              26,
              28,
              30,
              -1,
              -1,
              32,
              34,
              36,
              -1,
              38,
              40,
              42,
              44,
              46,
              48,
              -1,
              50,
              52,
              -1,
              -1,
              -1,
              -1,
              -1,
              54,
              -1,
              -1,
              56,
              -1,
              58,
              60,
              62,
              64,
              66,
              68,
              70,
              -1,
              -1,
              72,
              74,
              -1,
              -1,
              -1,
              -1,
              -1,
              -1,
              -1,
              -1,
              -1,
              -1,
              -1,
              -1,
              -1,
              -1,
              -1,
              -1,
              -1,
              -1,
              -1,
              -1,
              -1,
              -1,
              -1,
              -1
            ],
            "split_conditions": [
              0.11331791,
              136.4,
              1,
              18,
              -0.029287,
              2017,
              2022,
              0.022,
              -0.104207,
              -108.1,
              6.13174,
              -1.23299,
              793.131,
              0.094,
              0.1001,
              -0.038586404,
              0.11278345,
              0.074599,
              5.151,
              2022,
              2.6337946e-06,
              0.000244,
              1,
              2016,
              51,
              0.00089,
              4.284523,
              0.11978128,
              -0.103,
              0.000205,
              0.15383774,
              -0.0004653513,
              0.12374778,
              0.1621743,
              0.051889885,
              0.12639,
              0.004941709,
              0.036516577,
              2018,
              0.12083801,
              178.226,
              0.516,
              2.653275,
              0.00011,
              -0.16,
              6.7,
              2.1805577,
              0.054850023,
              -0.05416398,
              -7.3e-06,
              110,
              0.023220249,
              -0.05070276,
              0.15076444,
              0.023209492,
              -0.058996256,
              0.006278625,
              0.011041543,
              -0.044570215,
              -0.03858497,
              0.13575737,
              -0.036693096,
              0.036622442,
              0.09239618,
              -0.035094656,
              -0.038435575,
              0.12653595,
              0.14717849,
              -0.008063931,
              -0.044514593,
              0.07078141,
              -0.062316835,
              -0.0038300354,
              0.09705524,
              -0.041757874
            ],
            "split_indices": [
              49,
              41,
              0,
              41,
              50,
              3,
              3,
              69,
              50,
              42,
              5,
              15,
              62,
              9,
              9,
              0,
              0,
              57,
              14,
              3,
              0,
              72,
              0,
              3,
              41,
              72,
              5,
              0,
              15,
              6,
              0,
              0,
              0,
              0,
              0,
              45,
              0,
              0,
              3,
              0,
              62,
              44,
              5,
              6,
              52,
              14,
              5,
              0,
              0,
              7,
              41,
              0,
              0,
              0,
              0,
              0,
              0,
              0,
              0,
              0,
              0,
              0,
              0,
              0,
              0,
              0,
              0,
              0,
              0,
              0,
              0,
              0,
              0,
              0,
              0
            ],
            "split_type": [
              0,
              0,
              0,
              0,
              0,
              0,
              0,
              0,
              0,
              0,
              0,
              0,
              0,
              0,
              0,
              0,
              0,
              0,
              0,
              0,
              0,
              0,
              0,
              0,
              0,
              0,
              0,
              0,
              0,
              0,
              0,
              0,
              0,
              0,
              0,
              0,
              0,
              0,
              0,
              0,
              0,
              0,
              0,
              0,
              0,
              0,
              0,
              0,
              0,
              0,
              0,
              0,
              0,
              0,
              0,
              0,
              0,
              0,
              0,
              0,
              0,
              0,
              0,
              0,
              0,
              0,
              0,
              0,
              0,
              0,
              0,
              0,
              0,
              0,
              0
            ],
            "sum_hessian": [
              893.5842,
              344.80353,
              548.7807,
              285.66202,
              59.14151,
              306.01077,
              242.76996,
              5.1771727,
              280.48483,
              37.75878,
              21.38273,
              149.68124,
              156.32951,
              226.21815,
              16.551807,
              1.4394858,
              3.737687,
              4.455464,
              276.0294,
              36.26601,
              1.4927729,
              13.519684,
              7.8630457,
              92.53661,
              57.144638,
              149.3761,
              6.9534254,
              2.513329,
              223.70482,
              5.2418265,
              11.30998,
              1.5057129,
              2.949751,
              274.8146,
              1.2147887,
              35.015186,
              1.250823,
              1.554756,
              11.964928,
              4.5787287,
              3.284317,
              14.316848,
              78.219765,
              5.641476,
              51.50316,
              141.30626,
              8.069826,
              1.9752035,
              4.978222,
              218.30492,
              5.3999095,
              1.9337337,
              3.3080928,
              33.082657,
              1.9325303,
              9.331774,
              2.6331546,
              1.1329498,
              2.1513672,
              1.438204,
              12.878644,
              25.140282,
              53.079483,
              1.2654314,
              4.3760448,
              1.433056,
              50.070103,
              139.45985,
              1.8464181,
              2.1479776,
              5.921849,
              213.47687,
              4.828046,
              3.615052,
              1.7848575
            ],
            "tree_param": {
              "num_deleted": "0",
              "num_feature": "74",
              "num_nodes": "75",
              "size_leaf_vector": "1"
            }
          },
          {
            "base_weights": [
              -0.44807488,
              0.26270556,
              -0.5305393,
              -0.29838216,
              0.9085066,
              -0.33546445,
              -0.06498044,
              -0.56524813,
              0.18807751,
              1.3446476,
              -0.19687055,
              0.04043513,
              -0.5177728,
              -0.5964691,
              0.014365493,
              0.9128952,
              -0.3190114,
              -0.039077207,
              1.4523578,
              0.05843079,
              -0.40089592,
              -0.3683904,
              0.6965632,
              0.18103044,
              -0.5599901,
              -0.13307121,
              -0.06289444,
              0.12876664,
              -0.009788274,
              0.35217372,
              -0.05747343,
              0.15017809,
              0.0548245,
              0.006152486,
              -0.056881752,
              -0.5257771,
              0.07853041,
              0.18553172,
              0.16586447,
              0.6366461,
              -0.052756406,
              -0.580892,
              0.32701,
              -0.033717494,
              0.013206154,
              -0.038922157,
              0.10347813,
              0.055574454,
              -0.0420858,
              0.03814478,
              -0.05691147,
              -0.015466138,
              0.09084787,
              0.08252153,
              -0.023397366,
              -0.020690052,
              0.114260174,
              0.032588404,
              -0.059702672,
              0.078289986,
              -0.039649297
            ],
            "categories": [],
            "categories_nodes": [],
            "categories_segments": [],
            "categories_sizes": [],
            "default_left": [
              0,
              0,
              0,
              0,
              0,
              0,
              0,
              0,
              0,
              0,
              0,
              0,
              0,
              0,
              0,
              0,
              0,
              0,
              0,
              0,
              0,
              0,
              0,
              0,
              0,
              0,
              0,
              0,
              0,
              0,
              0,
              0,
              0,
              0,
              0,
              0,
              0,
              0,
              0,
              0,
              0,
              0,
              0,
              0,
              0,
              0,
              0,
              0,
              0,
              0,
              0,
              0,
              0,
              0,
              0,
              0,
              0,
              0,
              0,
              0,
              0
            ],
            "id": 6,
            "left_children": [
              1,
              3,
              5,
              7,
              9,
              11,
              -1,
              13,
              15,
              17,
              19,
              21,
              23,
              25,
              -1,
              27,
              29,
              -1,
              31,
              -1,
              33,
              35,
              37,
              39,
              41,
              43,
              -1,
              -1,
              -1,
              45,
              -1,
              -1,
              -1,
              47,
              -1,
              49,
              51,
              53,
              -1,
              55,
              -1,
              57,
              59,
              -1,
              -1,
              -1,
              -1,
              -1,
              -1,
              -1,
              -1,
              -1,
              -1,
              -1,
              -1,
              -1,
              -1,
              -1,
              -1,
              -1,
              -1
            ],
            "loss_changes": [
              47.66107,
              31.054111,
              16.691498,
              6.10541,
              19.424606,
              19.06028,
              0,
              0.751667,
              6.583861,
              5.918354,
              2.1653967,
              24.844872,
              5.622959,
              0.35295582,
              0,
              2.8937469,
              2.0585475,
              0,
              0.39050674,
              0,
              0.70072496,
              4.059742,
              17.163223,
              4.0223513,
              3.4667816,
              0.21599509,
              0,
              0,
              0,
              2.226475,
              0,
              0,
              0,
              1.1651947,
              0,
              1.883358,
              3.1885083,
              6.72304,
              0,
              3.3960285,
              0,
              2.7261505,
              1.8635674,
              0,
              0,
              0,
              0,
              0,
              0,
              0,
              0,
              0,
              0,
              0,
              0,
              0,
              0,
              0,
              0,
              0,
              0
            ],
            "parents": [
              2147483647,
              0,
              0,
              1,
              1,
              2,
              2,
              3,
              3,
              4,
              4,
              5,
              5,
              7,
              7,
              8,
              8,
              9,
              9,
              10,
              10,
              11,
              11,
              12,
              12,
              13,
              13,
              15,
              15,
              16,
              16,
              18,
              18,
              20,
              20,
              21,
              21,
              22,
              22,
              23,
              23,
              24,
              24,
              25,
              25,
              29,
              29,
              33,
              33,
              35,
              35,
              36,
              36,
              37,
              37,
              39,
              39,
              41,
              41,
              42,
              42
            ],
            "right_children": [
              2,
              4,
              6,
              8,
              10,
              12,
              -1,
              14,
              16,
              18,
              20,
              22,
              24,
              26,
              -1,
              28,
              30,
              -1,
              32,
              -1,
              34,
              36,
              38,
              40,
              42,
              44,
              -1,
              -1,
              -1,
              46,
              -1,
              -1,
              -1,
              48,
              -1,
              50,
              52,
              54,
              -1,
              56,
              -1,
              58,
              60,
              -1,
              -1,
              -1,
              -1,
              -1,
              -1,
              -1,
              -1,
              -1,
              -1,
              -1,
              -1,
              -1,
              -1,
              -1,
              -1,
              -1,
              -1
            ],
            "split_conditions": [
              -0.00106,
              0.013,
              1,
              10.2,
              169.11703,
              -0.0064,
              -0.06498044,
              0.004868,
              18.604,
              99.55515,
              -20.231798,
              2017,
              -25,
              0.9898,
              0.014365493,
              22.3,
              -12.806674,
              -0.039077207,
              17.5202,
              0.05843079,
              13.363,
              23.413,
              0.88,
              13.5627,
              2022,
              3.7e-05,
              -0.06289444,
              0.12876664,
              -0.009788274,
              111.87,
              -0.05747343,
              0.15017809,
              0.0548245,
              4843,
              -0.056881752,
              67.412865,
              12.81,
              -0.12,
              0.16586447,
              12.1818,
              -0.052756406,
              3385,
              0.084,
              -0.033717494,
              0.013206154,
              -0.038922157,
              0.10347813,
              0.055574454,
              -0.0420858,
              0.03814478,
              -0.05691147,
              -0.015466138,
              0.09084787,
              0.08252153,
              -0.023397366,
              -0.020690052,
              0.114260174,
              0.032588404,
              -0.059702672,
              0.078289986,
              -0.039649297
            ],
            "split_indices": [
              73,
              6,
              2,
              13,
              60,
              7,
              0,
              72,
              63,
              60,
              61,
              3,
              15,
              13,
              0,
              14,
              61,
              0,
              71,
              0,
              65,
              63,
              48,
              71,
              3,
              6,
              0,
              0,
              0,
              41,
              0,
              0,
              0,
              40,
              0,
              60,
              13,
              46,
              0,
              71,
              0,
              40,
              66,
              0,
              0,
              0,
              0,
              0,
              0,
              0,
              0,
              0,
              0,
              0,
              0,
              0,
              0,
              0,
              0,
              0,
              0
            ],
            "split_type": [
              0,
              0,
              0,
              0,
              0,
              0,
              0,
              0,
              0,
              0,
              0,
              0,
              0,
              0,
              0,
              0,
              0,
              0,
              0,
              0,
              0,
              0,
              0,
              0,
              0,
              0,
              0,
              0,
              0,
              0,
              0,
              0,
              0,
              0,
              0,
              0,
              0,
              0,
              0,
              0,
              0,
              0,
              0,
              0,
              0,
              0,
              0,
              0,
              0,
              0,
              0,
              0,
              0,
              0,
              0,
              0,
              0,
              0,
              0,
              0,
              0
            ],
            "sum_hessian": [
              809.75586,
              83.9536,
              725.80225,
              45.21108,
              38.742523,
              276.8265,
              448.9757,
              29.090446,
              16.120632,
              27.6259,
              11.116623,
              90.66452,
              186.162,
              28.015223,
              1.0752242,
              6.3063116,
              9.81432,
              1.4608442,
              26.165056,
              1.9161422,
              9.200481,
              56.129463,
              34.53506,
              10.418669,
              175.74333,
              2.1685967,
              25.846624,
              4.400705,
              1.9056072,
              2.6035972,
              7.2107224,
              24.182093,
              1.9829637,
              2.9683778,
              6.2321033,
              41.380535,
              14.748926,
              23.333687,
              11.201373,
              6.403105,
              4.0155635,
              172.03448,
              3.7088413,
              1.071792,
              1.0968049,
              1.454085,
              1.1495122,
              1.1660776,
              1.8023002,
              1.5309052,
              39.849632,
              12.149042,
              2.5998845,
              8.858567,
              14.475119,
              2.6222572,
              3.7808475,
              2.6719546,
              169.36253,
              2.2248404,
              1.4840008
            ],
            "tree_param": {
              "num_deleted": "0",
              "num_feature": "74",
              "num_nodes": "61",
              "size_leaf_vector": "1"
            }
          },
          {
            "base_weights": [
              -0.635033,
              -0.3251384,
              -0.6397926,
              0.10057954,
              -0.059920598,
              -0.0643241,
              -0.49422038,
              -0.0622282,
              0.07521005
            ],
            "categories": [],
            "categories_nodes": [],
            "categories_segments": [],
            "categories_sizes": [],
            "default_left": [
              0,
              0,
              0,
              0,
              0,
              0,
              0,
              0,
              0
            ],
            "id": 7,
            "left_children": [
              1,
              3,
              5,
              -1,
              -1,
              -1,
              7,
              -1,
              -1
            ],
            "loss_changes": [
              0.9812927,
              5.7934628,
              0.08023071,
              0,
              0,
              0,
              4.086143,
              0,
              0
            ],
            "parents": [
              2147483647,
              0,
              0,
              1,
              1,
              2,
              2,
              6,
              6
            ],
            "right_children": [
              2,
              4,
              6,
              -1,
              -1,
              -1,
              8,
              -1,
              -1
            ],
            "split_conditions": [
              -27.12353,
              0.02,
              1495.88,
              0.10057954,
              -0.059920598,
              -0.0643241,
              333.11008,
              -0.0622282,
              0.07521005
            ],
            "split_indices": [
              61,
              69,
              62,
              0,
              0,
              0,
              60,
              0,
              0
            ],
            "split_type": [
              0,
              0,
              0,
              0,
              0,
              0,
              0,
              0,
              0
            ],
            "sum_hessian": [
              805.341,
              13.230458,
              792.11053,
              1.803308,
              11.42715,
              770.4414,
              21.669127,
              20.104101,
              1.5650254
            ],
            "tree_param": {
              "num_deleted": "0",
              "num_feature": "74",
              "num_nodes": "9",
              "size_leaf_vector": "1"
            }
          },
          {
            "base_weights": [
              0.22524166,
              1.1420748,
              -0.5941602,
              1.3122938,
              0.6628799,
              -0.60033315,
              0.41051668,
              1.3746827,
              1.0463223,
              0.9573421,
              -0.07739332,
              0.038741004,
              -0.60454595,
              -0.035692822,
              0.09617119,
              0.098743916,
              1.3872784,
              1.0940704,
              -0.017724035,
              -0.08653255,
              1.1183876,
              0.82976174,
              -0.29203585,
              0.16649099,
              -0.6087314,
              0.054027807,
              -0.03820708,
              1.400517,
              0.46296105,
              0.31384355,
              1.1837821,
              0.6787428,
              -0.37189782,
              -0.050617088,
              1.1774743,
              0.120591395,
              0.12703404,
              0.7540607,
              -0.4914767,
              0.057392616,
              -0.03363277,
              -0.44794032,
              -0.6161422,
              0.061775554,
              0.14118378,
              -0.039105017,
              0.08674199,
              0.07852133,
              -0.048362534,
              -0.0369133,
              0.12268543,
              0.09840513,
              0.0068271942,
              0.050644677,
              -0.057941463,
              0.051353205,
              -0.04553537,
              0.03591089,
              0.124521315,
              -0.035734516,
              0.054235842,
              -0.035819065,
              0.122319214,
              -0.056968387,
              0.015295396,
              0.04993632,
              -0.061162055,
              -0.05382694,
              -0.062769815
            ],
            "categories": [],
            "categories_nodes": [],
            "categories_segments": [],
            "categories_sizes": [],
            "default_left": [
              0,
              0,
              0,
              0,
              0,
              0,
              0,
              0,
              0,
              0,
              0,
              0,
              0,
              0,
              0,
              0,
              0,
              0,
              0,
              0,
              0,
              0,
              0,
              0,
              0,
              0,
              0,
              0,
              0,
              0,
              0,
              0,
              0,
              0,
              0,
              0,
              0,
              0,
              0,
              0,
              0,
              0,
              0,
              0,
              0,
              0,
              0,
              0,
              0,
              0,
              0,
              0,
              0,
              0,
              0,
              0,
              0,
              0,
              0,
              0,
              0,
              0,
              0,
              0,
              0,
              0,
              0,
              0,
              0
            ],
            "id": 8,
            "left_children": [
              1,
              3,
              5,
              7,
              9,
              11,
              13,
              15,
              17,
              19,
              21,
              -1,
              23,
              -1,
              -1,
              25,
              27,
              29,
              -1,
              31,
              33,
              35,
              37,
              39,
              41,
              -1,
              -1,
              43,
              45,
              47,
              49,
              51,
              53,
              55,
              57,
              -1,
              59,
              61,
              63,
              -1,
              -1,
              65,
              67,
              -1,
              -1,
              -1,
              -1,
              -1,
              -1,
              -1,
              -1,
              -1,
              -1,
              -1,
              -1,
              -1,
              -1,
              -1,
              -1,
              -1,
              -1,
              -1,
              -1,
              -1,
              -1,
              -1,
              -1,
              -1,
              -1
            ],
            "loss_changes": [
              643.8581,
              32.11548,
              3.0543365,
              3.4961548,
              23.619728,
              2.1083374,
              1.7640302,
              3.683014,
              3.739479,
              13.10054,
              6.4077783,
              0,
              1.5499115,
              0,
              0,
              0.9282504,
              2.2307434,
              3.7265778,
              0,
              2.7128992,
              4.6933594,
              1.5170951,
              5.8671346,
              0.850379,
              0.25624084,
              0,
              0,
              1.1789551,
              2.0027502,
              3.1608624,
              3.94104,
              0.5691539,
              1.9070241,
              1.1897347,
              3.0950623,
              0,
              0.86187536,
              2.8452208,
              1.2328157,
              0,
              0,
              3.9247937,
              0.04396057,
              0,
              0,
              0,
              0,
              0,
              0,
              0,
              0,
              0,
              0,
              0,
              0,
              0,
              0,
              0,
              0,
              0,
              0,
              0,
              0,
              0,
              0,
              0,
              0,
              0,
              0
            ],
            "parents": [
              2147483647,
              0,
              0,
              1,
              1,
              2,
              2,
              3,
              3,
              4,
              4,
              5,
              5,
              6,
              6,
              7,
              7,
              8,
              8,
              9,
              9,
              10,
              10,
              12,
              12,
              15,
              15,
              16,
              16,
              17,
              17,
              19,
              19,
              20,
              20,
              21,
              21,
              22,
              22,
              23,
              23,
              24,
              24,
              27,
              27,
              28,
              28,
              29,
              29,
              30,
              30,
              31,
              31,
              32,
              32,
              33,
              33,
              34,
              34,
              36,
              36,
              37,
              37,
              38,
              38,
              41,
              41,
              42,
              42
            ],
            "right_children": [
              2,
              4,
              6,
              8,
              10,
              12,
              14,
              16,
              18,
              20,
              22,
              -1,
              24,
              -1,
              -1,
              26,
              28,
              30,
              -1,
              32,
              34,
              36,
              38,
              40,
              42,
              -1,
              -1,
              44,
              46,
              48,
              50,
              52,
              54,
              56,
              58,
              -1,
              60,
              62,
              64,
              -1,
              -1,
              66,
              68,
              -1,
              -1,
              -1,
              -1,
              -1,
              -1,
              -1,
              -1,
              -1,
              -1,
              -1,
              -1,
              -1,
              -1,
              -1,
              -1,
              -1,
              -1,
              -1,
              -1,
              -1,
              -1,
              -1,
              -1,
              -1,
              -1
            ],
            "split_conditions": [
              1,
              0.00031515915,
              17.73,
              18.416355,
              0.00106,
              -0.00075757573,
              0.245269,
              3230,
              -0.006,
              -0.064,
              0.8890076,
              0.038741004,
              -0.0409,
              -0.035692822,
              0.09617119,
              0.4951,
              0.166,
              4938,
              -0.017724035,
              5063,
              0.658524,
              207.65549,
              128.31097,
              0.79,
              0.018,
              0.054027807,
              -0.03820708,
              0.0035,
              -8.71457,
              11.81,
              39,
              132.52356,
              6.282,
              14.06,
              -0.208,
              0.120591395,
              2.91825,
              0.85,
              17.5202,
              0.057392616,
              -0.03363277,
              54.274323,
              1.48,
              0.061775554,
              0.14118378,
              -0.039105017,
              0.08674199,
              0.07852133,
              -0.048362534,
              -0.0369133,
              0.12268543,
              0.09840513,
              0.0068271942,
              0.050644677,
              -0.057941463,
              0.051353205,
              -0.04553537,
              0.03591089,
              0.124521315,
              -0.035734516,
              0.054235842,
              -0.035819065,
              0.122319214,
              -0.056968387,
              0.015295396,
              0.04993632,
              -0.061162055,
