{"learner":{"attributes":{"scikit_learn":"{\"_estimator_type\": \"classifier\"}"},"feature_names":["default_flag","sy_snum","sy_pnum","disc_year","pl_controv_flag","pl_orbper","pl_orbpererr1","pl_orbpererr2","pl_orbperlim","pl_orbsmax","pl_orbsmaxerr1","pl_orbsmaxerr2","pl_orbsmaxlim","pl_rade","pl_radeerr1","pl_radeerr2","pl_radelim","pl_radj","pl_radjerr1","pl_radjerr2","pl_radjlim","pl_bmasse","pl_bmasseerr1","pl_bmasseerr2","pl_bmasselim","pl_bmassj","pl_bmassjerr1","pl_bmassjerr2","pl_bmassjlim","pl_orbeccen","pl_orbeccenlim","pl_insol","pl_insolerr1","pl_insolerr2","pl_insollim","pl_eqt","pl_eqterr1","pl_eqterr2","pl_eqtlim","ttv_flag","st_teff","st_tefferr1","st_tefferr2","st_tefflim","st_rad","st_raderr1","st_raderr2","st_radlim","st_mass","st_masserr1","st_masserr2","st_masslim","st_met","st_meterr1","st_meterr2","st_metlim","st_logg","st_loggerr1","st_loggerr2","st_logglim","ra","dec","sy_dist","sy_disterr1","sy_disterr2","sy_vmag","sy_vmagerr1","sy_vmagerr2","sy_kmag","sy_kmagerr1","sy_kmagerr2","sy_gaiamag","sy_gaiamagerr1","sy_gaiamagerr2"],"feature_types":["int","int","int","int","int","float","float","float","float","float","float","float","float","float","float","float","float","float","float","float","float","float","float","float","float","float","float","float","float","float","float","float","float","float","float","float","float","float","float","int","float","float","float","float","float","float","float","float","float","float","float","float","float","float","float","float","float","float","float","float","float","float","float","float","float","float","float","float","float","float","float","float","float","float"],"gradient_booster":{"model":{"gbtree_model_param":{"num_parallel_tree":"1","num_trees":"400"},"iteration_indptr":[0,4,8,12,16,20,24,28,32,36,40,44,48,52,56,60,64,68,72,76,80,84,88,92,96,100,104,108,112,116,120,124,128,132,136,140,144,148,152,156,160,164,168,172,176,180,184,188,192,196,200,204,208,212,216,220,224,228,232,236,240,244,248,252,256,260,264,268,272,276,280,284,288,292,296,300,304,308,312,316,320,324,328,332,336,340,344,348,352,356,360,364,368,372,376,380,384,388,392,396,400],"tree_info":[0,1,2,3,0,1,2,3,0,1,2,3,0,1,2,3,0,1,2,3,0,1,2,3,0,1,2,3,0,1,2,3,0,1,2,3,0,1,2,3,0,1,2,3,0,1,2,3,0,1,2,3,0,1,2,3,0,1,2,3,0,1,2,3,0,1,2,3,0,1,2,3,0,1,2,3,0,1,2,3,0,1,2,3,0,1,2,3,0,1,2,3,0,1,2,3,0,1,2,3,0,1,2,3,0,1,2,3,0,1,2,3,0,1,2,3,0,1,2,3,0,1,2,3,0,1,2,3,0,1,2,3,0,1,2,3,0,1,2,3,0,1,2,3,0,1,2,3,0,1,2,3,0,1,2,3,0,1,2,3,0,1,2,3,0,1,2,3,0,1,2,3,0,1,2,3,0,1,2,3,0,1,2,3,0,1,2,3,0,1,2,3,0,1,2,3,0,1,2,3,0,1,2,3,0,1,2,3,0,1,2,3,0,1,2,3,0,1,2,3,0,1,2,3,0,1,2,3,0,1,2,3,0,1,2,3,0,1,2,3,0,1,2,3,0,1,2,3,0,1,2,3,0,1,2,3,0,1,2,3,0,1,2,3,0,1,2,3,0,1,2,3,0,1,2,3,0,1,2,3,0,1,2,3,0,1,2,3,0,1,2,3,0,1,2,3,0,1,2,3,0,1,2,3,0,1,2,3,0,1,2,3,0,1,2,3,0,1,2,3,0,1,2,3,0,1,2,3,0,1,2,3,0,1,2,3,0,1,2,3,0,1,2,3,0,1,2,3,0,1,2,3,0,1,2,3,0,1,2,3,0,1,2,3,0,1,2,3,0,1,2,3,0,1,2,3,0,1,2,3,0,1,2,3,0,1,2,3,0,1,2,3,0,1,2,3,0,1,2,3],"trees":[{"base_weights":[2.366617E-1,1.4595376E0,-6.207595E-1,1.7474542E0,7.4876845E-1,4.0000003E-2,-6.246826E-1,1.5103927E0,1.920434E0,1.5307918E0,1.7954071E-1,1.5384616E-1,-6.2857145E-1,1.6724409E0,1.0292886E0,4E-1,1.9555143E0,1.6284829E0,-1.5384616E-1,6.622951E-1,-6.373627E-2,5.8823533E-2,-3.529412E-2,-6.305015E-1,-0E0,1.6932907E0,1.1764706E-2,1.2941177E0,3.3766234E-1,1.0588236E-1,-1.5384616E-1,1.9697542E-1,8.965517E-1,1.7114754E0,1.5384616E-1,-3.529412E-2,1.1764706E-2,1.2340425E0,-2.4E-1,-6.564992E-2,-5.528613E-1,1.1764706E-2,1.7147487E-1,1.5384616E-2,1.4210527E-1,-1.1320755E-2,1E-1,1.1764706E-2,-3.529412E-2,1.1764706E-2,1.20000005E-1,1.8709677E-1,8.923077E-2,5.8823533E-2,-3.529412E-2,1.8867925E-2,1.5524475E-1,-4.7272727E-2,9.565218E-2,-1.4285715E-2,-6.601227E-2],"categories":[],"categories_nodes":[],"categories_segments":[],"categories_sizes":[],"default_left":[0,0,0,0,0,0,0,0,0,0,0,0,0,0,0,0,0,0,0,0,0,0,0,0,0,0,0,0,0,0,0,0,0,0,0,0,0,0,0,0,0,0,0,0,0,0,0,0,0,0,0,0,0,0,0,0,0,0,0,0,0],"id":0,"left_children":[1,3,5,7,9,-1,11,13,15,17,19,21,23,25,27,29,31,33,35,37,-1,-1,-1,39,-1,41,-1,43,45,-1,47,-1,49,51,53,-1,-1,55,57,-1,59,-1,-1,-1,-1,-1,-1,-1,-1,-1,-1,-1,-1,-1,-1,-1,-1,-1,-1,-1,-1],"loss_changes":[8.8035187E2,6.949774E1,2.2270966E0,7.166565E0,4.490782E1,0E0,1.5870361E0,6.717987E0,6.5917053E0,7.2655106E0,2.4034645E1,9.230769E-1,5.9446716E-1,2.3739014E0,5.0350113E0,1.7592759E0,2.678833E-1,4.6779327E0,2.1719459E-1,1.9964287E1,0E0,0E0,0E0,6.2306213E-1,0E0,2.443924E0,0E0,2.857109E0,2.987503E0,0E0,2.1719459E-1,0E0,7.156186E-1,3.311592E0,9.230769E-1,0E0,0E0,7.5290337E0,4.803162E0,0E0,5.5733147E0,0E0,0E0,0E0,0E0,0E0,0E0,0E0,0E0,0E0,0E0,0E0,0E0,0E0,0E0,0E0,0E0,0E0,0E0,0E0,0E0],"parents":[2147483647,0,0,1,1,2,2,3,3,4,4,6,6,7,7,8,8,9,9,10,10,11,11,12,12,13,13,14,14,15,15,16,16,17,17,18,18,19,19,23,23,25,25,27,27,28,28,30,30,32,32,33,33,34,34,37,37,38,38,40,40],"right_children":[2,4,6,8,10,-1,12,14,16,18,20,22,24,26,28,30,32,34,36,38,-1,-1,-1,40,-1,42,-1,44,46,-1,48,-1,50,52,54,-1,-1,56,58,-1,60,-1,-1,-1,-1,-1,-1,-1,-1,-1,-1,-1,-1,-1,-1,-1,-1,-1,-1,-1,-1],"split_conditions":[1E0,3.1515915E-4,-7.5757573E-4,2.018E3,2.017E3,4.0000003E-2,-4.09E-2,2.9563513E-1,6.687E-2,1E-1,8.8E-1,1.4189859E1,1.74584E1,2.11E-1,1.03E-1,7.1E-1,2.022E3,2.08E-1,9.784E1,1.047E-3,-6.373627E-2,5.8823533E-2,-3.529412E-2,1E0,-0E0,2.541E-3,1.1764706E-2,2.016E3,1.53216E1,1.0588236E-1,5.09E-4,1.9697542E-1,5.09E-4,1.06E-3,-1.5069495E1,-3.529412E-2,1.1764706E-2,8.47E-1,2.019E3,-6.564992E-2,-9E-2,1.1764706E-2,1.7147487E-1,1.5384616E-2,1.4210527E-1,-1.1320755E-2,1E-1,1.1764706E-2,-3.529412E-2,1.1764706E-2,1.20000005E-1,1.8709677E-1,8.923077E-2,5.8823533E-2,-3.529412E-2,1.8867925E-2,1.5524475E-1,-4.7272727E-2,9.565218E-2,-1.4285715E-2,-6.601227E-2],"split_indices":[2,16,8,3,3,0,11,18,9,53,48,6,65,52,66,48,3,66,41,72,0,0,0,0,0,57,0,3,71,0,6,0,6,72,61,0,0,48,3,0,50,0,0,0,0,0,0,0,0,0,0,0,0,0,0,0,0,0,0,0,0],"split_type":[0,0,0,0,0,0,0,0,0,0,0,0,0,0,0,0,0,0,0,0,0,0,0,0,0,0,0,0,0,0,0,0,0,0,0,0,0,0,0,0,0,0,0,0,0,0,0,0,0,0,0,0,0,0,0,0,0,0,0,0,0],"sum_hessian":[8.3775E2,3.45E2,4.9275E2,2.445E2,1.005E2,1.5E0,4.9125E2,1.0725E2,1.3725E2,4.1625E1,5.8875E1,2.25E0,4.89E2,7.8375E1,2.8875E1,3.375E0,1.33875E2,3.9375E1,2.25E0,3.7125E1,2.175E1,1.125E0,1.125E0,4.875E2,1.5E0,7.725E1,1.125E0,2.025E1,8.625E0,1.125E0,2.25E0,1.3125E2,2.625E0,3.7125E1,2.25E0,1.125E0,1.125E0,2.25E1,1.4625E1,3.59625E2,1.27875E2,1.125E0,7.6125E1,2.25E0,1.8E1,5.625E0,3E0,1.125E0,1.125E0,1.125E0,1.5E0,3E1,7.125E0,1.125E0,1.125E0,5.625E0,1.6875E1,1.275E1,1.875E0,2.7E1,1.00875E2],"tree_param":{"num_deleted":"0","num_feature":"74","num_nodes":"61","size_leaf_vector":"1"}},{"base_weights":[8.752617E-1,-6.647378E-2,1.957241E0,1.1764706E-2,1.9612244E0,1.9631808E-1,5.8823533E-2],"categories":[],"categories_nodes":[],"categories_segments":[],"categories_sizes":[],"default_left":[0,0,0,0,0,0,0],"id":1,"left_children":[1,-1,3,-1,5,-1,-1],"loss_changes":[1.3938674E3,0E0,3.368164E0,0E0,1.6137695E-1,0E0,0E0],"parents":[2147483647,0,0,2,2,4,4],"right_children":[2,-1,4,-1,6,-1,-1],"split_conditions":[1E0,-6.647378E-2,-7.5757573E-4,1.1764706E-2,1.773E1,1.9631808E-1,5.8823533E-2],"split_indices":[2,0,8,0,65,0,0],"split_type":[0,0,0,0,0,0,0],"sum_hessian":[8.3475E2,3.44625E2,4.90125E2,1.125E0,4.89E2,4.87875E2,1.125E0],"tree_param":{"num_deleted":"0","num_feature":"74","num_nodes":"7","size_leaf_vector":"1"}},{"base_weights":[-4.7389072E-1,2.9317853E-1,-5.6215304E-1,-2.9765013E-1,1.0063695E0,-3.8741574E-1,-6.6523604E-2,-5.7740587E-1,1.5789473E-1,-2.4299066E-1,1.5906976E0,-4.6601942E-1,5.6647396E-1,-6.411483E-2,-1.0526316E-1,1.4482759E-1,-1.3740458E-1,5E-1,-5.060241E-1,-4.0000003E-2,1.7241379E0,9.433962E-1,-5.012407E-1,1.2E0,1.980198E-2,-4.8275862E-2,5.8823533E-2,-4.2696628E-1,4E-1,9.565218E-2,-3.529412E-2,-5.945946E-2,1.1764706E-2,1.7837839E-1,7.692308E-1,-3.529412E-2,1.2727273E0,-1.7956656E-1,-5.6E-1,-3.529412E-2,1.4366198E0,7.5E-1,-2.857143E-1,-5.945946E-2,2.6086956E-2,1.304348E-1,-2.857143E-2,1.1764706E-2,1.0588236E-1,4.0000003E-2,1.5E-1,8.085107E-2,-3.380282E-2,-6.260472E-2,-3.2911394E-2,1.7142858E-1,2.6086956E-2,-3.529412E-2,1.304348E-1,-4.7058824E-2,5.8823533E-2],"categories":[],"categories_nodes":[],"categories_segments":[],"categories_sizes":[],"default_left":[0,0,0,0,0,0,0,0,0,0,0,0,0,0,0,0,0,0,0,0,0,0,0,0,0,0,0,0,0,0,0,0,0,0,0,0,0,0,0,0,0,0,0,0,0,0,0,0,0,0,0,0,0,0,0,0,0,0,0,0,0],"id":2,"left_children":[1,3,5,7,9,11,-1,13,15,17,19,21,23,-1,25,-1,27,29,31,-1,33,35,37,39,41,-1,-1,43,45,-1,-1,-1,-1,-1,47,-1,49,51,53,-1,55,57,59,-1,-1,-1,-1,-1,-1,-1,-1,-1,-1,-1,-1,-1,-1,-1,-1,-1,-1],"loss_changes":[5.6240097E1,3.6590347E1,1.3127777E1,6.192421E0,2.9040455E1,2.1117588E1,0E0,8.3161545E-1,7.4389243E0,2.866907E0,7.8287125E0,1.3255535E1,7.465644E0,0E0,1.5274901E0,0E0,2.7189298E0,1.8951406E0,6.430557E-1,0E0,7.312012E-2,3.2775702E0,4.6602173E0,4.181608E0,3.0307636E0,0E0,0E0,1.4378326E0,4.2484474E0,0E0,0E0,0E0,0E0,0E0,4.8868775E-1,0E0,4.9090862E-1,6.594906E0,3.0344543E0,0E0,2.4501781E0,2.9060106E0,1.8319329E0,0E0,0E0,0E0,0E0,0E0,0E0,0E0,0E0,0E0,0E0,0E0,0E0,0E0,0E0,0E0,0E0,0E0,0E0],"parents":[2147483647,0,0,1,1,2,2,3,3,4,4,5,5,7,7,8,8,9,9,10,10,11,11,12,12,14,14,16,16,17,17,18,18,20,20,21,21,22,22,23,23,24,24,27,27,28,28,34,34,36,36,37,37,38,38,40,40,41,41,42,42],"right_children":[2,4,6,8,10,12,-1,14,16,18,20,22,24,-1,26,-1,28,30,32,-1,34,36,38,40,42,-1,-1,44,46,-1,-1,-1,-1,-1,48,-1,50,52,54,-1,56,58,60,-1,-1,-1,-1,-1,-1,-1,-1,-1,-1,-1,-1,-1,-1,-1,-1,-1,-1],"split_conditions":[-1.06E-3,1.3E-2,1E0,7.891026E-1,1.5102769E0,-7E-2,-6.6523604E-2,1.6419516E1,2.64567E2,3.655E3,9.955515E1,3.29E3,-6.4E-2,-6.411483E-2,3.92872E2,1.4482759E-1,1.587209E1,-1.5069495E1,5.711E3,-4.0000003E-2,1.75202E1,4.2E0,4.223E0,4.868E3,-3.2E-2,-4.8275862E-2,5.8823533E-2,4.1573734E0,1.307E-3,9.565218E-2,-3.529412E-2,-5.945946E-2,1.1764706E-2,1.7837839E-1,4.059E3,-3.529412E-2,1.95E-1,-1.1303563E1,1.4189859E1,-3.529412E-2,-7.369E0,4.898E3,1.3458E2,-5.945946E-2,2.6086956E-2,1.304348E-1,-2.857143E-2,1.1764706E-2,1.0588236E-1,4.0000003E-2,1.5E-1,8.085107E-2,-3.380282E-2,-6.260472E-2,-3.2911394E-2,1.7142858E-1,2.6086956E-2,-3.529412E-2,1.304348E-1,-4.7058824E-2,5.8823533E-2],"split_indices":[73,6,2,17,61,54,0,61,62,40,60,40,52,0,62,0,5,61,40,0,71,56,56,40,54,0,0,17,72,0,0,0,0,0,40,0,44,15,6,0,64,40,41,0,0,0,0,0,0,0,0,0,0,0,0,0,0,0,0,0,0],"split_type":[0,0,0,0,0,0,0,0,0,0,0,0,0,0,0,0,0,0,0,0,0,0,0,0,0,0,0,0,0,0,0,0,0,0,0,0,0,0,0,0,0,0,0,0,0,0,0,0,0,0,0,0,0,0,0,0,0,0,0,0,0],"sum_hessian":[8.2725E2,8.5125E1,7.42125E2,4.6875E1,3.825E1,2.77125E2,4.65E2,2.8875E1,1.8E1,1.2375E1,2.5875E1,2.565E2,2.0625E1,2.5125E1,3.75E0,2.625E0,1.5375E1,3E0,9.375E0,1.5E0,2.4375E1,5.625E0,2.50875E2,9E0,1.1625E1,2.625E0,1.125E0,1.0125E1,5.25E0,1.875E0,1.125E0,8.25E0,1.125E0,2.2125E1,2.25E0,1.125E0,4.5E0,3.9375E1,2.115E2,1.125E0,7.875E0,3E0,8.625E0,8.25E0,1.875E0,1.875E0,3.375E0,1.125E0,1.125E0,1.5E0,3E0,4.875E0,3.45E1,1.63125E2,4.8375E1,6E0,1.875E0,1.125E0,1.875E0,7.5E0,1.125E0],"tree_param":{"num_deleted":"0","num_feature":"74","num_nodes":"61","size_leaf_vector":"1"}},{"base_weights":[-6.493813E-1,-6.526062E-2,-4.8101267E-1,1.0588236E-1,-6.308725E-2],"categories":[],"categories_nodes":[],"categories_segments":[],"categories_sizes":[],"default_left":[0,0,0,0,0],"id":3,"left_children":[1,-1,3,-1,-1],"loss_changes":[1.4678955E-1,0E0,5.225485E0,0E0,0E0],"parents":[2147483647,0,0,2,2],"right_children":[2,-1,4,-1,-1],"split_conditions":[4.1E-2,-6.526062E-2,3.68E-4,1.0588236E-1,-6.308725E-2],"split_indices":[69,0,72,0,0],"split_type":[0,0,0,0,0],"sum_hessian":[8.475E2,8.2875E2,1.875E1,1.125E0,1.7625E1],"tree_param":{"num_deleted":"0","num_feature":"74","num_nodes":"5","size_leaf_vector":"1"}},{"base_weights":[2.5142735E-1,-4.7892967E-1,6.297138E-1,-5.837649E-1,3.9719E-3,7.1661964E-2,1.1698505E0,2.3650573E-1,-6.0311264E-1,-4.342773E-1,7.654092E-1,7.097654E-1,-8.9534245E-2,1.3565048E0,4.998877E-1,6.9925815E-1,-4.4410598E-2,-6.304414E-1,-2.8984293E-1,-4.8621514E-1,5.7250965E-2,9.377674E-1,-5.7371195E-2,1.0190715E0,1.3039874E-2,-1.2592377E-1,1.2562129E-1,9.3119985E-1,1.5143315E0,2.707208E-1,1.508051E-1,1.1753732E-1,-3.369327E-2,-1.343215E-1,-6.3487154E-1,-4.4366556E-1,3.7079123E-1,-5.409651E-1,5.3497214E-2,2.2580037E-1,1.0844486E0,-4.5109034E-2,5.4364216E-2,2.5953248E-1,1.1528021E0,9.58157E-2,-1.9254494E-1,-1.9697373E-1,5.699956E-1,6.705854E-1,1.4222873E0,1.5494977E0,-4.7466837E-2,1.118884E0,-1.8675344E-2,1.291496E-2,-3.3687215E-2,-6.393538E-2,-1.3981814E-2,7.2696293E-3,-5.405868E-2,-4.1761052E-2,1.0547765E-1,-5.9571404E-2,-1.700173E-3,9.281001E-2,-4.212174E-2,3.0835679E-2,1.2537307E-1,9.295483E-2,-3.006146E-2,1.2893164E-1,4.433157E-2,-4.5795158E-2,6.392337E-2,5.2296263E-3,-4.2811297E-2,-5.0897688E-2,8.282617E-2,4.3675642E-2,1.3514155E-1,8.043384E-3,1.499076E-1,-3.9791852E-2,1.5704949E-1,4.5541167E-2,1.4316891E-1,1.1473435E-1,-2.9235387E-2],"categories":[],"categories_nodes":[],"categories_segments":[],"categories_sizes":[],"default_left":[0,0,0,0,0,0,0,0,0,0,0,0,0,0,0,0,0,0,0,0,0,0,0,0,0,0,0,0,0,0,0,0,0,0,0,0,0,0,0,0,0,0,0,0,0,0,0,0,0,0,0,0,0,0,0,0,0,0,0,0,0,0,0,0,0,0,0,0,0,0,0,0,0,0,0,0,0,0,0,0,0,0,0,0,0,0,0,0,0],"id":4,"left_children":[1,3,5,7,9,11,13,15,17,19,21,23,25,27,29,31,-1,33,35,37,-1,39,41,43,45,47,-1,49,51,53,-1,-1,-1,55,57,59,61,63,-1,65,67,-1,-1,69,71,-1,73,75,77,79,81,83,-1,85,87,-1,-1,-1,-1,-1,-1,-1,-1,-1,-1,-1,-1,-1,-1,-1,-1,-1,-1,-1,-1,-1,-1,-1,-1,-1,-1,-1,-1,-1,-1,-1,-1,-1,-1],"loss_changes":[2.3644298E2,1.4795319E1,1.6976823E2,3.9529953E0,1.8056654E1,2.8681026E1,3.5121643E1,2.2792883E0,1.8278198E0,2.0745149E0,2.8567162E0,1.2102371E1,1.107861E1,1.35798645E1,1.4369632E1,2.4233723E0,0E0,3.8757324E-1,2.2674494E0,2.145906E0,0E0,1.4677391E0,1.2782725E0,3.6543236E0,3.739847E0,1.0893027E1,0E0,7.1141777E0,1.2016235E1,1.3112313E1,0E0,0E0,0E0,2.128113E-1,3.8318634E-1,9.0214634E-1,2.8418598E0,9.082041E-1,0E0,2.2378066E0,1.3653107E0,0E0,0E0,2.9507294E0,2.6057549E0,0E0,3.7943494E0,1.1463793E1,6.121598E0,6.267233E0,2.0394669E0,7.1147156E0,0E0,2.1673794E0,1.33394375E1,0E0,0E0,0E0,0E0,0E0,0E0,0E0,0E0,0E0,0E0,0E0,0E0,0E0,0E0,0E0,0E0,0E0,0E0,0E0,0E0,0E0,0E0,0E0,0E0,0E0,0E0,0E0,0E0,0E0,0E0,0E0,0E0,0E0,0E0],"parents":[2147483647,0,0,1,1,2,2,3,3,4,4,5,5,6,6,7,7,8,8,9,9,10,10,11,11,12,12,13,13,14,14,15,15,17,17,18,18,19,19,21,21,22,22,23,23,24,24,25,25,27,27,28,28,29,29,33,33,34,34,35,35,36,36,37,37,39,39,40,40,43,43,44,44,46,46,47,47,48,48,49,49,50,50,51,51,53,53,54,54],"right_children":[2,4,6,8,10,12,14,16,18,20,22,24,26,28,30,32,-1,34,36,38,-1,40,42,44,46,48,-1,50,52,54,-1,-1,-1,56,58,60,62,64,-1,66,68,-1,-1,70,72,-1,74,76,78,80,82,84,-1,86,88,-1,-1,-1,-1,-1,-1,-1,-1,-1,-1,-1,-1,-1,-1,-1,-1,-1,-1,-1,-1,-1,-1,-1,-1,-1,-1,-1,-1,-1,-1,-1,-1,-1,-1],"split_conditions":[1.1331791E-1,1.3775E2,1E0,1.8E1,-2.3E-2,-1.483E1,3.1515915E-4,-1.011E0,8.2131E-2,1.08E-2,1.8819296E1,2.4432904E2,3.5E-2,-8.4733E-2,-5.9E-2,2.176099E-1,-4.4410598E-2,2.35E2,-5.81E-1,-1.081E2,5.7250965E-2,1.3478E1,4.11081E-1,2.22E-4,1.22951E1,-5.1E1,1.2562129E-1,1.1866E1,9.9E-2,1.05643835E1,1.508051E-1,1.1753732E-1,-3.369327E-2,4.38E0,1.29E2,-1.40946E-1,1E0,-2.7046E-2,5.3497214E-2,1.3E0,3.42E-4,-4.5109034E-2,5.4364216E-2,3.2E-4,-1.7673E1,9.58157E-2,4.6E0,-1.23299E0,3.4E-2,4.41E-1,4.8E-1,8.77E-2,-4.7466837E-2,-1.954305E1,1.2500718E2,1.291496E-2,-3.3687215E-2,-6.393538E-2,-1.3981814E-2,7.2696293E-3,-5.405868E-2,-4.1761052E-2,1.0547765E-1,-5.9571404E-2,-1.700173E-3,9.281001E-2,-4.212174E-2,3.0835679E-2,1.2537307E-1,9.295483E-2,-3.006146E-2,1.2893164E-1,4.433157E-2,-4.5795158E-2,6.392337E-2,5.2296263E-3,-4.2811297E-2,-5.0897688E-2,8.282617E-2,4.3675642E-2,1.3514155E-1,8.043384E-3,1.499076E-1,-3.9791852E-2,1.5704949E-1,4.5541167E-2,1.4316891E-1,1.1473435E-1,-2.9235387E-2],"split_indices":[49,41,0,41,50,64,16,64,49,10,61,60,69,58,46,14,0,35,64,42,0,65,44,72,71,42,0,68,53,61,0,0,0,13,36,50,0,50,0,13,72,0,0,6,64,0,14,15,66,49,44,9,0,61,60,0,0,0,0,0,0,0,0,0,0,0,0,0,0,0,0,0,0,0,0,0,0,0,0,0,0,0,0,0,0,0,0,0,0],"split_type":[0,0,0,0,0,0,0,0,0,0,0,0,0,0,0,0,0,0,0,0,0,0,0,0,0,0,0,0,0,0,0,0,0,0,0,0,0,0,0,0,0,0,0,0,0,0,0,0,0,0,0,0,0,0,0,0,0,0,0,0,0,0,0,0,0,0,0,0,0,0,0,0,0,0,0,0,0,0,0,0,0,0,0,0,0,0,0,0,0],"sum_hessian":[8.5370496E2,2.9120667E2,5.624983E2,2.390922E2,5.2114452E1,2.7721814E2,2.8528015E2,5.250879E0,2.3384132E2,3.3349586E1,1.8764868E1,5.522077E1,2.2199736E2,2.22317E2,6.2963142E1,3.1093884E0,2.1414905E0,2.1414723E2,1.9694082E1,3.2205254E1,1.1443332E0,1.5399239E1,3.3656282E0,3.792264E1,1.7298132E1,2.1703508E2,4.9622836E0,6.203844E1,1.6027856E2,5.2335274E1,1.062787E1,2.0384352E0,1.0709534E0,2.1725001E0,2.1197473E2,1.624095E1,3.4531317E0,3.101279E1,1.1924617E0,3.064422E0,1.2334817E1,2.184216E0,1.1814123E0,6.1176157E0,3.1805025E1,2.4364789E0,1.4861653E1,1.9758008E2,1.9455E1,4.2075153E1,1.996329E1,1.5771114E2,2.5674284E0,1.2584961E1,3.9750313E1,1.1017563E0,1.0707438E0,2.0978386E2,2.190878E0,2.6061664E0,1.3634784E1,1.7850375E0,1.668094E0,2.7954851E1,3.0579395E0,1.2611213E0,1.8033006E0,2.7139552E0,9.620862E0,2.4853323E0,3.6322837E0,2.5987453E1,5.817572E0,1.16073675E1,3.2542858E0,9.543396E1,1.02146126E2,3.5699356E0,1.5885064E1,3.254067E1,9.534484E0,1.1914048E0,1.8771885E1,1.4908326E0,1.5622029E2,4.81918E0,7.765781E0,6.949476E0,3.280084E1],"tree_param":{"num_deleted":"0","num_feature":"74","num_nodes":"89","size_leaf_vector":"1"}},{"base_weights":[7.847432E-1,1.4763932E0,3.482787E-1,1.5967505E0,8.781666E-1,9.784558E-1,-4.4681284E-1,7.1262646E-1,1.61048E0,1.3461838E0,2.8496383E-2,6.1060953E-1,1.324539E0,-5.560905E-1,9.933048E-1,-3.8586404E-2,1.1278345E-1,8.9379543E-1,1.61878E0,1.4001063E0,2.6337946E-6,-3.398378E-1,6.286963E-1,3.0056733E-1,1.0988692E0,1.3964667E0,-2.0194355E-1,1.1978128E-1,-5.810385E-1,-2.408112E-1,1.5383774E-1,-4.653513E-4,1.2374778E-1,1.621743E-1,5.1889885E-2,1.4456443E0,4.941709E-3,3.6516577E-2,-4.5254758E-1,1.2083801E-1,-2.7286974E-1,1.1686805E0,1.2892677E-1,3.1087592E-2,1.2130105E0,1.4510754E0,3.8568243E-1,5.4850023E-2,-5.416398E-2,-6.1046696E-1,5.181717E-1,2.3220249E-2,-5.070276E-2,1.5076444E-1,2.3209492E-2,-5.8996256E-2,6.278625E-3,1.1041543E-2,-4.4570215E-2,-3.858497E-2,1.3575737E-1,-3.6693096E-2,3.6622442E-2,9.239618E-2,-3.5094656E-2,-3.8435575E-2,1.2653595E-1,1.4717849E-1,-8.063931E-3,-4.4514593E-2,7.078141E-2,-6.2316835E-2,-3.8300354E-3,9.705524E-2,-4.1757874E-2],"categories":[],"categories_nodes":[],"categories_segments":[],"categories_sizes":[],"default_left":[0,0,0,0,0,0,0,0,0,0,0,0,0,0,0,0,0,0,0,0,0,0,0,0,0,0,0,0,0,0,0,0,0,0,0,0,0,0,0,0,0,0,0,0,0,0,0,0,0,0,0,0,0,0,0,0,0,0,0,0,0,0,0,0,0,0,0,0,0,0,0,0,0,0,0],"id":5,"left_children":[1,3,5,7,9,11,13,15,17,19,21,23,25,27,29,-1,-1,31,33,35,-1,37,39,41,43,45,47,-1,49,51,-1,-1,-1,-1,-1,53,-1,-1,55,-1,57,59,61,63,65,67,69,-1,-1,71,73,-1,-1,-1,-1,-1,-1,-1,-1,-1,-1,-1,-1,-1,-1,-1,-1,-1,-1,-1,-1,-1,-1,-1,-1],"loss_changes":[2.6954352E2,2.3495972E1,2.75904E2,2.3320312E0,2.3877525E1,3.827539E1,3.8915073E1,3.2526112E0,2.2753906E-1,2.8133926E0,5.161898E0,2.2480007E1,1.7556213E1,1.0638237E1,1.2177258E1,0E0,0E0,1.6903028E0,6.1279297E-2,2.2206955E0,0E0,1.3190008E0,4.9617634E0,1.3786606E1,7.0488358E0,7.7407837E0,2.3246E0,0E0,7.585106E0,9.0372884E-1,0E0,0E0,0E0,0E0,0E0,2.359871E0,0E0,0E0,9.551468E-1,0E0,3.330231E-1,5.0214596E0,9.455843E0,2.5897248E0,4.8767014E0,4.632721E0,2.7424936E0,0E0,0E0,1.5698853E0,3.1144624E0,0E0,0E0,0E0,0E0,0E0,0E0,0E0,0E0,0E0,0E0,0E0,0E0,0E0,0E0,0E0,0E0,0E0,0E0,0E0,0E0,0E0,0E0,0E0,0E0],"parents":[2147483647,0,0,1,1,2,2,3,3,4,4,5,5,6,6,7,7,8,8,9,9,10,10,11,11,12,12,13,13,14,14,17,17,18,18,19,19,21,21,22,22,23,23,24,24,25,25,26,26,28,28,29,29,35,35,38,38,40,40,41,41,42,42,43,43,44,44,45,45,46,46,49,49,50,50],"right_children":[2,4,6,8,10,12,14,16,18,20,22,24,26,28,30,-1,-1,32,34,36,-1,38,40,42,44,46,48,-1,50,52,-1,-1,-1,-1,-1,54,-1,-1,56,-1,58,60,62,64,66,68,70,-1,-1,72,74,-1,-1,-1,-1,-1,-1,-1,-1,-1,-1,-1,-1,-1,-1,-1,-1,-1,-1,-1,-1,-1,-1,-1,-1],"split_conditions":[1.1331791E-1,1.364E2,1E0,1.8E1,-2.9287E-2,2.017E3,2.022E3,2.2E-2,-1.04207E-1,-1.081E2,6.13174E0,-1.23299E0,7.93131E2,9.4E-2,1.001E-1,-3.8586404E-2,1.1278345E-1,7.4599E-2,5.151E0,2.022E3,2.6337946E-6,2.44E-4,1E0,2.016E3,5.1E1,8.9E-4,4.284523E0,1.1978128E-1,-1.03E-1,2.05E-4,1.5383774E-1,-4.653513E-4,1.2374778E-1,1.621743E-1,5.1889885E-2,1.2639E-1,4.941709E-3,3.6516577E-2,2.018E3,1.2083801E-1,1.78226E2,5.16E-1,2.653275E0,1.1E-4,-1.6E-1,6.7E0,2.1805577E0,5.4850023E-2,-5.416398E-2,-7.3E-6,1.1E2,2.3220249E-2,-5.070276E-2,1.5076444E-1,2.3209492E-2,-5.8996256E-2,6.278625E-3,1.1041543E-2,-4.4570215E-2,-3.858497E-2,1.3575737E-1,-3.6693096E-2,3.6622442E-2,9.239618E-2,-3.5094656E-2,-3.8435575E-2,1.2653595E-1,1.4717849E-1,-8.063931E-3,-4.4514593E-2,7.078141E-2,-6.2316835E-2,-3.8300354E-3,9.705524E-2,-4.1757874E-2],"split_indices":[49,41,0,41,50,3,3,69,50,42,5,15,62,9,9,0,0,57,14,3,0,72,0,3,41,72,5,0,15,6,0,0,0,0,0,45,0,0,3,0,62,44,5,6,52,14,5,0,0,7,41,0,0,0,0,0,0,0,0,0,0,0,0,0,0,0,0,0,0,0,0,0,0,0,0],"split_type":[0,0,0,0,0,0,0,0,0,0,0,0,0,0,0,0,0,0,0,0,0,0,0,0,0,0,0,0,0,0,0,0,0,0,0,0,0,0,0,0,0,0,0,0,0,0,0,0,0,0,0,0,0,0,0,0,0,0,0,0,0,0,0,0,0,0,0,0,0,0,0,0,0,0,0],"sum_hessian":[8.935842E2,3.4480353E2,5.487807E2,2.8566202E2,5.914151E1,3.0601077E2,2.4276996E2,5.1771727E0,2.8048483E2,3.775878E1,2.138273E1,1.4968124E2,1.5632951E2,2.2621815E2,1.6551807E1,1.4394858E0,3.737687E0,4.455464E0,2.760294E2,3.626601E1,1.4927729E0,1.3519684E1,7.8630457E0,9.253661E1,5.7144638E1,1.493761E2,6.9534254E0,2.513329E0,2.2370482E2,5.2418265E0,1.130998E1,1.5057129E0,2.949751E0,2.748146E2,1.2147887E0,3.5015186E1,1.250823E0,1.554756E0,1.1964928E1,4.5787287E0,3.284317E0,1.4316848E1,7.8219765E1,5.641476E0,5.150316E1,1.4130626E2,8.069826E0,1.9752035E0,4.978222E0,2.1830492E2,5.3999095E0,1.9337337E0,3.3080928E0,3.3082657E1,1.9325303E0,9.331774E0,2.6331546E0,1.1329498E0,2.1513672E0,1.438204E0,1.2878644E1,2.5140282E1,5.3079483E1,1.2654314E0,4.3760448E0,1.433056E0,5.0070103E1,1.3945985E2,1.8464181E0,2.1479776E0,5.921849E0,2.1347687E2,4.828046E0,3.615052E0,1.7848575E0],"tree_param":{"num_deleted":"0","num_feature":"74","num_nodes":"75","size_leaf_vector":"1"}},{"base_weights":[-4.4807488E-1,2.6270556E-1,-5.305393E-1,-2.9838216E-1,9.085066E-1,-3.3546445E-1,-6.498044E-2,-5.6524813E-1,1.8807751E-1,1.3446476E0,-1.9687055E-1,4.043513E-2,-5.177728E-1,-5.964691E-1,1.4365493E-2,9.128952E-1,-3.190114E-1,-3.9077207E-2,1.4523578E0,5.843079E-2,-4.0089592E-1,-3.683904E-1,6.965632E-1,1.8103044E-1,-5.599901E-1,-1.3307121E-1,-6.289444E-2,1.2876664E-1,-9.788274E-3,3.5217372E-1,-5.747343E-2,1.5017809E-1,5.48245E-2,6.152486E-3,-5.6881752E-2,-5.257771E-1,7.853041E-2,1.8553172E-1,1.6586447E-1,6.366461E-1,-5.2756406E-2,-5.80892E-1,3.2701E-1,-3.3717494E-2,1.3206154E-2,-3.8922157E-2,1.0347813E-1,5.5574454E-2,-4.20858E-2,3.814478E-2,-5.691147E-2,-1.5466138E-2,9.084787E-2,8.252153E-2,-2.3397366E-2,-2.0690052E-2,1.14260174E-1,3.2588404E-2,-5.9702672E-2,7.8289986E-2,-3.9649297E-2],"categories":[],"categories_nodes":[],"categories_segments":[],"categories_sizes":[],"default_left":[0,0,0,0,0,0,0,0,0,0,0,0,0,0,0,0,0,0,0,0,0,0,0,0,0,0,0,0,0,0,0,0,0,0,0,0,0,0,0,0,0,0,0,0,0,0,0,0,0,0,0,0,0,0,0,0,0,0,0,0,0],"id":6,"left_children":[1,3,5,7,9,11,-1,13,15,17,19,21,23,25,-1,27,29,-1,31,-1,33,35,37,39,41,43,-1,-1,-1,45,-1,-1,-1,47,-1,49,51,53,-1,55,-1,57,59,-1,-1,-1,-1,-1,-1,-1,-1,-1,-1,-1,-1,-1,-1,-1,-1,-1,-1],"loss_changes":[4.766107E1,3.1054111E1,1.6691498E1,6.10541E0,1.9424606E1,1.906028E1,0E0,7.51667E-1,6.583861E0,5.918354E0,2.1653967E0,2.4844872E1,5.622959E0,3.5295582E-1,0E0,2.8937469E0,2.0585475E0,0E0,3.9050674E-1,0E0,7.0072496E-1,4.059742E0,1.7163223E1,4.0223513E0,3.4667816E0,2.1599509E-1,0E0,0E0,0E0,2.226475E0,0E0,0E0,0E0,1.1651947E0,0E0,1.883358E0,3.1885083E0,6.72304E0,0E0,3.3960285E0,0E0,2.7261505E0,1.8635674E0,0E0,0E0,0E0,0E0,0E0,0E0,0E0,0E0,0E0,0E0,0E0,0E0,0E0,0E0,0E0,0E0,0E0,0E0],"parents":[2147483647,0,0,1,1,2,2,3,3,4,4,5,5,7,7,8,8,9,9,10,10,11,11,12,12,13,13,15,15,16,16,18,18,20,20,21,21,22,22,23,23,24,24,25,25,29,29,33,33,35,35,36,36,37,37,39,39,41,41,42,42],"right_children":[2,4,6,8,10,12,-1,14,16,18,20,22,24,26,-1,28,30,-1,32,-1,34,36,38,40,42,44,-1,-1,-1,46,-1,-1,-1,48,-1,50,52,54,-1,56,-1,58,60,-1,-1,-1,-1,-1,-1,-1,-1,-1,-1,-1,-1,-1,-1,-1,-1,-1,-1],"split_conditions":[-1.06E-3,1.3E-2,1E0,1.02E1,1.6911703E2,-6.4E-3,-6.498044E-2,4.868E-3,1.8604E1,9.955515E1,-2.0231798E1,2.017E3,-2.5E1,9.898E-1,1.4365493E-2,2.23E1,-1.2806674E1,-3.9077207E-2,1.75202E1,5.843079E-2,1.3363E1,2.3413E1,8.8E-1,1.35627E1,2.022E3,3.7E-5,-6.289444E-2,1.2876664E-1,-9.788274E-3,1.1187E2,-5.747343E-2,1.5017809E-1,5.48245E-2,4.843E3,-5.6881752E-2,6.7412865E1,1.281E1,-1.2E-1,1.6586447E-1,1.21818E1,-5.2756406E-2,3.385E3,8.4E-2,-3.3717494E-2,1.3206154E-2,-3.8922157E-2,1.0347813E-1,5.5574454E-2,-4.20858E-2,3.814478E-2,-5.691147E-2,-1.5466138E-2,9.084787E-2,8.252153E-2,-2.3397366E-2,-2.0690052E-2,1.14260174E-1,3.2588404E-2,-5.9702672E-2,7.8289986E-2,-3.9649297E-2],"split_indices":[73,6,2,13,60,7,0,72,63,60,61,3,15,13,0,14,61,0,71,0,65,63,48,71,3,6,0,0,0,41,0,0,0,40,0,60,13,46,0,71,0,40,66,0,0,0,0,0,0,0,0,0,0,0,0,0,0,0,0,0,0],"split_type":[0,0,0,0,0,0,0,0,0,0,0,0,0,0,0,0,0,0,0,0,0,0,0,0,0,0,0,0,0,0,0,0,0,0,0,0,0,0,0,0,0,0,0,0,0,0,0,0,0,0,0,0,0,0,0,0,0,0,0,0,0],"sum_hessian":[8.0975586E2,8.39536E1,7.2580225E2,4.521108E1,3.8742523E1,2.768265E2,4.489757E2,2.9090446E1,1.6120632E1,2.76259E1,1.1116623E1,9.066452E1,1.86162E2,2.8015223E1,1.0752242E0,6.3063116E0,9.81432E0,1.4608442E0,2.6165056E1,1.9161422E0,9.200481E0,5.6129463E1,3.453506E1,1.0418669E1,1.7574333E2,2.1685967E0,2.5846624E1,4.400705E0,1.9056072E0,2.6035972E0,7.2107224E0,2.4182093E1,1.9829637E0,2.9683778E0,6.2321033E0,4.1380535E1,1.4748926E1,2.3333687E1,1.1201373E1,6.403105E0,4.0155635E0,1.7203448E2,3.7088413E0,1.071792E0,1.0968049E0,1.454085E0,1.1495122E0,1.1660776E0,1.8023002E0,1.5309052E0,3.9849632E1,1.2149042E1,2.5998845E0,8.858567E0,1.4475119E1,2.6222572E0,3.7808475E0,2.6719546E0,1.6936253E2,2.2248404E0,1.4840008E0],"tree_param":{"num_deleted":"0","num_feature":"74","num_nodes":"61","size_leaf_vector":"1"}},{"base_weights":[-6.35033E-1,-3.251384E-1,-6.397926E-1,1.0057954E-1,-5.9920598E-2,-6.43241E-2,-4.9422038E-1,-6.22282E-2,7.521005E-2],"categories":[],"categories_nodes":[],"categories_segments":[],"categories_sizes":[],"default_left":[0,0,0,0,0,0,0,0,0],"id":7,"left_children":[1,3,5,-1,-1,-1,7,-1,-1],"loss_changes":[9.812927E-1,5.7934628E0,8.023071E-2,0E0,0E0,0E0,4.086143E0,0E0,0E0],"parents":[2147483647,0,0,1,1,2,2,6,6],"right_children":[2,4,6,-1,-1,-1,8,-1,-1],"split_conditions":[-2.712353E1,2E-2,1.49588E3,1.0057954E-1,-5.9920598E-2,-6.43241E-2,3.3311008E2,-6.22282E-2,7.521005E-2],"split_indices":[61,69,62,0,0,0,60,0,0],"split_type":[0,0,0,0,0,0,0,0,0],"sum_hessian":[8.05341E2,1.3230458E1,7.9211053E2,1.803308E0,1.142715E1,7.704414E2,2.1669127E1,2.0104101E1,1.5650254E0],"tree_param":{"num_deleted":"0","num_feature":"74","num_nodes":"9","size_leaf_vector":"1"}},{"base_weights":[2.2524166E-1,1.1420748E0,-5.941602E-1,1.3122938E0,6.628799E-1,-6.0033315E-1,4.1051668E-1,1.3746827E0,1.0463223E0,9.573421E-1,-7.739332E-2,3.8741004E-2,-6.0454595E-1,-3.5692822E-2,9.617119E-2,9.8743916E-2,1.3872784E0,1.0940704E0,-1.7724035E-2,-8.653255E-2,1.1183876E0,8.2976174E-1,-2.9203585E-1,1.6649099E-1,-6.087314E-1,5.4027807E-2,-3.820708E-2,1.400517E0,4.6296105E-1,3.1384355E-1,1.1837821E0,6.787428E-1,-3.7189782E-1,-5.0617088E-2,1.1774743E0,1.20591395E-1,1.2703404E-1,7.540607E-1,-4.914767E-1,5.7392616E-2,-3.363277E-2,-4.4794032E-1,-6.161422E-1,6.1775554E-2,1.4118378E-1,-3.9105017E-2,8.674199E-2,7.852133E-2,-4.8362534E-2,-3.69133E-2,1.2268543E-1,9.840513E-2,6.8271942E-3,5.0644677E-2,-5.7941463E-2,5.1353205E-2,-4.553537E-2,3.591089E-2,1.24521315E-1,-3.5734516E-2,5.4235842E-2,-3.5819065E-2,1.22319214E-1,-5.6968387E-2,1.5295396E-2,4.993632E-2,-6.1162055E-2,-5.382694E-2,-6.2769815E-2],"categories":[],"categories_nodes":[],"categories_segments":[],"categories_sizes":[],"default_left":[0,0,0,0,0,0,0,0,0,0,0,0,0,0,0,0,0,0,0,0,0,0,0,0,0,0,0,0,0,0,0,0,0,0,0,0,0,0,0,0,0,0,0,0,0,0,0,0,0,0,0,0,0,0,0,0,0,0,0,0,0,0,0,0,0,0,0,0,0],"id":8,"left_children":[1,3,5,7,9,11,13,15,17,19,21,-1,23,-1,-1,25,27,29,-1,31,33,35,37,39,41,-1,-1,43,45,47,49,51,53,55,57,-1,59,61,63,-1,-1,65,67,-1,-1,-1,-1,-1,-1,-1,-1,-1,-1,-1,-1,-1,-1,-1,-1,-1,-1,-1,-1,-1,-1,-1,-1,-1,-1],"loss_changes":[6.438581E2,3.211548E1,3.0543365E0,3.4961548E0,2.3619728E1,2.1083374E0,1.7640302E0,3.683014E0,3.739479E0,1.310054E1,6.4077783E0,0E0,1.5499115E0,0E0,0E0,9.282504E-1,2.2307434E0,3.7265778E0,0E0,2.7128992E0,4.6933594E0,1.5170951E0,5.8671346E0,8.50379E-1,2.5624084E-1,0E0,0E0,1.1789551E0,2.0027502E0,3.1608624E0,3.94104E0,5.691539E-1,1.9070241E0,1.1897347E0,3.0950623E0,0E0,8.6187536E-1,2.8452208E0,1.2328157E0,0E0,0E0,3.9247937E0,4.396057E-2,0E0,0E0,0E0,0E0,0E0,0E0,0E0,0E0,0E0,0E0,0E0,0E0,0E0,0E0,0E0,0E0,0E0,0E0,0E0,0E0,0E0,0E0,0E0,0E0,0E0,0E0],"parents":[2147483647,0,0,1,1,2,2,3,3,4,4,5,5,6,6,7,7,8,8,9,9,10,10,12,12,15,15,16,16,17,17,19,19,20,20,21,21,22,22,23,23,24,24,27,27,28,28,29,29,30,30,31,31,32,32,33,33,34,34,36,36,37,37,38,38,41,41,42,42],"right_children":[2,4,6,8,10,12,14,16,18,20,22,-1,24,-1,-1,26,28,30,-1,32,34,36,38,40,42,-1,-1,44,46,48,50,52,54,56,58,-1,60,62,64,-1,-1,66,68,-1,-1,-1,-1,-1,-1,-1,-1,-1,-1,-1,-1,-1,-1,-1,-1,-1,-1,-1,-1,-1,-1,-1,-1,-1,-1],"split_conditions":[1E0,3.1515915E-4,1.773E1,1.8416355E1,1.06E-3,-7.5757573E-4,2.45269E-1,3.23E3,-6E-3,-6.4E-2,8.890076E-1,3.8741004E-2,-4.09E-2,-3.5692822E-2,9.617119E-2,4.951E-1,1.66E-1,4.938E3,-1.7724035E-2,5.063E3,6.58524E-1,2.0765549E2,1.2831097E2,7.9E-1,1.8E-2,5.4027807E-2,-3.820708E-2,3.5E-3,-8.71457E0,1.181E1,3.9E1,1.3252356E2,6.282E0,1.406E1,-2.08E-1,1.20591395E-1,2.91825E0,8.5E-1,1.75202E1,5.7392616E-2,-3.363277E-2,5.4274323E1,1.48E0,6.1775554E-2,1.4118378E-1,-3.9105017E-2,8.674199E-2,7.852133E-2,-4.8362534E-2,-3.69133E-2,1.2268543E-1,9.840513E-2,6.8271942E-3,5.0644677E-2,-5.7941463E-2,5.1353205E-2,-4.553537E-2,3.591089E-2,1.24521315E-1,-3.5734516E-2,5.4235842E-2,-3.5819065E-2,1.22319214E-1,-5.6968387E-2,1.5295396E-2,4.993632E-2,-6.1162055E-2,-5.382694E-2,-6.2769815E-2],"split_indices":[2,16,65,13,72,8,14,40,67,52,61,0,11,0,0,48,57,40,0,40,5,60,60,14,69,0,0,10,61,14,41,60,63,65,67,0,5,44,71,0,0,60,13,0,0,0,0,0,0,0,0,0,0,0,0,0,0,0,0,0,0,0,0,0,0,0,0,0,0],"split_type":[0,0,0,0,0,0,0,0,0,0,0,0,0,0,0,0,0,0,0,0,0,0,0,0,0,0,0,0,0,0,0,0,0,0,0,0,0,0,0,0,0,0,0,0,0,0,0,0,0,0,0,0,0,0,0,0,0,0,0,0,0,0,0,0,0,0,0,0,0],"sum_hessian":[8.551403E2,4.033906E2,4.517497E2,2.963744E2,1.0701621E2,4.49391E2,2.358696E0,2.3668634E2,5.9688046E1,7.635205E1,3.0664165E1,1.5222315E0,4.4786877E2,1.1332651E0,1.2254308E0,2.4000902E0,2.3428625E2,5.7548134E1,2.1399126E0,1.0266793E1,6.608525E1,5.3188868E0,2.5345278E1,2.2086906E0,4.456601E2,1.1866825E0,1.2134076E0,2.3047014E2,3.816115E0,6.3984923E0,5.1149643E1,2.4141545E0,7.8526387E0,3.1864338E0,6.289882E1,2.9980567E0,2.32083E0,3.613111E0,2.1732168E1,1.1419489E0,1.0667417E0,2.2342533E1,4.2331754E2,4.077882E0,2.2639226E2,1.2371134E0,2.5790017E0,4.0311303E0,2.367362E0,1.1761189E0,4.9973522E1,1.2013708E0,1.2127837E0,1.2254089E0,6.62723E0,1.2187929E0,1.9676409E0,5.2900524E0,5.760877E1,1.1357924E0,1.1850376E0,1.1420163E0,2.4710946E0,1.948365E1,2.2485168E0,2.9895558E0,1.9352976E1,6.0849133E1,3.624684E2],"tree_param":{"num_deleted":"0","num_feature":"74","num_nodes":"69","size_leaf_vector":"1"}},{"base_weights":[7.0664114E-1,-6.444661E-2,1.4136295E0,3.1017384E-2,1.4161701E0,4.3105632E-2,1.4190643E0,1.4213213E-1,5.124675E-2],"categories":[],"categories_nodes":[],"categories_segments":[],"categories_sizes":[],"default_left":[0,0,0,0,0,0,0,0,0],"id":9,"left_children":[1,-1,3,-1,5,-1,7,-1,-1],"loss_changes":[8.733888E2,0E0,1.2426758E0,0E0,1.0939941E0,0E0,4.9121094E-1,0E0,0E0],"parents":[2147483647,0,0,2,2,4,4,6,6],"right_children":[2,-1,4,-1,6,-1,8,-1,-1],"split_conditions":[1E0,-6.444661E-2,-7.5757573E-4,3.1017384E-2,-4.09E-2,4.3105632E-2,1.773E1,1.4213213E-1,5.124675E-2],"split_indices":[2,0,8,0,11,0,65,0,0],"split_type":[0,0,0,0,0,0,0,0,0],"sum_hessian":[9.123816E2,3.1344788E2,5.9893365E2,1.6585613E0,5.972751E2,2.1887844E0,5.950863E2,5.9304224E2,2.0441117E0],"tree_param":{"num_deleted":"0","num_feature":"74","num_nodes":"9","size_leaf_vector":"1"}},{"base_weights":[-4.2874214E-1,-1.5123753E-1,-6.364231E-2,-4.179062E-1,4.363035E-1,-2.0560013E-1,-5.835677E-1,-3.3869937E-1,9.541156E-1,-4.089922E-1,2.3236762E-1,-6.20665E-1,2.3942E-1,3.3550787E-1,-4.707351E-1,1.1096375E0,-5.4628193E-2,1.0627475E-1,-4.8639008E-1,-1.67627E-1,5.51607E-1,-6.361287E-2,-2.7565464E-1,8.574353E-1,-4.726493E-2,-4.161791E-2,6.394854E-1,3.8132712E-1,-5.723213E-1,1.39978E0,3.161109E-1,3.4757774E-2,-5.6893654E-2,1.1161629E-1,-4.5636665E-2,7.320991E-2,-4.5669895E-2,-5.3514082E-2,5.553176E-2,1.0513439E-2,1.1544607E-1,9.332169E-2,-3.362226E-2,-1.5480074E-2,1.0063765E-1,-3.88012E-3,-6.307152E-2,1.4601684E-1,-3.676473E-2,1.13404624E-1,-3.955679E-2],"categories":[],"categories_nodes":[],"categories_segments":[],"categories_sizes":[],"default_left":[0,0,0,0,0,0,0,0,0,0,0,0,0,0,0,0,0,0,0,0,0,0,0,0,0,0,0,0,0,0,0,0,0,0,0,0,0,0,0,0,0,0,0,0,0,0,0,0,0,0,0],"id":10,"left_children":[1,3,-1,5,7,9,11,13,15,17,19,21,23,25,27,29,-1,-1,31,33,35,-1,37,39,-1,-1,41,43,45,47,49,-1,-1,-1,-1,-1,-1,-1,-1,-1,-1,-1,-1,-1,-1,-1,-1,-1,-1,-1,-1],"loss_changes":[4.444777E1,5.2222656E1,0E0,7.93301E0,4.213094E1,9.172142E0,4.0586014E0,3.9381495E0,1.5240208E1,8.484503E0,4.3003206E0,4.7991943E-1,3.153713E0,1.9885935E0,3.3279867E0,1.2716454E1,0E0,0E0,4.8196E0,6.215387E0,3.7119856E0,0E0,1.8137866E0,7.051575E-1,0E0,0E0,1.9650869E0,1.6393707E0,9.8803234E-1,4.972603E0,1.0108201E1,0E0,0E0,0E0,0E0,0E0,0E0,0E0,0E0,0E0,0E0,0E0,0E0,0E0,0E0,0E0,0E0,0E0,0E0,0E0,0E0],"parents":[2147483647,0,0,1,1,3,3,4,4,5,5,6,6,7,7,8,8,9,9,10,10,11,11,12,12,13,13,14,14,15,15,18,18,19,19,20,20,22,22,23,23,26,26,27,27,28,28,29,29,30,30],"right_children":[2,4,-1,6,8,10,12,14,16,18,20,22,24,26,28,30,-1,-1,32,34,36,-1,38,40,-1,-1,42,44,46,48,50,-1,-1,-1,-1,-1,-1,-1,-1,-1,-1,-1,-1,-1,-1,-1,-1,-1,-1,-1,-1],"split_conditions":[1E0,3.1515915E-4,-6.364231E-2,2.018E3,2.017E3,1.65E1,2.022E3,1.9E-2,-3.5E-3,3.29E3,1.22038E1,2.77001E0,1.6090796E1,5.106E3,-1.57E-1,-6.3E-2,-5.4628193E-2,1.0627475E-1,4.19069E0,2.016E3,8.01E1,-6.361287E-2,-1.6E0,2.43E-4,-4.726493E-2,-4.161791E-2,1.3551E1,6.2E-2,6.43E-1,3.88E0,6.68401E-1,3.4757774E-2,-5.6893654E-2,1.1161629E-1,-4.5636665E-2,7.320991E-2,-4.5669895E-2,-5.3514082E-2,5.553176E-2,1.0513439E-2,1.1544607E-1,9.332169E-2,-3.362226E-2,-1.5480074E-2,1.0063765E-1,-3.88012E-3,-6.307152E-2,1.4601684E-1,-3.676473E-2,1.13404624E-1,-3.955679E-2],"split_indices":[2,16,0,3,3,13,3,69,7,40,71,44,61,40,52,58,0,0,56,3,63,0,15,72,0,0,63,53,48,44,48,0,0,0,0,0,0,0,0,0,0,0,0,0,0,0,0,0,0,0,0],"split_type":[0,0,0,0,0,0,0,0,0,0,0,0,0,0,0,0,0,0,0,0,0,0,0,0,0,0,0,0,0,0,0,0,0,0,0,0,0,0,0,0,0,0,0,0,0,0,0,0,0,0,0],"sum_hessian":[7.7189874E2,3.311466E2,4.407521E2,2.2796727E2,1.0317934E2,1.008993E2,1.2706798E2,4.146504E1,6.1714294E1,6.8946655E1,3.1952646E1,1.21822495E2,5.2454805E0,6.53822E0,3.492682E1,5.6154144E1,5.5601482E0,2.8086438E0,6.613801E1,1.4393307E1,1.755934E1,1.1578895E2,6.033544E0,2.698911E0,2.5465698E0,1.7763886E0,4.7618313E0,3.4271991E0,3.149962E1,4.0559937E1,1.559421E1,5.667588E0,6.0470425E1,2.1166503E0,1.2276656E1,1.5125691E1,2.433647E0,4.869089E0,1.164455E0,1.1472168E0,1.551694E0,3.693479E0,1.0683521E0,2.2498007E0,1.1773984E0,3.2717261E0,2.8227894E1,3.9387997E1,1.1719387E0,6.9793425E0,8.614867E0],"tree_param":{"num_deleted":"0","num_feature":"74","num_nodes":"51","size_leaf_vector":"1"}},{"base_weights":[-6.1834466E-1,-2.900629E-1,-6.2327427E-1,9.464698E-2,-5.8251947E-2,-6.332235E-2,-5.341803E-1,7.254562E-1,-5.9357536E-1,-3.679226E-2,1.3968198E-1,-6.293925E-2,-3.005708E-1,7.253686E-2,-5.6770336E-2],"categories":[],"categories_nodes":[],"categories_segments":[],"categories_sizes":[],"default_left":[0,0,0,0,0,0,0,0,0,0,0,0,0,0,0],"id":11,"left_children":[1,3,5,-1,-1,-1,7,9,11,-1,-1,-1,13,-1,-1],"loss_changes":[1.0492249E0,5.2942085E0,3.2476807E-1,0E0,0E0,0E0,6.5302544E0,3.5390894E0,6.336765E-1,0E0,0E0,0E0,3.2770133E0,0E0,0E0],"parents":[2147483647,0,0,1,1,2,2,6,6,7,7,8,8,12,12],"right_children":[2,4,6,-1,-1,-1,8,10,12,-1,-1,-1,14,-1,-1],"split_conditions":[-2.712353E1,2E-2,6.88583E2,9.464698E-2,-5.8251947E-2,-6.332235E-2,6.94734E2,2.1874E1,2.08E-1,-3.679226E-2,1.3968198E-1,-6.293925E-2,2.29E-1,7.253686E-2,-5.6770336E-2],"split_indices":[61,69,62,0,0,0,62,63,66,0,0,0,66,0,0],"split_type":[0,0,0,0,0,0,0,0,0,0,0,0,0,0,0],"sum_hessian":[7.590744E2,1.2115182E1,7.469592E2,1.8895826E0,1.0225599E1,6.664308E2,8.052844E1,3.1211748E0,7.740727E1,1.3593397E0,1.7618351E0,6.795262E1,9.454645E0,1.598834E0,7.855811E0],"tree_param":{"num_deleted":"0","num_feature":"74","num_nodes":"15","size_leaf_vector":"1"}},{"base_weights":[1.7001441E-1,1.0072958E0,-5.789677E-1,1.1557517E0,5.952902E-1,-5.850752E-1,3.8680646E-1,7.598776E-2,1.1693693E0,1.1409675E0,1.359851E-1,3.6111537E-2,-5.8924955E-1,9.049745E-2,-3.533597E-2,6.5146804E-2,-4.6438705E-2,6.5030795E-1,1.1968691E0,1.210858E0,2.3878445E-3,5.089255E-1,-6.1249483E-2,-6.223727E-2,-4.916258E-1,-9.355009E-2,9.5401275E-1,1.2053539E0,3.647234E-1,1.2549205E0,1.7716644E-2,4.861025E-2,-4.2126E-2,-2.6822126E-1,8.969645E-1,-6.091468E-1,-5.4734837E-2,-5.586169E-2,7.9392456E-2,-6.446551E-3,1.1224542E-1,1.2132299E-1,2.8654328E-2,-4.2100113E-2,8.7000005E-2,7.5118996E-2,1.3275826E-1,7.16724E-2,-4.5075867E-2,-1.6720403E-2,1.0896977E-1,1.2200917E-2,-6.1944067E-2,-5.1072396E-2,9.746639E-2],"categories":[],"categories_nodes":[],"categories_segments":[],"categories_sizes":[],"default_left":[0,0,0,0,0,0,0,0,0,0,0,0,0,0,0,0,0,0,0,0,0,0,0,0,0,0,0,0,0,0,0,0,0,0,0,0,0,0,0,0,0,0,0,0,0,0,0,0,0,0,0,0,0,0,0],"id":12,"left_children":[1,3,5,7,9,11,13,15,17,19,21,-1,23,-1,-1,-1,-1,25,27,29,31,33,-1,-1,35,37,39,41,43,45,-1,-1,-1,47,49,51,53,-1,-1,-1,-1,-1,-1,-1,-1,-1,-1,-1,-1,-1,-1,-1,-1,-1,-1],"loss_changes":[5.299145E2,2.3711395E1,2.8579865E0,4.2073975E0,2.684467E1,1.9655609E0,1.6260083E0,1.7667792E0,3.339447E0,3.9042015E0,1.695617E1,0E0,1.1239014E0,0E0,0E0,0E0,0E0,3.86299E0,1.4863281E0,1.8845444E0,9.9200505E-1,1.2406918E1,0E0,0E0,5.9628315E0,2.8181934E0,2.122571E0,1.6032104E0,2.0285625E0,6.206131E-1,0E0,0E0,0E0,2.8770747E0,5.7483635E0,7.674904E-1,1.2633533E1,0E0,0E0,0E0,0E0,0E0,0E0,0E0,0E0,0E0,0E0,0E0,0E0,0E0,0E0,0E0,0E0,0E0,0E0],"parents":[2147483647,0,0,1,1,2,2,3,3,4,4,5,5,6,6,7,7,8,8,9,9,10,10,12,12,17,17,18,18,19,19,20,20,21,21,24,24,25,25,26,26,27,27,28,28,29,29,33,33,34,34,35,35,36,36],"right_children":[2,4,6,8,10,12,14,16,18,20,22,-1,24,-1,-1,-1,-1,26,28,30,32,34,-1,-1,36,38,40,42,44,46,-1,-1,-1,48,50,52,54,-1,-1,-1,-1,-1,-1,-1,-1,-1,-1,-1,-1,-1,-1,-1,-1,-1,-1],"split_conditions":[1E0,3.1515915E-4,1.773E1,3.29E3,2.017E3,-7.5757573E-4,2.017E3,4.951E-1,-2.5E1,1E-1,8.8E-1,3.6111537E-2,1E0,9.049745E-2,-3.533597E-2,6.5146804E-2,-4.6438705E-2,9.955515E1,7.254E3,2.08E-1,-1.23E2,8.7302375E-1,-6.1249483E-2,-6.223727E-2,1.1331791E-1,2.393E1,7.646E1,3.816E-3,1.866025E0,1.9E-2,1.7716644E-2,4.861025E-2,-4.2126E-2,1E0,8.77183E-1,-5.87E-2,-4.4189E-2,-5.586169E-2,7.9392456E-2,-6.446551E-3,1.1224542E-1,1.2132299E-1,2.8654328E-2,-4.2100113E-2,8.7000005E-2,7.5118996E-2,1.3275826E-1,7.16724E-2,-4.5075867E-2,-1.6720403E-2,1.0896977E-1,1.2200917E-2,-6.1944067E-2,-5.1072396E-2,9.746639E-2],"split_indices":[2,16,65,40,3,8,3,48,15,53,48,0,0,0,0,0,0,60,40,66,42,48,0,0,49,63,41,72,5,69,0,0,0,0,5,11,46,0,0,0,0,0,0,0,0,0,0,0,0,0,0,0,0,0,0],"split_type":[0,0,0,0,0,0,0,0,0,0,0,0,0,0,0,0,0,0,0,0,0,0,0,0,0,0,0,0,0,0,0,0,0,0,0,0,0,0,0,0,0,0,0,0,0,0,0,0,0,0,0,0,0,0,0],"sum_hessian":[8.430821E2,3.9791315E2,4.4516895E2,2.911863E2,1.0672683E2,4.4276315E2,2.4057972E0,3.7085645E0,2.8747775E2,4.809887E1,5.8627964E1,1.5692039E0,4.4119394E2,1.2841434E0,1.1216539E0,1.6963866E0,2.012178E0,1.570438E1,2.7177335E2,4.5257313E1,2.8415549E0,3.934422E1,1.9283743E1,3.2540927E2,1.1578466E2,4.753557E0,1.0950822E1,2.685863E2,3.187045E0,4.3201767E1,2.055548E0,1.2578919E0,1.583663E0,1.3205542E1,2.613868E1,9.093062E1,2.4854048E1,3.3622034E0,1.391354E0,1.6416848E0,9.309137E0,2.6598587E2,2.6004548E0,1.3126363E0,1.8744088E0,6.8755007E0,3.6326267E1,1.6071491E0,1.15983925E1,4.0284147E0,2.2110264E1,1.1117616E0,8.9818855E1,1.7573458E1,7.28059E0],"tree_param":{"num_deleted":"0","num_feature":"74","num_nodes":"55","size_leaf_vector":"1"}},{"base_weights":[6.366041E-1,1.1195518E0,2.9630858E-1,1.2135422E0,6.309477E-1,7.845435E-1,-4.2167765E-1,1.00807985E-2,1.217133E0,-2.0075308E-2,9.8286587E-1,-4.509648E-2,9.224633E-1,-5.3727996E-1,8.62576E-1,1.2344555E-1,9.652388E-1,4.0062615E-1,-5.7322193E-2,1.0247022E0,-3.3084027E-2,-2.5044703E-1,6.2640876E-1,-2.6276043E-1,9.580118E-1,-5.6320906E-1,7.65563E-1,3.3152774E-2,1.2062301E-1,1.0886501E0,4.8612815E-1,8.3206046E-1,3.1627812E-3,1.0678442E0,-3.2534525E-2,5.435624E-1,-4.135951E-1,7.497054E-1,-3.220099E-2,7.7669516E-2,-5.5882193E-2,9.763881E-1,-4.8618812E-2,-5.85388E-1,7.901823E-2,9.705333E-2,9.19235E-3,6.0624623E-1,-4.7780428E-2,1.1492727E-1,2.8202971E-2,8.71205E-2,-4.15197E-2,1.9734977E-2,1.0519397E-1,-2.5331218E-2,6.1869394E-2,1.1050236E-1,-3.5504298E-4,-4.262277E-2,1.0449147E-1,-5.7748593E-2,1.850672E-2,9.2379116E-2,1.0420808E-2,9.999405E-2,-2.2318434E-2,-6.9576944E-3,-6.0318884E-2,8.276861E-2,8.465642E-3],"categories":[],"categories_nodes":[],"categories_segments":[],"categories_sizes":[],"default_left":[0,0,0,0,0,0,0,0,0,0,0,0,0,0,0,0,0,0,0,0,0,0,0,0,0,0,0,0,0,0,0,0,0,0,0,0,0,0,0,0,0,0,0,0,0,0,0,0,0,0,0,0,0,0,0,0,0,0,0,0,0,0,0,0,0,0,0,0,0,0,0],"id":13,"left_children":[1,3,5,7,9,11,13,-1,15,17,19,21,23,25,27,-1,29,31,-1,33,-1,35,37,39,41,43,45,47,-1,49,51,53,55,57,-1,59,61,63,-1,-1,-1,65,-1,67,-1,-1,-1,69,-1,-1,-1,-1,-1,-1,-1,-1,-1,-1,-1,-1,-1,-1,-1,-1,-1,-1,-1,-1,-1,-1,-1],"loss_changes":[1.5351138E2,1.6987976E1,1.9331113E2,1.1684265E0,1.4785927E1,3.75766E1,3.3641663E1,0E0,2.1347046E-1,5.7204294E0,2.639454E0,6.7361913E0,1.210466E1,7.377987E0,5.3297815E0,0E0,9.669628E-1,2.3964663E0,0E0,2.7242508E0,0E0,5.0506544E0,1.5814457E0,3.1965714E0,7.7290497E0,6.532051E0,5.233762E-1,2.2068489E0,0E0,6.2034225E-1,2.7877288E0,7.281189E-1,1.4647884E0,1.5884438E0,0E0,3.742806E0,3.194697E0,1.0770721E0,0E0,0E0,0E0,7.858307E0,0E0,1.7899628E0,0E0,0E0,0E0,3.3726847E-1,0E0,0E0,0E0,0E0,0E0,0E0,0E0,0E0,0E0,0E0,0E0,0E0,0E0,0E0,0E0,0E0,0E0,0E0,0E0,0E0,0E0,0E0,0E0],"parents":[2147483647,0,0,1,1,2,2,3,3,4,4,5,5,6,6,8,8,9,9,10,10,11,11,12,12,13,13,14,14,16,16,17,17,19,19,21,21,22,22,23,23,24,24,25,25,26,26,27,27,29,29,30,30,31,31,32,32,33,33,35,35,36,36,37,37,41,41,43,43,47,47],"right_children":[2,4,6,8,10,12,14,-1,16,18,20,22,24,26,28,-1,30,32,-1,34,-1,36,38,40,42,44,46,48,-1,50,52,54,56,58,-1,60,62,64,-1,-1,-1,66,-1,68,-1,-1,-1,70,-1,-1,-1,-1,-1,-1,-1,-1,-1,-1,-1,-1,-1,-1,-1,-1,-1,-1,-1,-1,-1,-1,-1],"split_conditions":[1.1331791E-1,1.364E2,1E0,1.37E-2,2.8E-2,-1.7673E1,2.022E3,1.00807985E-2,8.2131E-2,1.424E0,7.93131E2,2.8802676E2,-1.047E-3,-8.92142E-3,1.001E-1,1.2344555E-1,1.1187E2,1.4794E1,-5.7322193E-2,-1.081E2,-3.3084027E-2,2.48E-4,1.2821E1,2.7E-1,3.5E-2,0E0,9.1E1,3.1E-4,1.2062301E-1,2.82717E1,1E0,1.0536E1,1.846495E1,1.08E-2,-3.2534525E-2,4.9815E0,1.4864E1,-7.469895E0,-3.220099E-2,7.7669516E-2,-5.5882193E-2,5.151E0,-4.8618812E-2,5.5E-6,7.901823E-2,9.705333E-2,9.19235E-3,7.779E1,-4.7780428E-2,1.1492727E-1,2.8202971E-2,8.71205E-2,-4.15197E-2,1.9734977E-2,1.0519397E-1,-2.5331218E-2,6.1869394E-2,1.1050236E-1,-3.5504298E-4,-4.262277E-2,1.0449147E-1,-5.7748593E-2,1.850672E-2,9.2379116E-2,1.0420808E-2,9.999405E-2,-2.2318434E-2,-6.9576944E-3,-6.0318884E-2,8.276861E-2,8.465642E-3],"split_indices":[49,41,0,53,49,64,3,0,49,63,62,60,73,19,9,0,41,65,0,42,0,72,68,14,69,12,41,6,0,5,0,68,61,10,0,5,65,61,0,0,0,14,0,6,0,0,0,31,0,0,0,0,0,0,0,0,0,0,0,0,0,0,0,0,0,0,0,0,0,0,0],"split_type":[0,0,0,0,0,0,0,0,0,0,0,0,0,0,0,0,0,0,0,0,0,0,0,0,0,0,0,0,0,0,0,0,0,0,0,0,0,0,0,0,0,0,0,0,0,0,0,0,0,0,0,0,0,0,0,0,0,0,0,0,0,0,0,0,0,0,0,0,0,0,0],"sum_hessian":[9.3509924E2,3.855857E2,5.4951355E2,3.2213455E2,6.345113E1,3.2703506E2,2.2247849E2,1.1297289E0,3.2100482E2,2.2594994E1,4.0856136E1,4.671281E1,2.8032227E2,2.0463948E2,1.7839012E1,2.967005E2,2.430434E1,1.2990593E1,9.6044E0,3.9808388E1,1.047749E0,3.6253345E1,1.0459466E1,7.9767733E0,2.723455E2,2.0120287E2,3.4366195E0,5.5471673E0,1.2291845E1,1.8314568E1,5.989773E0,5.7047906E0,7.2858024E0,3.877823E1,1.0301609E0,5.7819633E0,3.0471382E1,9.441562E0,1.0179044E0,1.4084295E0,6.568344E0,2.692435E2,3.1019862E0,1.9851709E2,2.6857688E0,2.2969797E0,1.1396397E0,2.5267045E0,3.020463E0,1.6639225E1,1.675343E0,4.220184E0,1.7695891E0,1.9560189E0,3.748772E0,5.558284E0,1.7275186E0,3.7447346E1,1.3308806E0,2.0215073E0,3.7604558E0,2.3950127E1,6.521255E0,7.096545E0,2.3450162E0,2.642222E2,5.021307E0,6.7860994E0,1.9173099E2,1.3617314E0,1.1649731E0],"tree_param":{"num_deleted":"0","num_feature":"74","num_nodes":"71","size_leaf_vector":"1"}},{"base_weights":[-4.333671E-1,4.3392503E-1,-4.8965973E-1,-3.3435404E-1,8.980455E-1,-2.8567228E-1,-6.2368877E-2,1.4091636E-1,-5.7902783E-2,-2.1369785E-1,1.126781E0,4.997234E-2,-4.6797192E-1,-4.5859598E-2,5.669143E-1,-5.1171422E-2,4.824884E-2,2.9526123E-1,1.2124609E0,-3.1014684E-1,5.919219E-1,-5.426325E-1,-9.812253E-2,-1.2997066E-3,8.628467E-2,4.992827E-2,-2.2143815E-3,4.0651504E-2,1.2457434E-1,7.3066443E-1,-3.638278E-1,2.3157744E-1,1.2286451E-1,-5.607672E-1,3.7380472E-1,3.7202725E-1,-5.366888E-1,9.250893E-3,1.0328394E-1,-4.6481486E-2,1.1191541E-2,9.1616414E-2,-2.1135567E-2,-5.8474846E-2,1.1638152E-2,-3.288738E-2,7.990336E-2,1.263496E-1,-2.7034425E-3,-5.913491E-2,1.3711171E-2],"categories":[],"categories_nodes":[],"categories_segments":[],"categories_sizes":[],"default_left":[0,0,0,0,0,0,0,0,0,0,0,0,0,0,0,0,0,0,0,0,0,0,0,0,0,0,0,0,0,0,0,0,0,0,0,0,0,0,0,0,0,0,0,0,0,0,0,0,0,0,0],"id":14,"left_children":[1,3,5,7,9,11,-1,13,-1,15,17,19,21,-1,23,-1,-1,25,27,29,31,33,35,-1,-1,-1,-1,-1,-1,37,39,41,-1,43,45,47,49,-1,-1,-1,-1,-1,-1,-1,-1,-1,-1,-1,-1,-1,-1],"loss_changes":[3.678514E1,1.6769678E1,1.906697E1,2.189052E0,7.631859E0,1.72146E1,0E0,2.0383732E0,0E0,1.4502784E0,1.3707371E0,1.965955E1,4.976944E0,0E0,7.8656614E-1,0E0,0E0,2.4344465E-1,7.502556E-2,3.6521945E0,8.934838E0,2.7249222E0,6.7602057E0,0E0,0E0,0E0,0E0,0E0,0E0,5.417905E-1,2.8531919E0,8.3481045E0,0E0,2.4845924E0,1.3195825E0,5.707143E0,7.0244837E-1,0E0,0E0,0E0,0E0,0E0,0E0,0E0,0E0,0E0,0E0,0E0,0E0,0E0,0E0],"parents":[2147483647,0,0,1,1,2,2,3,3,4,4,5,5,7,7,9,9,10,10,11,11,12,12,14,14,17,17,18,18,19,19,20,20,21,21,22,22,29,29,30,30,31,31,33,33,34,34,35,35,36,36],"right_children":[2,4,6,8,10,12,-1,14,-1,16,18,20,22,-1,24,-1,-1,26,28,30,32,34,36,-1,-1,-1,-1,-1,-1,38,40,42,-1,44,46,48,50,-1,-1,-1,-1,-1,-1,-1,-1,-1,-1,-1,-1,-1,-1],"split_conditions":[-1.454E-3,3.1515915E-4,1E0,2.018E3,-7.469895E0,-6.4E-3,-6.2368877E-2,1.0734E1,-5.7902783E-2,-1.7673E1,7.5153E-2,2.017E3,1.8416355E1,-4.5859598E-2,1.69398E2,-5.1171422E-2,4.824884E-2,8.7302375E-1,4.111E3,2.016E3,8.8E-1,1.66E-1,2.017E3,-1.2997066E-3,8.628467E-2,4.992827E-2,-2.2143815E-3,4.0651504E-2,1.2457434E-1,1E0,1.7306458E1,8.47E-1,1.2286451E-1,2.022E3,1.5E-4,2.5E-5,1.127E-3,9.250893E-3,1.0328394E-1,-4.6481486E-2,1.1191541E-2,9.1616414E-2,-2.1135567E-2,-5.8474846E-2,1.1638152E-2,-3.288738E-2,7.990336E-2,1.263496E-1,-2.7034425E-3,-5.913491E-2,1.3711171E-2],"split_indices":[73,16,2,3,61,7,0,68,0,64,57,3,13,0,62,0,0,48,40,3,48,57,3,0,0,0,0,0,0,0,61,48,0,3,6,6,72,0,0,0,0,0,0,0,0,0,0,0,0,0,0],"split_type":[0,0,0,0,0,0,0,0,0,0,0,0,0,0,0,0,0,0,0,0,0,0,0,0,0,0,0,0,0,0,0,0,0,0,0,0,0,0,0,0,0,0,0,0,0,0,0,0,0,0,0],"sum_hessian":[7.481001E2,4.5187923E1,7.029122E2,1.7123022E1,2.80649E1,2.7995776E2,4.229544E2,5.963396E0,1.1159627E1,4.8001337E0,2.3264765E1,9.879158E1,1.811662E2,2.4454134E0,3.5179825E0,3.5468216E0,1.2533123E0,2.5886004E0,2.0676165E1,5.960949E1,3.9182087E1,1.5034853E2,3.0817667E1,1.5117083E0,2.0062745E0,1.2269365E0,1.3616639E0,1.3440342E0,1.933213E1,2.3050978E0,5.730439E1,2.5892368E1,1.3289719E1,1.4781169E2,2.5368278E0,1.4946505E1,1.5871163E1,1.1604717E0,1.1446263E0,4.728918E1,1.0015209E1,9.751807E0,1.614056E1,1.4288777E2,4.9239273E0,1.0418297E0,1.4949982E0,3.9519744E0,1.099453E1,1.479345E1,1.0777128E0],"tree_param":{"num_deleted":"0","num_feature":"74","num_nodes":"51","size_leaf_vector":"1"}},{"base_weights":[-6.0928696E-1,-3.5431173E-1,-6.130542E-1,-5.731256E-2,7.591146E-2,-6.1675586E-2,-4.4712558E-1,-5.9264757E-2,5.6147795E-2],"categories":[],"categories_nodes":[],"categories_segments":[],"categories_sizes":[],"default_left":[0,0,0,0,0,0,0,0,0],"id":15,"left_children":[1,3,5,-1,-1,-1,7,-1,-1],"loss_changes":[4.8062134E-1,3.5893354E0,1.6308594E-1,0E0,0E0,0E0,3.1549556E0,0E0,0E0],"parents":[2147483647,0,0,1,1,2,2,6,6],"right_children":[2,4,6,-1,-1,-1,8,-1,-1],"split_conditions":[-2.712353E1,-2E-2,1.49588E3,-5.731256E-2,7.591146E-2,-6.1675586E-2,2.3917715E1,-5.9264757E-2,5.6147795E-2],"split_indices":[61,70,62,0,0,0,5,0,0],"split_type":[0,0,0,0,0,0,0,0,0],"sum_hessian":[7.2547516E2,1.194679E1,7.135283E2,1.0390146E1,1.5566432E0,6.953002E2,1.8228186E1,1.6290228E1,1.9379566E0],"tree_param":{"num_deleted":"0","num_feature":"74","num_nodes":"9","size_leaf_vector":"1"}},{"base_weights":[1.9794226E-1,9.1732305E-1,-5.5952513E-1,1.040557E0,5.6535226E-1,-6.046306E-1,-4.2572168E-1,-3.7282452E-2,1.0470549E0,9.9559134E-1,1.3909392E-1,-6.0772854E-1,4.4158394E-3,-5.8430445E-1,8.974425E-2,9.284473E-1,1.1303195E0,-6.957636E-3,1.0494394E0,4.4794285E-1,-5.9588887E-2,-6.1086215E-2,-3.2488665E-1,-6.074624E-2,-1.3087401E-1,-4.3219346E-1,9.5002395E-1,1.1038318E0,7.491549E-1,5.3739774E-1,1.1519196E-1,4.5339353E-2,-4.1697778E-2,1.1041889E0,2.6222506E-1,-3.9711478E-1,6.861177E-1,-4.697153E-2,7.2883726E-3,5.9289742E-2,-4.7033366E-2,-5.387715E-1,5.0711196E-2,1.4215791E-1,-4.6571117E-2,1.1276538E-2,1.1319103E-1,7.9592876E-2,-2.0274802E-3,-4.3103404E-2,7.865811E-2,1.1317755E-1,2.6092185E-3,7.322948E-2,-4.235926E-2,5.0597187E-2,-5.8458943E-2,-4.540186E-3,9.219086E-2,-5.9306514E-2,-1.8409118E-2],"categories":[],"categories_nodes":[],"categories_segments":[],"categories_sizes":[],"default_left":[0,0,0,0,0,0,0,0,0,0,0,0,0,0,0,0,0,0,0,0,0,0,0,0,0,0,0,0,0,0,0,0,0,0,0,0,0,0,0,0,0,0,0,0,0,0,0,0,0,0,0,0,0,0,0,0,0,0,0,0,0],"id":16,"left_children":[1,3,5,7,9,11,13,-1,15,17,19,21,-1,23,25,27,29,31,33,35,-1,-1,37,-1,39,41,43,45,47,49,-1,-1,-1,51,53,55,57,-1,-1,-1,-1,59,-1,-1,-1,-1,-1,-1,-1,-1,-1,-1,-1,-1,-1,-1,-1,-1,-1,-1,-1],"loss_changes":[4.5590793E2,1.8020325E1,2.2032318E0,3.29776E0,2.0666817E1,6.3492584E-1,8.7311E0,0E0,2.065277E0,3.046524E0,1.3466732E1,6.8473816E-2,0E0,7.7443886E-1,1.2015354E1,3.4396667E0,1.6952515E0,9.1822195E-1,2.0134392E0,8.628242E0,0E0,0E0,3.474052E-1,0E0,1.5628937E0,1.9523578E0,7.386093E0,1.7222748E0,2.5428238E0,2.3241367E0,0E0,0E0,0E0,1.4470596E0,1.8531327E0,1.948458E0,5.6913614E0,0E0,0E0,0E0,0E0,1.9024181E-1,0E0,0E0,0E0,0E0,0E0,0E0,0E0,0E0,0E0,0E0,0E0,0E0,0E0,0E0,0E0,0E0,0E0,0E0,0E0],"parents":[2147483647,0,0,1,1,2,2,3,3,4,4,5,5,6,6,8,8,9,9,10,10,11,11,13,13,14,14,15,15,16,16,17,17,18,18,19,19,22,22,24,24,25,25,26,26,27,27,28,28,29,29,33,33,34,34,35,35,36,36,41,41],"right_children":[2,4,6,8,10,12,14,-1,16,18,20,22,-1,24,26,28,30,32,34,36,-1,-1,38,-1,40,42,44,46,48,50,-1,-1,-1,52,54,56,58,-1,-1,-1,-1,60,-1,-1,-1,-1,-1,-1,-1,-1,-1,-1,-1,-1,-1,-1,-1,-1,-1,-1,-1],"split_conditions":[1E0,3.1515915E-4,1E0,2.997E3,2.017E3,1.71386E1,1.1331791E-1,-3.7282452E-2,2.018E3,-9.95E-2,8.8E-1,3.32E-1,4.4158394E-3,8.699E-3,-4.4189E-2,4.38E0,9.07E-2,-1.23E2,2.08E-1,8.77183E-1,-5.9588887E-2,-6.1086215E-2,4E-3,-6.074624E-2,2.34E0,4.8E-3,4.43683E0,5.849098E1,2.017E3,-1.2E-1,1.1519196E-1,4.5339353E-2,-4.1697778E-2,2.297E-1,5.128E3,4.178E0,8.7302375E-1,-4.697153E-2,7.2883726E-3,5.9289742E-2,-4.7033366E-2,6.4E-1,5.0711196E-2,1.4215791E-1,-4.6571117E-2,1.1276538E-2,1.1319103E-1,7.9592876E-2,-2.0274802E-3,-4.3103404E-2,7.865811E-2,1.1317755E-1,2.6092185E-3,7.322948E-2,-4.235926E-2,5.0597187E-2,-5.8458943E-2,-4.540186E-3,9.219086E-2,-5.9306514E-2,-1.8409118E-2],"split_indices":[2,20,0,40,3,65,49,0,3,54,48,66,0,6,46,13,9,42,66,5,0,0,6,0,13,6,56,60,3,46,0,0,0,52,40,56,48,0,0,0,0,14,0,0,0,0,0,0,0,0,0,0,0,0,0,0,0,0,0,0,0],"split_type":[0,0,0,0,0,0,0,0,0,0,0,0,0,0,0,0,0,0,0,0,0,0,0,0,0,0,0,0,0,0,0,0,0,0,0,0,0,0,0,0,0,0,0,0,0,0,0,0,0,0,0,0,0,0,0,0,0,0,0,0,0],"sum_hessian":[8.347284E2,4.2801938E2,4.0670898E2,3.1557288E2,1.12446495E2,3.0154025E2,1.0516874E2,1.1861826E0,3.1438672E2,5.529721E1,5.714928E1,3.0017023E2,1.3700204E0,8.032366E1,2.4845076E1,1.3468416E2,1.7970256E2,2.8630698E0,5.2434143E1,4.051494E1,1.6634342E1,2.9573404E2,4.436181E0,7.609745E1,4.2262115E0,1.5773062E1,9.072014E0,6.547735E1,6.92068E1,7.2260814E0,1.7247647E2,1.2989202E0,1.5641496E0,4.864809E1,3.7860537E0,8.761461E0,3.1753475E1,3.1194978E0,1.3166832E0,1.1109443E0,3.1152675E0,1.4548711E1,1.2243506E0,6.8021994E0,2.2698143E0,1.942171E0,6.353518E1,6.520833E1,3.998471E0,1.3294581E0,5.896623E0,4.738578E1,1.2623084E0,2.2061539E0,1.5798998E0,1.2141036E0,7.547358E0,7.9370265E0,2.381645E1,1.20344E1,2.5143108E0],"tree_param":{"num_deleted":"0","num_feature":"74","num_nodes":"61","size_leaf_vector":"1"}},{"base_weights":[5.6717336E-1,1.0126437E0,2.612898E-1,1.0906433E0,5.96442E-1,6.976208E-1,-4.0861848E-1,9.68884E-3,1.0938848E0,4.2921856E-2,9.3997717E-1,7.993853E-1,-1.04086705E-1,-5.1356965E-1,8.7523466E-1,2.6977701E-2,1.0974017E0,4.4202954E-1,-3.759438E-1,1.0109649E0,-1.8233316E-2,8.4035176E-1,-2.668431E-1,3.7603804E-1,-2.5131536E-1,-5.4311687E-1,9.509237E-2,-3.771947E-2,1.0897436E-1,3.7087187E-2,1.0994058E-1,8.534401E-1,-2.8550046E-2,6.794564E-2,-5.769263E-2,1.0465497E0,1.8291278E-3,6.38674E-1,1.0072292E0,-5.5840205E-2,3.9258048E-1,7.6522046E-1,-4.5825608E-2,3.7228417E-1,-4.1988838E-1,-5.782808E-1,7.249252E-1,-4.1467037E-2,4.7530886E-2,2.6324159E-2,9.9020205E-2,-3.318898E-2,5.571276E-2,1.09391764E-1,3.0412866E-2,6.855868E-2,-5.2545972E-2,5.8127353E-3,1.0298961E-1,6.0418963E-2,-1.5655287E-4,8.244748E-3,8.8796735E-2,-4.3472014E-2,8.537644E-2,-4.878513E-2,4.456112E-2,-5.916366E-2,-8.278395E-3,1.0147548E-1,-3.2291662E-2],"categories":[],"categories_nodes":[],"categories_segments":[],"categories_sizes":[],"default_left":[0,0,0,0,0,0,0,0,0,0,0,0,0,0,0,0,0,0,0,0,0,0,0,0,0,0,0,0,0,0,0,0,0,0,0,0,0,0,0,0,0,0,0,0,0,0,0,0,0,0,0,0,0,0,0,0,0,0,0,0,0,0,0,0,0,0,0,0,0,0,0],"id":17,"left_children":[1,3,5,7,9,11,13,-1,15,17,19,21,23,25,27,-1,29,31,33,35,-1,37,39,41,43,45,-1,47,-1,-1,-1,49,51,-1,-1,53,-1,55,57,-1,59,61,-1,63,65,67,69,-1,-1,-1,-1,-1,-1,-1,-1,-1,-1,-1,-1,-1,-1,-1,-1,-1,-1,-1,-1,-1,-1,-1,-1],"loss_changes":[1.2643445E2,1.1626892E1,1.6181926E2,9.161377E-1,1.1729511E1,2.7416428E1,2.9904385E1,0E0,6.203003E-1,4.303978E0,3.2233467E0,1.3214752E1,2.8245606E0,9.288181E0,3.3486814E0,0E0,5.01709E-2,2.5672004E0,3.068339E0,1.2535324E0,0E0,9.003784E0,2.4807887E0,3.4236526E0,3.3264694E0,9.307686E0,0E0,1.0054326E0,0E0,0E0,0E0,3.0759287E-1,1.4452652E0,0E0,0E0,8.898506E-1,0E0,7.597576E0,3.2772827E0,0E0,3.5071093E-1,4.9905705E-1,0E0,3.0705976E0,1.6414394E0,1.2382812E0,2.09594E0,0E0,0E0,0E0,0E0,0E0,0E0,0E0,0E0,0E0,0E0,0E0,0E0,0E0,0E0,0E0,0E0,0E0,0E0,0E0,0E0,0E0,0E0,0E0,0E0],"parents":[2147483647,0,0,1,1,2,2,3,3,4,4,5,5,6,6,8,8,9,9,10,10,11,11,12,12,13,13,14,14,16,16,17,17,18,18,19,19,21,21,22,22,23,23,24,24,25,25,27,27,31,31,32,32,35,35,37,37,38,38,40,40,41,41,43,43,44,44,45,45,46,46],"right_children":[2,4,6,8,10,12,14,-1,16,18,20,22,24,26,28,-1,30,32,34,36,-1,38,40,42,44,46,-1,48,-1,-1,-1,50,52,-1,-1,54,-1,56,58,-1,60,62,-1,64,66,68,70,-1,-1,-1,-1,-1,-1,-1,-1,-1,-1,-1,-1,-1,-1,-1,-1,-1,-1,-1,-1,-1,-1,-1,-1],"split_conditions":[1.1331791E-1,1.364E2,1E0,1.37E-2,3.7E-2,2.2291E1,2.022E3,9.68884E-3,1.2E1,1.424E0,2.022E3,1.047E-3,2.63E-4,0E0,1.001E-1,2.6977701E-2,-2.2E-1,1.4794E1,7.014E2,2.2674068E1,-1.8233316E-2,2.017E3,2.018E3,8.1E-2,3.1E-2,-8.92142E-3,9.509237E-2,3.4894904E2,1.0897436E-1,3.7087187E-2,1.0994058E-1,1.331219E2,1.846495E1,6.794564E-2,-5.769263E-2,-1.1055E2,1.8291278E-3,1.5745E1,-2.3202818E1,-5.5840205E-2,4.43683E0,8.92E-1,-4.5825608E-2,1.7E-2,3.375136E2,-5.7E-6,1.1474E-1,-4.1467037E-2,4.7530886E-2,2.6324159E-2,9.9020205E-2,-3.318898E-2,5.571276E-2,1.09391764E-1,3.0412866E-2,6.855868E-2,-5.2545972E-2,5.8127353E-3,1.0298961E-1,6.0418963E-2,-1.5655287E-4,8.244748E-3,8.8796735E-2,-4.3472014E-2,8.537644E-2,-4.878513E-2,4.456112E-2,-5.916366E-2,-8.278395E-3,1.0147548E-1,-3.2291662E-2],"split_indices":[49,41,0,53,49,63,3,0,41,63,3,72,72,12,9,0,58,65,35,61,0,3,3,57,66,19,0,60,0,0,0,60,61,0,0,42,0,63,61,0,56,44,0,66,60,7,49,0,0,0,0,0,0,0,0,0,0,0,0,0,0,0,0,0,0,0,0,0,0,0,0],"split_type":[0,0,0,0,0,0,0,0,0,0,0,0,0,0,0,0,0,0,0,0,0,0,0,0,0,0,0,0,0,0,0,0,0,0,0,0,0,0,0,0,0,0,0,0,0,0,0,0,0,0,0,0,0,0,0,0,0,0,0,0,0,0,0,0,0,0,0,0,0,0,0],"sum_hessian":[9.288189E2,3.7719067E2,5.5162823E2,3.162941E2,6.0896557E1,3.3402594E2,2.1760231E2,1.1288112E0,3.151653E2,2.3751677E1,3.714488E1,2.964048E2,3.762115E1,2.0171286E2,1.5889452E1,1.6694772E0,3.1349582E2,1.2134378E1,1.1617298E1,3.502849E1,2.1163907E0,2.8564175E2,1.0763036E1,8.464292E0,2.915686E1,1.9834035E2,3.3725111E0,3.1798992E0,1.2709553E1,1.374175E0,3.1212164E2,6.040124E0,6.0942545E0,1.4775747E0,1.0139723E1,3.3763866E1,1.2646227E0,1.3152087E2,1.5412086E2,7.5694566E0,3.1935794E0,5.828295E0,2.6359966E0,5.947377E0,2.3209482E1,1.9351787E2,4.822472E0,1.9435694E0,1.23633E0,1.6865597E0,4.3535643E0,4.300317E0,1.7939377E0,3.1293812E1,2.4700537E0,1.2682125E2,4.699622E0,3.67807E0,1.504428E2,1.7312157E0,1.4623637E0,1.1428638E0,4.6854315E0,2.2587035E0,3.6886735E0,2.1924229E1,1.2852533E0,1.8824971E2,5.268169E0,3.802335E0,1.0201368E0],"tree_param":{"num_deleted":"0","num_feature":"74","num_nodes":"71","size_leaf_vector":"1"}},{"base_weights":[-4.0367216E-1,2.6744205E-1,-4.9446046E-1,-2.695585E-1,7.5874704E-1,-3.154915E-1,-6.130554E-2,-4.2580098E-1,2.3178971E-1,-5.2270234E-2,9.415521E-1,-4.474946E-1,5.1938474E-2,-5.593474E-1,2.7501828E-3,4.6506003E-1,-4.365212E-2,2.7537167E-1,1.0946206E0,7.392599E-1,-4.6613318E-1,-4.365564E-1,5.0123703E-1,1.2178735E-2,-5.9601005E-2,6.089815E-1,-3.5783502E-1,-3.6376767E-2,6.744108E-1,8.318631E-1,-3.2987747E-1,1.1183786E0,3.3749584E-2,9.3065225E-2,1.6380047E-2,1.3771069E-1,-5.047927E-1,2.467988E-1,-5.4098344E-1,8.983164E-2,1.144185E-1,9.2525005E-2,4.931988E-3,1.8141583E-2,-4.9981263E-2,8.999274E-2,-3.2537337E-2,1.01188086E-1,1.1685602E-2,-4.816879E-2,9.592859E-3,3.4570877E-2,1.1437514E-1,5.6088056E-2,-5.111542E-2,-5.3483218E-2,3.4002874E-2,-2.3263456E-2,9.827971E-2,-5.722934E-2,6.2016034E-3,8.576395E-2,-2.112764E-2],"categories":[],"categories_nodes":[],"categories_segments":[],"categories_sizes":[],"default_left":[0,0,0,0,0,0,0,0,0,0,0,0,0,0,0,0,0,0,0,0,0,0,0,0,0,0,0,0,0,0,0,0,0,0,0,0,0,0,0,0,0,0,0,0,0,0,0,0,0,0,0,0,0,0,0,0,0,0,0,0,0,0,0],"id":18,"left_children":[1,3,5,7,9,11,-1,13,15,-1,17,19,21,23,25,27,-1,29,31,33,35,37,39,-1,-1,41,43,-1,45,47,49,51,-1,-1,-1,53,55,57,59,61,-1,-1,-1,-1,-1,-1,-1,-1,-1,-1,-1,-1,-1,-1,-1,-1,-1,-1,-1,-1,-1,-1,-1],"loss_changes":[4.4025238E1,2.3023506E1,1.3282242E1,3.39346E0,1.1134218E1,1.2396166E1,0E0,1.8569994E0,1.8619533E0,0E0,3.789116E0,4.4982033E0,1.5213898E1,6.899638E-1,2.1192176E0,1.6980346E0,0E0,3.2488859E0,2.0325851E-1,2.099477E-1,4.399666E0,2.5074844E0,9.433875E0,0E0,0E0,5.9406185E-1,5.564503E-1,0E0,1.8788228E0,5.1050353E-1,3.6594576E-1,2.0977783E-1,0E0,0E0,0E0,3.5670102E0,4.6114426E0,2.0270135E0,5.862293E-1,5.5150304E0,0E0,0E0,0E0,0E0,0E0,0E0,0E0,0E0,0E0,0E0,0E0,0E0,0E0,0E0,0E0,0E0,0E0,0E0,0E0,0E0,0E0,0E0,0E0],"parents":[2147483647,0,0,1,1,2,2,3,3,4,4,5,5,7,7,8,8,10,10,11,11,12,12,13,13,14,14,15,15,17,17,18,18,19,19,20,20,21,21,22,22,25,25,26,26,28,28,29,29,30,30,31,31,35,35,36,36,37,37,38,38,39,39],"right_children":[2,4,6,8,10,12,-1,14,16,-1,18,20,22,24,26,28,-1,30,32,34,36,38,40,-1,-1,42,44,-1,46,48,50,52,-1,-1,-1,54,56,58,60,62,-1,-1,-1,-1,-1,-1,-1,-1,-1,-1,-1,-1,-1,-1,-1,-1,-1,-1,-1,-1,-1,-1,-1],"split_conditions":[-1.06E-3,3.1515915E-4,1E0,5.151E0,1.815E-3,3.1515915E-4,-6.130554E-2,-1.215E-3,2.018E3,-5.2270234E-2,2.017E3,3.385E3,2.017E3,-4.868E-3,1.3181E1,1.61E1,-4.365212E-2,1.3551E1,-2.217E1,3.29E3,-2.5E1,-6.4E-2,8.8E-1,1.2178735E-2,-5.9601005E-2,1.6854277E2,1.024E0,-3.6376767E-2,1.7488981E1,1.327075E2,1.0061E3,1.2831097E2,3.3749584E-2,9.3065225E-2,1.6380047E-2,8.43771E2,2.022E3,6.15E3,1.4574E1,8.47E-1,1.144185E-1,9.2525005E-2,4.931988E-3,1.8141583E-2,-4.9981263E-2,8.999274E-2,-3.2537337E-2,1.01188086E-1,1.1685602E-2,-4.816879E-2,9.592859E-3,3.4570877E-2,1.1437514E-1,5.6088056E-2,-5.111542E-2,-5.3483218E-2,3.4002874E-2,-2.3263456E-2,9.827971E-2,-5.722934E-2,6.2016034E-3,8.576395E-2,-2.112764E-2],"split_indices":[73,16,2,14,6,16,0,73,3,0,3,40,3,73,65,13,0,63,42,40,15,52,48,0,0,60,13,0,61,60,62,60,0,0,0,62,3,40,71,48,0,0,0,0,0,0,0,0,0,0,0,0,0,0,0,0,0,0,0,0,0,0,0],"split_type":[0,0,0,0,0,0,0,0,0,0,0,0,0,0,0,0,0,0,0,0,0,0,0,0,0,0,0,0,0,0,0,0,0,0,0,0,0,0,0,0,0,0,0,0,0,0,0,0,0,0,0,0,0,0,0,0,0,0,0,0,0,0,0],"sum_hessian":[7.1939197E2,8.54909E1,6.3390106E2,4.106158E1,4.4429317E1,2.5410187E2,3.797992E2,3.14203E1,9.64128E0,5.314655E0,3.9114662E1,1.8678094E2,6.732092E1,2.3722588E1,7.697712E0,7.3721848E0,2.2690952E0,7.831152E0,3.128351E1,2.2903013E0,1.8449063E2,3.2267166E1,3.5053757E1,1.0930765E0,2.262951E1,2.6140275E0,5.083685E0,1.3378779E0,6.034307E0,3.8848464E0,3.9463055E0,2.9869097E1,1.4144123E0,1.2555002E0,1.0348011E0,1.0946659E1,1.7354398E2,4.0965543E0,2.8170612E1,2.2070892E1,1.2982864E1,1.2528194E0,1.361208E0,1.0016186E0,4.082066E0,5.005189E0,1.0291182E0,2.771788E0,1.1130586E0,2.812383E0,1.1339225E0,1.4146378E0,2.845446E1,6.7077E0,4.2389593E0,1.6793944E2,5.6045346E0,2.8947911E0,1.2017634E0,2.6828499E1,1.3421142E0,5.6966047E0,1.6374289E1],"tree_param":{"num_deleted":"0","num_feature":"74","num_nodes":"63","size_leaf_vector":"1"}},{"base_weights":[-5.986268E-1,-5.267748E-1,-6.0609218E-2,-6.077392E-2,6.9787765E-1,1.3058606E-1,-3.7569817E-2],"categories":[],"categories_nodes":[],"categories_segments":[],"categories_sizes":[],"default_left":[0,0,0,0,0,0,0],"id":19,"left_children":[1,3,-1,-1,5,-1,-1],"loss_changes":[4.434204E-2,7.507475E0,0E0,0E0,3.6860068E0,0E0,0E0],"parents":[2147483647,0,0,1,1,4,4],"right_children":[2,4,-1,-1,6,-1,-1],"split_conditions":[-2.1043E1,3.3311008E2,-6.0609218E-2,-6.077392E-2,1E0,1.3058606E-1,-3.7569817E-2],"split_indices":[64,60,0,0,0,0,0],"split_type":[0,0,0,0,0,0,0],"sum_hessian":[6.768273E2,7.043833E1,6.063889E2,6.6542786E1,3.8955421E0,2.348937E0,1.5466053E0],"tree_param":{"num_deleted":"0","num_feature":"74","num_nodes":"7","size_leaf_vector":"1"}},{"base_weights":[1.8621771E-1,8.380317E-1,-5.484075E-1,9.410411E-1,5.236063E-1,-5.553017E-1,6.525352E-2,1.1401177E-1,9.5183736E-1,9.164214E-1,1.3339537E-1,3.673911E-2,-5.599662E-1,7.211883E-2,-2.905459E-1,1.0147837E0,7.833827E-1,9.4638497E-1,-4.79887E-3,4.6715087E-1,-5.877158E-2,-5.969338E-1,-4.5648664E-1,-4.582938E-2,4.0590237E-3,1.2458575E-2,1.0216272E0,5.0744E-1,9.7261983E-1,9.766145E-1,1.4444964E-2,-3.8132244E-1,7.1066743E-1,-6.0020607E-2,-3.4112522E-1,-5.746479E-1,-5.2544147E-2,1.02699E-1,2.081409E-2,7.1580224E-2,-5.923157E-3,-4.1247126E-2,1.014501E-1,1.0515378E-1,5.6663524E-2,-5.7137545E-2,4.8815332E-2,1.1843581E-3,9.2186294E-2,-4.767891E-2,7.2885207E-3,-5.974368E-2,1.943097E-2,-5.963869E-2,7.750586E-2],"categories":[],"categories_nodes":[],"categories_segments":[],"categories_sizes":[],"default_left":[0,0,0,0,0,0,0,0,0,0,0,0,0,0,0,0,0,0,0,0,0,0,0,0,0,0,0,0,0,0,0,0,0,0,0,0,0,0,0,0,0,0,0,0,0,0,0,0,0,0,0,0,0,0,0],"id":20,"left_children":[1,3,5,7,9,11,-1,13,15,17,19,-1,21,-1,23,25,27,29,-1,31,-1,33,35,-1,-1,-1,37,39,41,43,-1,45,47,-1,49,51,53,-1,-1,-1,-1,-1,-1,-1,-1,-1,-1,-1,-1,-1,-1,-1,-1,-1,-1],"loss_changes":[3.9675967E2,1.3723541E1,3.5889206E0,2.8322754E0,1.6825548E1,1.8757095E0,0E0,1.5311217E0,2.651001E0,1.6327171E0,1.39058275E1,0E0,1.2058792E0,0E0,2.3755184E-1,1.293335E0,4.3516693E0,1.1515732E0,0E0,8.385874E0,0E0,3.087616E-2,5.0278873E0,0E0,0E0,0E0,7.95166E-1,4.74607E0,3.5480537E0,9.772301E-1,0E0,1.8337584E0,4.544503E0,0E0,3.6455822E-1,1.5510693E0,1.1752176E1,0E0,0E0,0E0,0E0,0E0,0E0,0E0,0E0,0E0,0E0,0E0,0E0,0E0,0E0,0E0,0E0,0E0,0E0],"parents":[2147483647,0,0,1,1,2,2,3,3,4,4,5,5,7,7,8,8,9,9,10,10,12,12,14,14,15,15,16,16,17,17,19,19,21,21,22,22,26,26,27,27,28,28,29,29,31,31,32,32,34,34,35,35,36,36],"right_children":[2,4,6,8,10,12,-1,14,16,18,20,-1,22,-1,24,26,28,30,-1,32,-1,34,36,-1,-1,-1,38,40,42,44,-1,46,48,-1,50,52,54,-1,-1,-1,-1,-1,-1,-1,-1,-1,-1,-1,-1,-1,-1,-1,-1,-1,-1],"split_conditions":[1E0,3.1515915E-4,1.773E1,3.385E3,2.017E3,-7.5757573E-4,6.525352E-2,2.01E-1,1.1759923E0,1E-1,8.8E-1,3.673911E-2,1E0,7.211883E-2,4.70751E0,4.136E0,2.017E3,2.08E-1,-4.79887E-3,8.77183E-1,-5.877158E-2,3.32E-1,1.1331791E-1,-4.582938E-2,4.0590237E-3,1.2458575E-2,3.816E-3,1.3181E1,6.687E-2,1.06E-3,1.4444964E-2,5.1445E3,8.7302375E-1,-6.0020607E-2,4E-3,1.9E-2,-4.4189E-2,1.02699E-1,2.081409E-2,7.1580224E-2,-5.923157E-3,-4.1247126E-2,1.014501E-1,1.0515378E-1,5.6663524E-2,-5.7137545E-2,4.8815332E-2,1.1843581E-3,9.2186294E-2,-4.767891E-2,7.2885207E-3,-5.974368E-2,1.943097E-2,-5.963869E-2,7.750586E-2],"split_indices":[2,16,65,40,3,8,0,48,44,53,48,0,0,0,5,56,3,66,0,5,0,66,49,0,0,0,72,65,9,72,0,40,48,0,6,10,46,0,0,0,0,0,0,0,0,0,0,0,0,0,0,0,0,0,0],"split_type":[0,0,0,0,0,0,0,0,0,0,0,0,0,0,0,0,0,0,0,0,0,0,0,0,0,0,0,0,0,0,0,0,0,0,0,0,0,0,0,0,0,0,0,0,0,0,0,0,0,0,0,0,0,0,0],"sum_hessian":[8.26627E2,4.379259E2,3.8870114E2,3.283589E2,1.0956702E2,3.87017E2,1.684132E0,4.3802085E0,3.2397867E2,5.3929283E1,5.5637733E1,1.5555027E0,3.854615E2,1.4385363E0,2.9416723E0,2.3219164E2,9.178703E1,5.2322353E1,1.6069288E0,3.8274933E1,1.73628E1,2.8048944E2,1.04972046E2,1.6976618E0,1.2440107E0,1.9178927E0,2.3027374E2,3.8836994E1,5.2950035E1,5.0211765E1,2.110587E0,8.409212E0,2.986572E1,2.7561746E2,4.871984E0,8.088807E1,2.4083977E1,2.2850491E2,1.7688241E0,2.8203527E1,1.0633467E1,1.2943633E0,5.1655674E1,4.113037E1,9.081397E0,7.182161E0,1.2270509E0,7.1762695E0,2.2689453E1,3.5553298E0,1.3166541E0,7.87765E1,2.111569E0,1.4702138E1,9.381839E0],"tree_param":{"num_deleted":"0","num_feature":"74","num_nodes":"55","size_leaf_vector":"1"}},{"base_weights":[5.269401E-1,-6.193589E-2,1.0358894E0,-3.1744223E-3,1.038222E0,1.0400541E-1,2.3511445E-2],"categories":[],"categories_nodes":[],"categories_segments":[],"categories_sizes":[],"default_left":[0,0,0,0,0,0,0],"id":21,"left_children":[1,-1,3,-1,5,-1,-1],"loss_changes":[5.4205176E2,0E0,1.6342773E0,0E0,6.9970703E-1,0E0,0E0],"parents":[2147483647,0,0,2,2,4,4],"right_children":[2,-1,4,-1,6,-1,-1],"split_conditions":[1E0,-6.193589E-2,-7.5757573E-4,-3.1744223E-3,1.773E1,1.0400541E-1,2.3511445E-2],"split_indices":[2,0,8,0,65,0,0],"split_type":[0,0,0,0,0,0,0],"sum_hessian":[9.2701294E2,2.8496762E2,6.4204535E2,1.3722018E0,6.4067316E2,6.389205E2,1.7526361E0],"tree_param":{"num_deleted":"0","num_feature":"74","num_nodes":"7","size_leaf_vector":"1"}},{"base_weights":[-3.9522403E-1,-1.3338837E-1,-6.0363293E-2,-3.702248E-1,3.3895618E-1,-1.600953E-1,-5.420769E-1,-3.2203913E-1,7.0162195E-1,-3.466031E-1,2.7177343E-1,-5.928723E-1,3.8806936E-1,3.5016128E-1,-4.2798725E-1,8.0980235E-1,-5.150155E-2,-4.1187185E-1,6.393777E-1,1.010926E0,8.481575E-2,-2.2979144E-3,-6.018622E-2,7.8933144E-1,-4.131023E-2,6.918057E-1,-3.78143E-2,2.2121422E-1,-5.312951E-1,1.04136E0,1.4668539E-1,6.25807E-2,-4.5291357E-2,-2.6678713E-3,1.05219714E-1,1.2335185E-1,8.96081E-3,9.900298E-2,-3.2334512E-3,-1.3777781E-3,1.20395735E-1,8.945049E-2,8.872937E-3,7.2970174E-2,-4.0970556E-2,-4.2268396E-3,-5.9698492E-2,1.0800363E-1,-2.0247044E-3,7.1370594E-2,-3.7663735E-2],"categories":[],"categories_nodes":[],"categories_segments":[],"categories_sizes":[],"default_left":[0,0,0,0,0,0,0,0,0,0,0,0,0,0,0,0,0,0,0,0,0,0,0,0,0,0,0,0,0,0,0,0,0,0,0,0,0,0,0,0,0,0,0,0,0,0,0,0,0,0,0],"id":22,"left_children":[1,3,-1,5,7,9,11,13,15,17,19,21,23,25,27,29,-1,31,33,35,37,-1,-1,39,-1,41,-1,43,45,47,49,-1,-1,-1,-1,-1,-1,-1,-1,-1,-1,-1,-1,-1,-1,-1,-1,-1,-1,-1,-1],"loss_changes":[3.6686043E1,3.3673798E1,0E0,7.143324E0,2.43593E1,7.4639482E0,5.414112E0,2.7388027E0,9.014343E0,4.403847E0,3.8052287E0,5.2121735E-1,2.3469057E0,1.629992E0,2.2538085E0,9.11792E0,0E0,2.879325E0,1.2341729E0,1.0363698E0,2.5308936E0,0E0,0E0,1.5256591E0,0E0,4.2144597E-1,0E0,1.9283499E0,8.6697054E-1,1.8524971E0,5.2510567E0,0E0,0E0,0E0,0E0,0E0,0E0,0E0,0E0,0E0,0E0,0E0,0E0,0E0,0E0,0E0,0E0,0E0,0E0,0E0,0E0],"parents":[2147483647,0,0,1,1,3,3,4,4,5,5,6,6,7,7,8,8,9,9,10,10,11,11,12,12,13,13,14,14,15,15,17,17,18,18,19,19,20,20,23,23,25,25,27,27,28,28,29,29,30,30],"right_children":[2,4,-1,6,8,10,12,14,16,18,20,22,24,26,28,30,-1,32,34,36,38,-1,-1,40,-1,42,-1,44,46,48,50,-1,-1,-1,-1,-1,-1,-1,-1,-1,-1,-1,-1,-1,-1,-1,-1,-1,-1,-1,-1],"split_conditions":[1E0,3.1515915E-4,-6.0363293E-2,2.018E3,2.017E3,1.9443018E1,2.022E3,-6.4E-2,-3.5E-3,2.08E-1,2.5E-5,3.62228E0,8.4E-2,1.1196E1,1.9E-2,-6.3E-2,-5.150155E-2,3.29E3,6.71E-1,5.70606E2,2.016E3,-2.2979144E-3,-6.018622E-2,3.722E0,-4.131023E-2,-1.2E-1,-3.78143E-2,-1.2202E2,6.43E-1,3.88E0,6.68401E-1,6.25807E-2,-4.5291357E-2,-2.6678713E-3,1.05219714E-1,1.2335185E-1,8.96081E-3,9.900298E-2,-3.2334512E-3,-1.3777781E-3,1.20395735E-1,8.945049E-2,8.872937E-3,7.2970174E-2,-4.0970556E-2,-4.2268396E-3,-5.9698492E-2,1.0800363E-1,-2.0247044E-3,7.1370594E-2,-3.7663735E-2],"split_indices":[2,20,0,3,3,13,3,52,7,66,6,56,66,68,69,58,0,40,44,62,3,0,0,63,0,46,0,42,48,44,48,0,0,0,0,0,0,0,0,0,0,0,0,0,0,0,0,0,0,0,0],"split_type":[0,0,0,0,0,0,0,0,0,0,0,0,0,0,0,0,0,0,0,0,0,0,0,0,0,0,0,0,0,0,0,0,0,0,0,0,0,0,0,0,0,0,0,0,0,0,0,0,0,0,0],"sum_hessian":[6.72764E2,2.9889087E2,3.738731E2,1.9921796E2,9.9672905E1,9.0496414E1,1.0872154E2,3.5352108E1,6.432079E1,6.3339787E1,2.7156628E1,1.0343551E2,5.2860284E0,4.4994955E0,3.0852613E1,5.937565E1,4.9451423E0,5.9953342E1,3.386446E0,4.592511E0,2.2564116E1,1.661549E0,1.01773964E2,3.5318837E0,1.7541447E0,3.0968778E0,1.4026177E0,4.078901E0,2.6773712E1,4.3585407E1,1.5790244E1,1.738933E0,5.821441E1,1.6536947E0,1.7327513E0,3.4259348E0,1.1665766E0,1.7317826E0,2.0832335E1,1.531744E0,2.0001397E0,1.9561594E0,1.1407186E0,2.1718988E0,1.9070022E0,3.3651764E0,2.3408537E1,4.203658E1,1.5488254E0,7.4041E0,8.386145E0],"tree_param":{"num_deleted":"0","num_feature":"74","num_nodes":"51","size_leaf_vector":"1"}},{"base_weights":[-5.8529705E-1,-2.1758758E-1,-5.9099174E-1,9.563989E-2,-5.438723E-2,-4.7901765E-1,-6.0237974E-2,-5.9663482E-2,6.915765E-1,1.1912449E-1,-3.879774E-2],"categories":[],"categories_nodes":[],"categories_segments":[],"categories_sizes":[],"default_left":[0,0,0,0,0,0,0,0,0,0,0],"id":23,"left_children":[1,3,5,-1,-1,7,-1,-1,9,-1,-1],"loss_changes":[1.2403259E0,4.945379E0,5.3160095E-1,0E0,0E0,9.259518E0,0E0,0E0,3.8766441E0,0E0,0E0],"parents":[2147483647,0,0,1,1,2,2,5,5,8,8],"right_children":[2,4,6,-1,-1,8,-1,-1,10,-1,-1],"split_conditions":[-2.712353E1,2E-2,-2.1043E1,9.563989E-2,-5.438723E-2,3.3263577E2,-6.0237974E-2,-5.9663482E-2,3.375136E2,1.1912449E-1,-3.879774E-2],"split_indices":[61,69,64,0,0,60,0,0,60,0,0],"split_type":[0,0,0,0,0,0,0,0,0,0,0],"sum_hessian":[6.527184E2,1.0552473E1,6.421659E2,1.8749921E0,8.677481E0,6.3256054E1,5.7890985E2,5.7926155E1,5.3299003E0,3.572786E0,1.7571142E0],"tree_param":{"num_deleted":"0","num_feature":"74","num_nodes":"11","size_leaf_vector":"1"}},{"base_weights":[1.6580942E-1,7.860065E-1,-5.538677E-1,8.87919E-1,4.8846957E-1,-5.609546E-1,4.735178E-2,1.0490592E-1,8.960067E-1,8.4920764E-1,1.0994247E-1,2.712256E-2,-5.6586915E-1,5.4796666E-2,-4.199959E-2,3.1623968E-1,9.084385E-1,9.036985E-1,-4.5348607E-2,-8.213315E-2,1.0167041E-1,7.40819E-3,-5.681819E-1,-5.413605E-2,7.237854E-1,7.070829E-1,9.3412095E-1,9.5396835E-1,1.06411554E-1,5.224501E-1,-4.6019658E-1,-4.648573E-1,-5.8319796E-2,2.1907454E-2,8.43896E-2,-4.6838086E-2,7.737602E-2,9.437958E-2,4.3968625E-2,3.837444E-2,9.7957686E-2,-4.180317E-2,5.3829517E-2,7.6173924E-2,-3.1472173E-2,2.937203E-2,-5.4531492E-2,-5.1213056E-2,1.2720642E-2],"categories":[],"categories_nodes":[],"categories_segments":[],"categories_sizes":[],"default_left":[0,0,0,0,0,0,0,0,0,0,0,0,0,0,0,0,0,0,0,0,0,0,0,0,0,0,0,0,0,0,0,0,0,0,0,0,0,0,0,0,0,0,0,0,0,0,0,0,0],"id":24,"left_children":[1,3,5,7,9,11,-1,13,15,17,19,-1,21,-1,-1,23,25,27,-1,29,-1,-1,31,-1,33,35,37,39,41,43,45,47,-1,-1,-1,-1,-1,-1,-1,-1,-1,-1,-1,-1,-1,-1,-1,-1,-1],"loss_changes":[3.56599E2,1.2575256E1,2.959175E0,1.9219513E0,1.5156309E1,1.6580048E0,0E0,1.2504159E0,1.9827423E0,4.458397E0,9.774939E0,0E0,5.838165E-1,0E0,0E0,3.238829E0,9.3122864E-1,2.1060104E0,0E0,1.0947417E1,0E0,0E0,2.9493713E-1,0E0,1.7579365E-1,3.4138737E0,8.759918E-1,3.7884903E-1,1.219885E0,3.9439192E0,2.043778E0,1.4987583E0,0E0,0E0,0E0,0E0,0E0,0E0,0E0,0E0,0E0,0E0,0E0,0E0,0E0,0E0,0E0,0E0,0E0],"parents":[2147483647,0,0,1,1,2,2,3,3,4,4,5,5,7,7,8,8,9,9,10,10,12,12,15,15,16,16,17,17,19,19,22,22,24,24,25,25,26,26,27,27,28,28,29,29,30,30,31,31],"right_children":[2,4,6,8,10,12,-1,14,16,18,20,-1,22,-1,-1,24,26,28,-1,30,-1,-1,32,-1,34,36,38,40,42,44,46,48,-1,-1,-1,-1,-1,-1,-1,-1,-1,-1,-1,-1,-1,-1,-1,-1,-1],"split_conditions":[1E0,3.1515915E-4,1.773E1,3.29E3,2.017E3,-4.09E-2,4.735178E-2,3.3E-2,2.016E3,9.9E-2,2.019E3,2.712256E-2,-7.5757573E-4,5.4796666E-2,-4.199959E-2,3.9E-2,-1.1303563E1,2.08E-1,-4.5348607E-2,7.1748E-2,1.0167041E-1,7.40819E-3,1.48E0,-5.413605E-2,-2.648E-3,4.231E3,2.022E3,7.895933E-1,4.67E-4,1.035E-3,-1.31E-1,1.46E0,-5.8319796E-2,2.1907454E-2,8.43896E-2,-4.6838086E-2,7.737602E-2,9.437958E-2,4.3968625E-2,3.837444E-2,9.7957686E-2,-4.180317E-2,5.3829517E-2,7.6173924E-2,-3.1472173E-2,2.937203E-2,-5.4531492E-2,-5.1213056E-2,1.2720642E-2],"split_indices":[2,20,65,40,3,11,0,49,3,53,3,0,8,0,0,66,15,66,0,57,0,0,13,0,7,40,3,5,72,72,46,13,0,0,0,0,0,0,0,0,0,0,0,0,0,0,0,0,0],"split_type":[0,0,0,0,0,0,0,0,0,0,0,0,0,0,0,0,0,0,0,0,0,0,0,0,0,0,0,0,0,0,0,0,0,0,0,0,0,0,0,0,0,0,0,0,0,0,0,0,0],"sum_hessian":[7.96962E2,4.2801703E2,3.6894495E2,3.17338E2,1.1067901E2,3.668683E2,2.0766494E0,3.387071E0,3.1395093E2,5.603446E1,5.464455E1,1.835754E0,3.6503253E2,1.8128953E0,1.5741756E0,7.1456604E0,3.0680527E2,5.4078667E1,1.9557911E0,4.5843193E1,8.801356E0,1.2026739E0,3.6382986E2,2.1960855E0,4.9495745E0,3.7933216E1,2.6887207E2,5.0686317E1,3.3923504E0,1.7490772E1,2.8352423E1,5.0220963E1,3.1360892E2,1.4943172E0,3.4552574E0,1.7128336E0,3.6220383E1,2.628205E2,6.051561E0,2.865487E0,4.7820827E1,1.5464927E0,1.8458577E0,1.3672781E1,3.8179908E0,2.6276705E0,2.5724752E1,4.66326E1,3.5883648E0],"tree_param":{"num_deleted":"0","num_feature":"74","num_nodes":"49","size_leaf_vector":"1"}},{"base_weights":[4.983702E-1,-6.0821533E-2,9.472826E-1,-6.4494046E-3,9.4953275E-1,1.8305184E-2,9.514091E-2],"categories":[],"categories_nodes":[],"categories_segments":[],"categories_sizes":[],"default_left":[0,0,0,0,0,0,0],"id":25,"left_children":[1,-1,3,-1,5,-1,-1],"loss_changes":[4.6342163E2,0E0,1.5710449E0,0E0,7.776489E-1,0E0,0E0],"parents":[2147483647,0,0,2,2,4,4],"right_children":[2,-1,4,-1,6,-1,-1],"split_conditions":[1E0,-6.0821533E-2,-4.09E-2,-6.4494046E-3,-7.5757573E-4,1.8305184E-2,9.514091E-2],"split_indices":[2,0,11,0,8,0,0],"split_type":[0,0,0,0,0,0,0],"sum_hessian":[9.307285E2,2.6850327E2,6.622252E2,1.4080712E0,6.608172E2,1.85443E0,6.5896277E2],"tree_param":{"num_deleted":"0","num_feature":"74","num_nodes":"7","size_leaf_vector":"1"}},{"base_weights":[-3.6907187E-1,-1.0923194E-1,-5.937636E-2,-3.508276E-1,3.4576553E-1,-4.6333948E-1,-4.155882E-2,-1.9412681E-1,5.3178674E-1,6.181569E-2,-4.808703E-1,2.2046272E-1,-3.8815144E-1,5.5310977E-1,-4.487426E-1,2.9139626E-1,8.2959723E-1,-5.3235066E-1,-1.189926E-1,8.78436E-1,3.8756087E-2,4.1253176E-1,-4.954298E-1,9.1867983E-1,-4.2245243E-2,2.0151764E-2,-5.2583957E-1,-2.9540324E-1,5.677761E-1,8.6949027E-1,-4.5814286E-3,-4.1757297E-4,-5.460778E-2,1.0079072E-1,-2.4949504E-2,1.1567407E-1,-3.270764E-3,-1.9414237E-2,6.3487165E-2,9.116856E-3,5.3831648E-2,-5.3691782E-2,1.4919765E-2,3.5128307E-2,1.0379678E-1,-1.0209271E-3,-5.731038E-2,5.4210335E-2,-4.508916E-2,7.1176015E-2,4.8728758E-5,9.061989E-2,-2.505686E-3],"categories":[],"categories_nodes":[],"categories_segments":[],"categories_sizes":[],"default_left":[0,0,0,0,0,0,0,0,0,0,0,0,0,0,0,0,0,0,0,0,0,0,0,0,0,0,0,0,0,0,0,0,0,0,0,0,0,0,0,0,0,0,0,0,0,0,0,0,0,0,0,0,0],"id":26,"left_children":[1,3,-1,5,7,9,11,13,15,-1,17,19,21,23,25,27,29,31,33,35,37,39,41,43,-1,-1,45,47,49,51,-1,-1,-1,-1,-1,-1,-1,-1,-1,-1,-1,-1,-1,-1,-1,-1,-1,-1,-1,-1,-1,-1,-1],"loss_changes":[3.7651527E1,3.318666E1,0E0,6.8346004E0,1.0631246E1,3.0336666E0,4.9569874E0,5.4984856E0,5.3589706E0,0E0,2.5930367E0,3.694409E0,2.2191527E0,3.0490282E0,1.1654973E0,7.4383645E0,1.24123E0,9.006958E-1,3.052462E0,1.7373829E0,3.6611655E0,8.500582E-2,6.454525E-1,2.4044514E-2,0E0,0E0,4.6136904E-1,2.1993394E0,2.516945E0,1.1047764E0,0E0,0E0,0E0,0E0,0E0,0E0,0E0,0E0,0E0,0E0,0E0,0E0,0E0,0E0,0E0,0E0,0E0,0E0,0E0,0E0,0E0,0E0,0E0],"parents":[2147483647,0,0,1,1,3,3,4,4,5,5,6,6,7,7,8,8,10,10,11,11,12,12,13,13,14,14,15,15,16,16,17,17,18,18,19,19,20,20,21,21,22,22,23,23,26,26,27,27,28,28,29,29],"right_children":[2,4,-1,6,8,10,12,14,16,-1,18,20,22,24,26,28,30,32,34,36,38,40,42,44,-1,-1,46,48,50,52,-1,-1,-1,-1,-1,-1,-1,-1,-1,-1,-1,-1,-1,-1,-1,-1,-1,-1,-1,-1,-1,-1,-1],"split_conditions":[1E0,3.1515915E-4,-5.937636E-2,1.65E1,1.1511093E1,3.23E3,5.84877E2,-1.954305E1,9.74E-4,6.181569E-2,5.817E3,-1.5173E2,8.1E1,3.92872E2,-1.57E-1,6.3036E-2,2.77001E0,6.15578E-3,-4E-1,1.51E-1,4.75758E2,-2E-1,7.254E3,1.2224E1,-4.2245243E-2,2.0151764E-2,-2.08E-1,9.59632E-1,1.2E-1,2E2,-4.5814286E-3,-4.1757297E-4,-5.460778E-2,1.0079072E-1,-2.4949504E-2,1.1567407E-1,-3.270764E-3,-1.9414237E-2,6.3487165E-2,9.116856E-3,5.3831648E-2,-5.3691782E-2,1.4919765E-2,3.5128307E-2,1.0379678E-1,-1.0209271E-3,-5.731038E-2,5.4210335E-2,-4.508916E-2,7.1176015E-2,4.8728758E-5,9.061989E-2,-2.505686E-3],"split_indices":[2,16,0,13,61,40,62,61,72,0,40,42,41,62,52,45,44,18,67,57,62,52,40,65,0,0,67,5,45,41,0,0,0,0,0,0,0,0,0,0,0,0,0,0,0,0,0,0,0,0,0,0,0],"split_type":[0,0,0,0,0,0,0,0,0,0,0,0,0,0,0,0,0,0,0,0,0,0,0,0,0,0,0,0,0,0,0,0,0,0,0,0,0,0,0,0,0,0,0,0,0,0,0,0,0,0,0,0,0],"sum_hessian":[6.45007E2,2.9979813E2,3.4520892E2,1.9597029E2,1.03827835E2,1.4332906E2,5.2641235E1,2.6595554E1,7.723228E1,1.7397681E0,1.4158928E2,3.0185287E1,2.2455948E1,6.4611855E0,2.0134369E1,4.383082E1,3.340146E1,1.2354308E2,1.8046198E1,5.702337E0,2.448295E1,2.3170412E0,2.0138906E1,4.7423887E0,1.7187967E0,1.963105E0,1.8171265E1,1.4012072E1,2.9818748E1,3.1952145E1,1.4493138E0,3.1625428E0,1.2038054E2,1.1751757E0,1.6871021E1,4.161636E0,1.5407007E0,1.8089733E1,6.3932185E0,1.1369877E0,1.1800535E0,1.9078133E1,1.0607741E0,1.5091075E0,3.2332814E0,1.6278783E0,1.6543386E1,1.8047409E0,1.2207331E1,2.3579376E1,6.2393723E0,3.0680128E1,1.2720162E0],"tree_param":{"num_deleted":"0","num_feature":"74","num_nodes":"53","size_leaf_vector":"1"}},{"base_weights":[-5.7937086E-1,-2.53853E-1,-5.838781E-1,1.0127459E-1,-5.321774E-2,-5.1085323E-1,-5.9088E-1,-5.8728367E-2,4.8013562E-1,-3.3569E-1,-5.9268266E-2,1.05228364E-1,-3.775398E-2,1.7737726E-2,-4.7875293E-2],"categories":[],"categories_nodes":[],"categories_segments":[],"categories_sizes":[],"default_left":[0,0,0,0,0,0,0,0,0,0,0,0,0,0,0],"id":27,"left_children":[1,3,5,-1,-1,7,9,-1,11,13,-1,-1,-1,-1,-1],"loss_changes":[7.519684E-1,4.116551E0,7.1411133E-3,0E0,0E0,4.846466E0,5.1818848E-2,0E0,2.784749E0,5.348651E-1,0E0,0E0,0E0,0E0,0E0],"parents":[2147483647,0,0,1,1,2,2,5,5,6,6,8,8,9,9],"right_children":[2,4,6,-1,-1,8,10,-1,12,14,-1,-1,-1,-1,-1],"split_conditions":[-2.712353E1,2E-2,-2.1043E1,1.0127459E-1,-5.321774E-2,3.3311008E2,2E1,-5.8728367E-2,1E0,2.017E3,-5.9268266E-2,1.05228364E-1,-3.775398E-2,1.7737726E-2,-4.7875293E-2],"split_indices":[61,69,64,0,0,60,41,0,0,3,0,0,0,0,0],"split_type":[0,0,0,0,0,0,0,0,0,0,0,0,0,0,0],"sum_hessian":[6.125362E2,9.148462E0,6.033877E2,1.1727564E0,7.975706E0,5.926391E1,5.4412384E2,5.539864E1,3.8652663E0,5.129969E0,5.3899384E2,2.1824625E0,1.682804E0,1.0662427E0,4.0637264E0],"tree_param":{"num_deleted":"0","num_feature":"74","num_nodes":"15","size_leaf_vector":"1"}},{"base_weights":[1.5552945E-1,7.127001E-1,-5.329725E-1,7.9492885E-1,4.6644711E-1,-5.403812E-1,5.669216E-2,6.846353E-1,8.763829E-1,7.671545E-1,1.3098754E-1,5.0551873E-2,-5.4560846E-1,8.5527754E-1,5.411502E-1,9.015642E-1,1.889558E-1,1.5135147E-1,8.4825385E-1,4.173676E-1,-5.6622542E-2,-5.7631844E-1,-4.5759243E-1,-3.9098468E-2,8.8693357E-1,1.9819558E-1,6.303803E-1,1.3127764E-2,9.118288E-2,-1.2865867E-1,7.29418E-2,6.8025604E-2,-2.710162E-1,8.855686E-1,1.8503343E-1,-4.4463336E-1,6.3040805E-1,-5.799677E-2,-3.0207518E-1,-2.0018415E-1,-5.660378E-1,1.2922289E-2,9.1698185E-2,-2.6465768E-2,6.978226E-2,4.7293063E-2,9.005644E-2,4.9385715E-2,-5.7609923E-2,2.5066433E-2,-5.5170547E-2,2.9926522E-2,9.211796E-2,7.1684234E-2,-4.095265E-2,-5.4904975E-2,1.4308395E-2,5.7932604E-3,8.22937E-2,-4.4989653E-2,1.0920915E-2,-5.2738488E-2,6.366138E-2,-1.1581491E-2,-5.8030356E-2],"categories":[],"categories_nodes":[],"categories_segments":[],"categories_sizes":[],"default_left":[0,0,0,0,0,0,0,0,0,0,0,0,0,0,0,0,0,0,0,0,0,0,0,0,0,0,0,0,0,0,0,0,0,0,0,0,0,0,0,0,0,0,0,0,0,0,0,0,0,0,0,0,0,0,0,0,0,0,0,0,0,0,0,0,0],"id":28,"left_children":[1,3,5,7,9,11,-1,13,15,17,19,-1,21,23,25,27,29,31,33,35,-1,37,39,-1,41,43,45,-1,-1,47,-1,-1,49,51,53,55,57,-1,59,61,63,-1,-1,-1,-1,-1,-1,-1,-1,-1,-1,-1,-1,-1,-1,-1,-1,-1,-1,-1,-1,-1,-1,-1,-1],"loss_changes":[2.9701575E2,8.292267E0,3.1294327E0,2.2686005E0,1.094709E1,2.1600113E0,0E0,2.9701996E0,2.9471436E0,2.74543E0,1.0813375E1,0E0,6.64505E-1,2.8055E0,2.2892246E0,1.2518463E0,1.403457E0,1.9522069E0,1.0891418E0,7.2816825E0,0E0,7.572174E-2,2.5017433E0,0E0,1.2722664E0,4.2885933E0,2.2176914E0,0E0,0E0,1.8597345E0,0E0,0E0,8.872923E-1,7.196045E-1,1.5460087E0,5.7819366E-1,3.3672857E0,0E0,3.7618777E-1,8.362373E0,3.5261726E-1,0E0,0E0,0E0,0E0,0E0,0E0,0E0,0E0,0E0,0E0,0E0,0E0,0E0,0E0,0E0,0E0,0E0,0E0,0E0,0E0,0E0,0E0,0E0,0E0],"parents":[2147483647,0,0,1,1,2,2,3,3,4,4,5,5,7,7,8,8,9,9,10,10,12,12,13,13,14,14,15,15,16,16,17,17,18,18,19,19,21,21,22,22,24,24,25,25,26,26,29,29,32,32,33,33,34,34,35,35,36,36,38,38,39,39,40,40],"right_children":[2,4,6,8,10,12,-1,14,16,18,20,-1,22,24,26,28,30,32,34,36,-1,38,40,-1,42,44,46,-1,-1,48,-1,-1,50,52,54,56,58,-1,60,62,64,-1,-1,-1,-1,-1,-1,-1,-1,-1,-1,-1,-1,-1,-1,-1,-1,-1,-1,-1,-1,-1,-1,-1,-1],"split_conditions":[1E0,3.1515915E-4,1.773E1,2.018E3,2.017E3,-7.5757573E-4,5.669216E-2,3.47E0,2.022E3,-6.4E-2,8.8E-1,5.0551873E-2,1E0,3.29E3,1.99043E0,2.9E1,1.6090796E1,1.062E2,2.08E-1,8.77183E-1,-5.6622542E-2,3.32E-1,-1.1E2,-3.9098468E-2,5.849098E1,2.3954947E-2,5.38621E0,1.3127764E-2,9.118288E-2,4.7664E-2,7.29418E-2,6.8025604E-2,9.571E0,1.8E-2,-1.2284918E1,9.33196E2,8.7302375E-1,-5.799677E-2,4E-3,-1.122E2,-8.54E-3,1.2922289E-2,9.1698185E-2,-2.6465768E-2,6.978226E-2,4.7293063E-2,9.005644E-2,4.9385715E-2,-5.7609923E-2,2.5066433E-2,-5.5170547E-2,2.9926522E-2,9.211796E-2,7.1684234E-2,-4.095265E-2,-5.4904975E-2,1.4308395E-2,5.7932604E-3,8.22937E-2,-4.4989653E-2,1.0920915E-2,-5.2738488E-2,6.366138E-2,-1.1581491E-2,-5.8030356E-2],"split_indices":[2,16,65,3,3,8,0,13,3,52,48,0,0,40,5,36,61,41,66,5,0,66,42,0,60,69,61,0,0,45,0,0,63,69,61,62,48,0,6,42,7,0,0,0,0,0,0,0,0,0,0,0,0,0,0,0,0,0,0,0,0,0,0,0,0],"split_type":[0,0,0,0,0,0,0,0,0,0,0,0,0,0,0,0,0,0,0,0,0,0,0,0,0,0,0,0,0,0,0,0,0,0,0,0,0,0,0,0,0,0,0,0,0,0,0,0,0,0,0,0,0,0,0,0,0,0,0,0,0,0,0,0,0],"sum_hessian":[7.722684E2,4.268249E2,3.4544345E2,3.183076E2,1.0851729E2,3.4363748E2,1.8059802E0,1.3921179E2,1.7909581E2,5.6544064E1,5.197322E1,1.2329553E0,3.4240454E2,6.1322327E1,7.7889465E1,1.7246664E2,6.629161E0,6.9136453E0,4.963042E1,3.7125362E1,1.4847857E1,2.497244E2,9.268014E1,1.2378668E0,6.008446E1,1.6746328E1,6.1143135E1,2.4493442E0,1.700173E2,4.6553116E0,1.9738493E0,2.7985806E0,4.1150646E0,4.6669403E1,2.9610167E0,7.1416874E0,2.9983675E1,2.453449E2,4.3794947E0,2.8315582E1,6.4364555E1,2.4940426E0,5.759042E1,8.937208E0,7.809119E0,4.0368702E1,2.0774435E1,1.9034033E0,2.7519083E0,1.476974E0,2.6380906E0,3.210761E0,4.345864E1,1.4544255E0,1.5065913E0,6.1201487E0,1.021539E0,7.873401E0,2.2110273E1,3.152544E0,1.2269504E0,2.0621876E1,7.6937075E0,2.2568755E0,6.2107677E1],"tree_param":{"num_deleted":"0","num_feature":"74","num_nodes":"65","size_leaf_vector":"1"}},{"base_weights":[4.7393635E-1,-5.9817027E-2,8.869846E-1,-4.947181E-3,8.890655E-2],"categories":[],"categories_nodes":[],"categories_segments":[],"categories_sizes":[],"default_left":[0,0,0,0,0],"id":29,"left_children":[1,-1,3,-1,-1],"loss_changes":[4.0082874E2,0E0,1.3163452E0,0E0,0E0],"parents":[2147483647,0,0,2,2],"right_children":[2,-1,4,-1,-1],"split_conditions":[1E0,-5.9817027E-2,-7.5757573E-4,-4.947181E-3,8.890655E-2],"split_indices":[2,0,8,0,0],"split_type":[0,0,0,0,0],"sum_hessian":[9.029509E2,2.5100223E2,6.519487E2,1.3949643E0,6.505538E2],"tree_param":{"num_deleted":"0","num_feature":"74","num_nodes":"5","size_leaf_vector":"1"}},{"base_weights":[-3.911744E-1,-1.5659954E-1,-5.8485832E-2,-3.9354077E-1,2.807537E-1,-4.5496866E-1,-8.814212E-2,7.8732425E-1,1.163242E-1,4.2162508E-1,-4.82474E-1,2.5874674E-1,-3.3535358E-1,-3.8899623E-2,8.878237E-1,6.8250054E-1,-2.0791562E-2,9.5441215E-2,-3.926451E-2,-2.7806278E-2,-5.084028E-1,7.397072E-1,-2.6588508E-1,5.4754265E-2,-4.2268845E-1,8.588159E-3,9.256851E-2,8.1622016E-1,-3.6954213E-2,-3.7221894E-1,1.4774133E-1,5.983078E-2,-2.7570298E-2,-5.2035976E-2,1.3301975E-2,1.08912066E-1,-3.7582897E-2,4.1097637E-2,-4.9761135E-2,3.669167E-2,-5.1560443E-2,-2.0300248E-3,9.1946214E-2,-4.8397493E-2,4.0352084E-2,-4.2783953E-2,2.509205E-2],"categories":[],"categories_nodes":[],"categories_segments":[],"categories_sizes":[],"default_left":[0,0,0,0,0,0,0,0,0,0,0,0,0,0,0,0,0,0,0,0,0,0,0,0,0,0,0,0,0,0,0,0,0,0,0,0,0,0,0,0,0,0,0,0,0,0,0],"id":30,"left_children":[1,3,-1,5,7,9,11,13,15,17,19,21,23,-1,25,27,29,-1,-1,31,33,35,37,-1,39,-1,-1,41,-1,43,45,-1,-1,-1,-1,-1,-1,-1,-1,-1,-1,-1,-1,-1,-1,-1,-1],"loss_changes":[2.7986275E1,2.9215397E1,0E0,3.385212E0,8.177637E0,3.8627548E0,2.8151233E0,3.2008848E0,5.9236526E0,2.6093938E0,1.7261543E0,3.67963E0,1.6974392E0,0E0,6.0541725E-1,2.3935866E0,3.741954E0,0E0,0E0,1.5652943E0,1.1398506E0,3.3193655E0,1.3553721E0,0E0,1.499908E0,0E0,0E0,1.1850252E0,0E0,1.9691677E0,2.648556E0,0E0,0E0,0E0,0E0,0E0,0E0,0E0,0E0,0E0,0E0,0E0,0E0,0E0,0E0,0E0,0E0],"parents":[2147483647,0,0,1,1,3,3,4,4,5,5,6,6,7,7,8,8,9,9,10,10,11,11,12,12,14,14,15,15,16,16,19,19,20,20,21,21,22,22,24,24,27,27,29,29,30,30],"right_children":[2,4,-1,6,8,10,12,14,16,18,20,22,24,-1,26,28,30,-1,-1,32,34,36,38,-1,40,-1,-1,42,-1,44,46,-1,-1,-1,-1,-1,-1,-1,-1,-1,-1,-1,-1,-1,-1,-1,-1],"split_conditions":[1E0,3.1515915E-4,-5.8485832E-2,9.74E-4,8.77183E-1,-4E-1,1.215E-3,3.65E-4,-6.4E-2,1.1479E1,-2.5E1,1.1911E1,1.2E0,-3.8899623E-2,1.2433278E2,3.88E0,1E0,9.5441215E-2,-3.926451E-2,8E-5,1.66E-1,2.5242276E2,1.8E-2,5.4754265E-2,1.3E-2,8.588159E-3,9.256851E-2,3.08105E2,-3.6954213E-2,2.297E-1,-1.7217E2,5.983078E-2,-2.7570298E-2,-5.2035976E-2,1.3301975E-2,1.08912066E-1,-3.7582897E-2,4.1097637E-2,-4.9761135E-2,3.669167E-2,-5.1560443E-2,-2.0300248E-3,9.1946214E-2,-4.8397493E-2,4.0352084E-2,-4.2783953E-2,2.509205E-2],"split_indices":[2,16,0,72,5,67,72,72,52,68,15,68,63,0,60,44,0,0,0,6,57,60,57,0,57,0,0,62,0,52,42,0,0,0,0,0,0,0,0,0,0,0,0,0,0,0,0],"split_type":[0,0,0,0,0,0,0,0,0,0,0,0,0,0,0,0,0,0,0,0,0,0,0,0,0,0,0,0,0,0,0,0,0,0,0,0,0,0,0,0,0,0,0,0,0,0,0],"sum_hessian":[6.1700085E2,2.7986215E2,3.371387E2,1.81586E2,9.827617E1,1.5077031E2,3.0815693E1,2.3154404E1,7.5121765E1,4.1509466E0,1.4661935E2,1.2803322E1,1.8012373E1,1.5965511E0,2.1557852E1,1.3870471E1,6.1251293E1,2.4051316E0,1.7458148E0,8.022127E0,1.3859723E2,6.465796E0,6.3375254E0,1.147047E0,1.6865326E1,1.1192551E0,2.0438597E1,1.2505162E1,1.3653084E0,1.9461432E1,4.178986E1,1.8744024E0,6.147725E0,1.3624617E2,2.351054E0,4.941634E0,1.5241618E0,1.4190383E0,4.918487E0,1.465186E0,1.5400139E1,1.4620713E0,1.1043091E1,1.7339544E1,2.1218874E0,5.8742156E0,3.5915646E1],"tree_param":{"num_deleted":"0","num_feature":"74","num_nodes":"47","size_leaf_vector":"1"}},{"base_weights":[-5.681325E-1,-1.7813501E-1,-5.745169E-1,1.0804222E-1,-5.2556634E-2,-5.8374763E-2,-4.9060163E-1,-5.792896E-2,5.986377E-1,1.1244746E-1,-3.634582E-2],"categories":[],"categories_nodes":[],"categories_segments":[],"categories_sizes":[],"default_left":[0,0,0,0,0,0,0,0,0,0,0],"id":31,"left_children":[1,3,5,-1,-1,-1,7,-1,9,-1,-1],"loss_changes":[1.3246002E0,5.2378697E0,1.5003967E-1,0E0,0E0,0E0,6.3460007E0,0E0,3.022993E0,0E0,0E0],"parents":[2147483647,0,0,1,1,2,2,6,6,8,8],"right_children":[2,4,6,-1,-1,-1,8,-1,10,-1,-1],"split_conditions":[-2.712353E1,2E-2,6.88583E2,1.0804222E-1,-5.2556634E-2,-5.8374763E-2,3.3311008E2,-5.792896E-2,2.017E3,1.1244746E-1,-3.634582E-2],"split_indices":[61,69,62,0,0,0,60,0,3,0,0],"split_type":[0,0,0,0,0,0,0,0,0,0,0],"sum_hessian":[5.721029E2,9.680173E0,5.624227E2,1.6377482E0,8.042425E0,5.0132065E2,6.110209E1,5.693454E1,4.1675515E0,2.5856042E0,1.5819474E0],"tree_param":{"num_deleted":"0","num_feature":"74","num_nodes":"11","size_leaf_vector":"1"}},{"base_weights":[1.5797955E-1,6.642259E-1,-5.100688E-1,7.536079E-1,3.9557666E-1,-5.6358945E-1,-3.6191806E-1,7.659254E-2,7.676251E-1,7.3154557E-1,6.813925E-2,-5.673622E-1,2.2510763E-3,-5.289521E-1,1.361013E-1,-4.6994433E-1,6.953835E-2,7.769598E-1,-9.024894E-3,7.6825285E-1,-1.39999045E-2,-1.1763434E-1,8.9931324E-2,-5.7123786E-1,-2.713673E-1,-5.6981146E-2,7.285363E-2,7.285074E-1,-5.575726E-2,-6.0573697E-2,-6.817065E-3,6.843189E-1,8.418042E-1,-4.3703064E-2,2.9334744E-2,8.322086E-1,3.2041612E-1,3.9234877E-1,-4.2690557E-1,-5.7946462E-2,-4.2480832E-1,1.1690655E-2,-4.284808E-2,-4.4042874E-2,9.0402566E-2,1.1513989E0,-4.568357E-2,7.7494904E-2,4.8368737E-2,8.578165E-2,3.4768816E-2,8.592462E-2,3.5820283E-2,6.259166E-2,-4.8920307E-2,-4.6979263E-2,5.439303E-2,-5.094057E-2,4.9078222E-2,-5.433588E-2,2.02197E-2,1.2727968E-1,1.035382E-2],"categories":[],"categories_nodes":[],"categories_segments":[],"categories_sizes":[],"default_left":[0,0,0,0,0,0,0,0,0,0,0,0,0,0,0,0,0,0,0,0,0,0,0,0,0,0,0,0,0,0,0,0,0,0,0,0,0,0,0,0,0,0,0,0,0,0,0,0,0,0,0,0,0,0,0,0,0,0,0,0,0,0,0],"id":32,"left_children":[1,3,5,7,9,11,13,15,17,19,21,23,-1,25,27,29,-1,31,33,35,-1,37,-1,39,41,-1,43,45,-1,-1,-1,47,49,-1,-1,51,53,55,57,-1,59,-1,-1,-1,-1,61,-1,-1,-1,-1,-1,-1,-1,-1,-1,-1,-1,-1,-1,-1,-1,-1,-1],"loss_changes":[2.540089E2,9.958588E0,2.3644562E0,2.97229E0,1.1912546E1,5.349884E-1,7.4555492E0,2.8935714E0,2.2748108E0,1.8213139E0,8.77933E0,1.14219666E-1,0E0,1.6809216E0,9.893928E0,2.1113908E-1,0E0,1.280838E0,7.3692745E-1,1.2100391E0,0E0,7.548151E0,0E0,3.1806946E-2,3.5133782E-1,0E0,2.5848172E0,6.9856715E0,0E0,0E0,0E0,2.0366364E0,1.1060181E0,0E0,0E0,2.623768E-1,2.3019524E0,2.6322138E0,2.4916596E0,0E0,1.3007698E0,0E0,0E0,0E0,0E0,1.1125736E0,0E0,0E0,0E0,0E0,0E0,0E0,0E0,0E0,0E0,0E0,0E0,0E0,0E0,0E0,0E0,0E0,0E0],"parents":[2147483647,0,0,1,1,2,2,3,3,4,4,5,5,6,6,7,7,8,8,9,9,10,10,11,11,13,13,14,14,15,15,17,17,18,18,19,19,21,21,23,23,24,24,26,26,27,27,31,31,32,32,35,35,36,36,37,37,38,38,40,40,45,45],"right_children":[2,4,6,8,10,12,14,16,18,20,22,24,-1,26,28,30,-1,32,34,36,-1,38,-1,40,42,-1,44,46,-1,-1,-1,48,50,-1,-1,52,54,56,58,-1,60,-1,-1,-1,-1,62,-1,-1,-1,-1,-1,-1,-1,-1,-1,-1,-1,-1,-1,-1,-1,-1,-1],"split_conditions":[1E0,3.1515915E-4,1E0,2.016E3,2.017E3,1.60154E1,1.1331791E-1,1.3612E1,2.2E-1,1E-1,-3.5E-3,3.32E-1,2.2510763E-3,1.886E-1,4.43683E0,-1.2E-1,6.953835E-2,2.018E3,-3.26E-4,-1.8E-2,-1.39999045E-2,7.1748E-2,8.9931324E-2,1.29887E-1,-2.5E0,-5.6981146E-2,1.52E2,1.1474E-1,-5.575726E-2,-6.0573697E-2,-6.817065E-3,1.281E1,2.022E3,-4.3703064E-2,2.9334744E-2,2.08E-1,1.23E2,1.2811685E1,1.02186E-1,-5.7946462E-2,1.3363E1,1.1690655E-2,-4.284808E-2,-4.4042874E-2,9.0402566E-2,-2.22E-4,-4.568357E-2,7.7494904E-2,4.8368737E-2,8.578165E-2,3.4768816E-2,8.592462E-2,3.5820283E-2,6.259166E-2,-4.8920307E-2,-4.6979263E-2,5.439303E-2,-5.094057E-2,4.9078222E-2,-5.433588E-2,2.02197E-2,1.2727968E-1,1.035382E-2],"split_indices":[2,16,0,3,3,71,49,65,57,53,7,66,0,9,56,46,0,3,7,70,0,57,0,49,7,0,41,49,0,0,0,13,3,0,0,66,41,61,57,0,65,0,0,0,0,7,0,0,0,0,0,0,0,0,0,0,0,0,0,0,0,0,0],"split_type":[0,0,0,0,0,0,0,0,0,0,0,0,0,0,0,0,0,0,0,0,0,0,0,0,0,0,0,0,0,0,0,0,0,0,0,0,0,0,0,0,0,0,0,0,0,0,0,0,0,0,0,0,0,0,0,0,0,0,0,0,0,0,0],"sum_hessian":[7.490661E2,4.2614194E2,3.229242E2,3.184016E2,1.07740326E2,2.3516478E2,8.7759415E1,6.589711E0,3.118119E2,5.2568245E1,5.5172077E1,2.3369244E2,1.4723246E0,6.567136E1,2.2088064E1,3.6268764E0,2.9628348E0,3.081083E2,3.7035947E0,5.0557407E1,2.0108378E0,4.579502E1,9.377057E0,2.2975424E2,3.9382064E0,6.1545883E1,4.1254697E0,1.1886571E1,1.0201493E1,2.3312845E0,1.2955918E0,1.3162032E2,1.7648798E2,1.348899E0,2.3546958E0,4.3488514E1,7.068893E0,1.7186365E1,2.8608654E1,2.1473277E2,1.5021467E1,1.2082279E0,2.7299786E0,2.8410919E0,1.2843779E0,8.782057E0,3.1045136E0,8.8692986E1,4.292733E1,1.7023529E2,6.252687E0,4.0372887E1,3.1156278E0,5.297023E0,1.7718704E0,2.255966E0,1.49304E1,2.6657085E1,1.9515691E0,1.2745105E1,2.276363E0,7.6778874E0,1.1041695E0],"tree_param":{"num_deleted":"0","num_feature":"74","num_nodes":"63","size_leaf_vector":"1"}},{"base_weights":[4.4832936E-1,-5.898885E-2,8.2539964E-1,8.280433E-1,4.899643E-3,1.6546164E-2,8.297158E-2],"categories":[],"categories_nodes":[],"categories_segments":[],"categories_sizes":[],"default_left":[0,0,0,0,0,0,0],"id":33,"left_children":[1,-1,3,5,-1,-1,-1],"loss_changes":[3.4654193E2,0E0,1.2912903E0,5.791931E-1,0E0,0E0,0E0],"parents":[2147483647,0,0,2,2,3,3],"right_children":[2,-1,4,6,-1,-1,-1],"split_conditions":[1E0,-5.898885E-2,1.773E1,-7.5757573E-4,4.899643E-3,1.6546164E-2,8.297158E-2],"split_indices":[2,0,65,8,0,0,0],"split_type":[0,0,0,0,0,0,0],"sum_hessian":[8.829636E2,2.3509453E2,6.478691E2,6.4560425E2,2.2648163E0,1.8771179E0,6.437272E2],"tree_param":{"num_deleted":"0","num_feature":"74","num_nodes":"7","size_leaf_vector":"1"}},{"base_weights":[-3.574199E-1,-1.1083487E-1,-5.7664175E-2,-3.2519856E-1,2.698186E-1,-1.0796719E-1,-5.0960237E-1,-2.5282705E-1,5.4127127E-1,-3.1814635E-1,3.4418765E-1,-5.5530804E-1,2.010276E-1,-3.8025084E-1,2.1412125E-1,6.45946E-1,-5.1605564E-2,7.650269E-2,-3.992971E-1,1.8818194E-1,9.937193E-2,1.2104421E-2,-5.657097E-1,-1.556652E-1,9.489676E-2,-4.3903592E-1,4.783827E-2,5.538705E-1,-4.2993348E-2,8.3804125E-1,1.6867928E-2,5.5702906E-2,-4.99086E-2,-8.064016E-4,7.57827E-2,-8.42375E-3,-5.7594996E-2,3.597599E-2,-4.6869185E-2,-4.99113E-2,1.6888864E-2,7.88007E-2,-5.149917E-3,3.1967747E-3,8.7956004E-2,6.885751E-2,-4.6861332E-2],"categories":[],"categories_nodes":[],"categories_segments":[],"categories_sizes":[],"default_left":[0,0,0,0,0,0,0,0,0,0,0,0,0,0,0,0,0,0,0,0,0,0,0,0,0,0,0,0,0,0,0,0,0,0,0,0,0,0,0,0,0,0,0,0,0,0,0],"id":34,"left_children":[1,3,-1,5,7,9,11,13,15,17,19,21,23,25,27,29,-1,-1,31,33,-1,-1,35,37,-1,39,-1,41,-1,43,45,-1,-1,-1,-1,-1,-1,-1,-1,-1,-1,-1,-1,-1,-1,-1,-1],"loss_changes":[3.1453117E1,2.2578743E1,0E0,7.0266514E0,1.4302438E1,7.9437056E0,3.208517E0,2.1528008E0,7.6416454E0,5.297886E0,2.5124395E0,7.005997E-1,1.880789E0,1.608676E0,2.0112207E0,7.3004017E0,0E0,0E0,5.383053E0,2.5453506E0,0E0,0E0,3.8864708E-1,1.0168813E0,0E0,1.0505209E0,0E0,8.544129E-1,0E0,1.5230675E0,5.2729044E0,0E0,0E0,0E0,0E0,0E0,0E0,0E0,0E0,0E0,0E0,0E0,0E0,0E0,0E0,0E0,0E0],"parents":[2147483647,0,0,1,1,3,3,4,4,5,5,6,6,7,7,8,8,9,9,10,10,11,11,12,12,13,13,14,14,15,15,18,18,19,19,22,22,23,23,25,25,27,27,29,29,30,30],"right_children":[2,4,-1,6,8,10,12,14,16,18,20,22,24,26,28,30,-1,-1,32,34,-1,-1,36,38,-1,40,-1,42,-1,44,46,-1,-1,-1,-1,-1,-1,-1,-1,-1,-1,-1,-1,-1,-1,-1,-1],"split_conditions":[1E0,3.1515915E-4,-5.7664175E-2,2.018E3,2.017E3,1.9443018E1,2.022E3,1.06E-3,-3.5E-3,3.29E3,-2.1E-5,3.62228E0,3.395849E2,2.97E-1,1.40478E1,-6.3E-2,-5.1605564E-2,7.650269E-2,4.19069E0,2.2620344E1,9.937193E-2,1.2104421E-2,2.7E1,4.833191E0,9.489676E-2,1E-1,4.783827E-2,-1.2156E2,-4.2993348E-2,3.919E3,6.68401E-1,5.5702906E-2,-4.99086E-2,-8.064016E-4,7.57827E-2,-8.42375E-3,-5.7594996E-2,3.597599E-2,-4.6869185E-2,-4.99113E-2,1.6888864E-2,7.88007E-2,-5.149917E-3,3.1967747E-3,8.7956004E-2,6.885751E-2,-4.6861332E-2],"split_indices":[2,20,0,3,3,13,3,72,7,40,7,56,60,66,71,58,0,0,56,5,0,0,36,5,0,53,0,42,0,40,48,0,0,0,0,0,0,0,0,0,0,0,0,0,0,0,0],"split_type":[0,0,0,0,0,0,0,0,0,0,0,0,0,0,0,0,0,0,0,0,0,0,0,0,0,0,0,0,0,0,0,0,0,0,0,0,0,0,0,0,0,0,0,0,0,0,0],"sum_hessian":[5.820352E2,2.7463077E2,3.0740448E2,1.7578418E2,9.884657E1,8.143621E1,9.434798E1,3.3812927E1,6.503364E1,5.57963E1,2.5639912E1,8.8851845E1,5.496125E0,2.6709845E1,7.1030827E0,5.9529346E1,5.5042934E0,3.3015163E0,5.249478E1,2.171426E1,3.9256523E0,1.184648E0,8.76672E1,4.2575655E0,1.2385594E0,2.5455738E1,1.2541082E0,4.7417555E0,2.361327E0,4.534931E1,1.41800375E1,4.5271173E0,4.7967663E1,1.6883606E1,4.8306546E0,2.0178754E0,8.564932E1,1.552291E0,2.7052746E0,2.3329252E1,2.1264842E0,3.2017367E0,1.5400188E0,2.3081083E0,4.3041203E1,5.773518E0,8.40652E0],"tree_param":{"num_deleted":"0","num_feature":"74","num_nodes":"47","size_leaf_vector":"1"}},{"base_weights":[-5.5462056E-1,-2.797516E-1,-5.592928E-1,6.590386E-2,-5.2123714E-2,-4.3536937E-1,-5.7169545E-2,-5.6955904E-2,7.576636E-1,-3.061076E-2,1.0658457E-1],"categories":[],"categories_nodes":[],"categories_segments":[],"categories_sizes":[],"default_left":[0,0,0,0,0,0,0,0,0,0,0],"id":35,"left_children":[1,3,5,-1,-1,7,-1,-1,9,-1,-1],"loss_changes":[5.364227E-1,2.8413992E0,5.649414E-1,0E0,0E0,8.81506E0,0E0,0E0,2.2026951E0,0E0,0E0],"parents":[2147483647,0,0,1,1,2,2,5,5,8,8],"right_children":[2,4,6,-1,-1,8,-1,-1,10,-1,-1],"split_conditions":[-2.712353E1,2E-2,-2.1043E1,6.590386E-2,-5.2123714E-2,3.3311008E2,-5.7169545E-2,-5.6955904E-2,-3.92315E0,-3.061076E-2,1.0658457E-1],"split_indices":[61,69,64,0,0,60,0,0,15,0,0],"split_type":[0,0,0,0,0,0,0,0,0,0,0],"sum_hessian":[5.385212E2,1.0018249E1,5.285029E2,1.6959673E0,8.322281E0,5.136669E1,4.7713623E2,4.6642986E1,4.7237024E0,1.0625982E0,3.661104E0],"tree_param":{"num_deleted":"0","num_feature":"74","num_nodes":"11","size_leaf_vector":"1"}},{"base_weights":[1.4317895E-1,6.26018E-1,-5.0620264E-1,6.835404E-1,3.0744177E-1,-5.139909E-1,3.9430212E-2,7.552334E-1,5.43891E-1,-1.7677055E-1,4.719964E-1,2.7561177E-2,-5.196559E-1,3.7610374E-2,7.6991326E-1,-1.6245006E-2,5.8578944E-1,-3.8774458E-1,4.705417E-1,5.6729054E-1,-1.7364344E-2,-3.9531153E-1,-5.4372686E-1,-4.4551514E-2,4.0510565E-1,4.9186474E-1,7.899954E-1,3.0935428E-1,-3.2599849E-1,5.7532378E-2,6.46294E-1,-4.9432987E-1,2.051931E-2,-4.849057E-3,6.700048E-2,6.090519E-1,-3.7948743E-2,-5.6786705E-2,3.2087126E-1,4.5154657E-2,-4.9908084E-1,1.5629996E-2,-5.4738736E-1,-2.7324834E-3,6.311216E-2,-6.034978E-2,6.302856E-2,7.960489E-2,1.0312068E-2,-1.7549785E-2,6.0311314E-2,-6.154501E-2,2.200977E-2,-3.059496E-2,3.4025908E-2,6.763563E-2,3.0272317E-3,-5.8045056E-2,-1.1515987E-2,6.3876204E-2,2.4963391E-3,5.3428568E-2,-1.3704009E-2,-3.6308594E-2,5.624729E-2,-5.3702094E-2,-8.785071E-3,-3.4896176E-2,-5.5689376E-2],"categories":[],"categories_nodes":[],"categories_segments":[],"categories_sizes":[],"default_left":[0,0,0,0,0,0,0,0,0,0,0,0,0,0,0,0,0,0,0,0,0,0,0,0,0,0,0,0,0,0,0,0,0,0,0,0,0,0,0,0,0,0,0,0,0,0,0,0,0,0,0,0,0,0,0,0,0,0,0,0,0,0,0,0,0,0,0,0,0],"id":36,"left_children":[1,3,5,7,9,11,-1,13,15,17,19,-1,21,23,25,27,29,31,33,35,37,39,41,-1,43,45,47,49,51,53,55,57,-1,-1,-1,59,-1,-1,61,63,65,-1,67,-1,-1,-1,-1,-1,-1,-1,-1,-1,-1,-1,-1,-1,-1,-1,-1,-1,-1,-1,-1,-1,-1,-1,-1,-1,-1],"loss_changes":[2.249171E2,7.326874E0,2.3489609E0,3.069046E0,5.2404733E0,1.5023193E0,0E0,2.3633423E0,2.860466E0,2.5237176E0,2.2752228E0,0E0,6.8904114E-1,1.1753885E0,8.5375977E-1,1.0516393E0,3.5761452E0,9.532201E-1,5.155357E-1,1.8399696E0,1.8371943E0,2.428896E0,7.2711945E-1,0E0,3.7949944E-1,3.054449E0,7.738342E-1,8.3354163E-1,9.7608066E-1,1.4108222E0,1.8561554E0,3.1578922E-1,0E0,0E0,0E0,6.6699886E-1,0E0,0E0,6.736892E-1,2.5178895E0,6.189108E-1,0E0,2.7591705E-1,0E0,0E0,0E0,0E0,0E0,0E0,0E0,0E0,0E0,0E0,0E0,0E0,0E0,0E0,0E0,0E0,0E0,0E0,0E0,0E0,0E0,0E0,0E0,0E0,0E0,0E0],"parents":[2147483647,0,0,1,1,2,2,3,3,4,4,5,5,7,7,8,8,9,9,10,10,12,12,13,13,14,14,15,15,16,16,17,17,18,18,19,19,20,20,21,21,22,22,24,24,25,25,26,26,27,27,28,28,29,29,30,30,31,31,35,35,38,38,39,39,40,40,42,42],"right_children":[2,4,6,8,10,12,-1,14,16,18,20,-1,22,24,26,28,30,32,34,36,38,40,42,-1,44,46,48,50,52,54,56,58,-1,-1,-1,60,-1,-1,62,64,66,-1,68,-1,-1,-1,-1,-1,-1,-1,-1,-1,-1,-1,-1,-1,-1,-1,-1,-1,-1,-1,-1,-1,-1,-1,-1,-1,-1],"split_conditions":[1E0,1.06E-3,1.773E1,1.17E0,4.43E0,-4.09E-2,3.9430212E-2,3.29E3,1.178E0,1.02186E-1,1.4231E2,2.7561177E-2,1.4E-1,1.4813E1,-2.1043E1,9.736712E0,6.8E-2,1.54E2,9.749E0,8.8E-1,1.389E-3,-2.051923E-2,2.35E2,-4.4551514E-2,2.6E-2,1.0489E1,-3.3E-3,1.866025E0,1.3991E1,-1.0478E2,7.254E3,1.3596517E1,2.051931E-2,-4.849057E-3,6.700048E-2,7.5E-2,-3.7948743E-2,-5.6786705E-2,4.64E0,1.43E0,2.6E-2,1.5629996E-2,1.8E-2,