{"learner":{"attributes":{"scikit_learn":"{\"_estimator_type\": \"classifier\"}"},"feature_names":["tid","ra","dec","st_pmra","st_pmraerr1","st_pmraerr2","st_pmralim","st_pmdec","st_pmdecerr1","st_pmdecerr2","st_pmdeclim","pl_tranmid","pl_tranmiderr1","pl_tranmiderr2","pl_tranmidlim","pl_orbper","pl_orbpererr1","pl_orbpererr2","pl_orbperlim","pl_trandurh","pl_trandurherr1","pl_trandurherr2","pl_trandurhlim","pl_trandep","pl_trandeperr1","pl_trandeperr2","pl_trandeplim","pl_rade","pl_radeerr1","pl_radeerr2","pl_radelim","pl_insol","pl_eqt","st_tmag","st_tmagerr1","st_tmagerr2","st_tmaglim","st_dist","st_disterr1","st_disterr2","st_distlim","st_teff","st_tefferr1","st_tefferr2","st_tefflim","st_logg","st_loggerr1","st_loggerr2","st_logglim","st_rad","st_raderr1","st_raderr2","st_radlim"],"feature_types":["int","float","float","float","float","float","float","float","float","float","float","float","float","float","int","float","float","float","int","float","float","float","int","float","float","float","int","float","float","float","int","float","float","float","float","float","int","float","float","float","int","float","float","float","int","float","float","float","int","float","float","float","int"],"gradient_booster":{"model":{"gbtree_model_param":{"num_parallel_tree":"1","num_trees":"600"},"iteration_indptr":[0,6,12,18,24,30,36,42,48,54,60,66,72,78,84,90,96,102,108,114,120,126,132,138,144,150,156,162,168,174,180,186,192,198,204,210,216,222,228,234,240,246,252,258,264,270,276,282,288,294,300,306,312,318,324,330,336,342,348,354,360,366,372,378,384,390,396,402,408,414,420,426,432,438,444,450,456,462,468,474,480,486,492,498,504,510,516,522,528,534,540,546,552,558,564,570,576,582,588,594,600],"tree_info":[0,1,2,3,4,5,0,1,2,3,4,5,0,1,2,3,4,5,0,1,2,3,4,5,0,1,2,3,4,5,0,1,2,3,4,5,0,1,2,3,4,5,0,1,2,3,4,5,0,1,2,3,4,5,0,1,2,3,4,5,0,1,2,3,4,5,0,1,2,3,4,5,0,1,2,3,4,5,0,1,2,3,4,5,0,1,2,3,4,5,0,1,2,3,4,5,0,1,2,3,4,5,0,1,2,3,4,5,0,1,2,3,4,5,0,1,2,3,4,5,0,1,2,3,4,5,0,1,2,3,4,5,0,1,2,3,4,5,0,1,2,3,4,5,0,1,2,3,4,5,0,1,2,3,4,5,0,1,2,3,4,5,0,1,2,3,4,5,0,1,2,3,4,5,0,1,2,3,4,5,0,1,2,3,4,5,0,1,2,3,4,5,0,1,2,3,4,5,0,1,2,3,4,5,0,1,2,3,4,5,0,1,2,3,4,5,0,1,2,3,4,5,0,1,2,3,4,5,0,1,2,3,4,5,0,1,2,3,4,5,0,1,2,3,4,5,0,1,2,3,4,5,0,1,2,3,4,5,0,1,2,3,4,5,0,1,2,3,4,5,0,1,2,3,4,5,0,1,2,3,4,5,0,1,2,3,4,5,0,1,2,3,4,5,0,1,2,3,4,5,0,1,2,3,4,5,0,1,2,3,4,5,0,1,2,3,4,5,0,1,2,3,4,5,0,1,2,3,4,5,0,1,2,3,4,5,0,1,2,3,4,5,0,1,2,3,4,5,0,1,2,3,4,5,0,1,2,3,4,5,0,1,2,3,4,5,0,1,2,3,4,5,0,1,2,3,4,5,0,1,2,3,4,5,0,1,2,3,4,5,0,1,2,3,4,5,0,1,2,3,4,5,0,1,2,3,4,5,0,1,2,3,4,5,0,1,2,3,4,5,0,1,2,3,4,5,0,1,2,3,4,5,0,1,2,3,4,5,0,1,2,3,4,5,0,1,2,3,4,5,0,1,2,3,4,5,0,1,2,3,4,5,0,1,2,3,4,5,0,1,2,3,4,5,0,1,2,3,4,5,0,1,2,3,4,5,0,1,2,3,4,5,0,1,2,3,4,5,0,1,2,3,4,5,0,1,2,3,4,5,0,1,2,3,4,5,0,1,2,3,4,5,0,1,2,3,4,5,0,1,2,3,4,5,0,1,2,3,4,5,0,1,2,3,4,5,0,1,2,3,4,5,0,1,2,3,4,5,0,1,2,3,4,5,0,1,2,3,4,5,0,1,2,3,4,5,0,1,2,3,4,5,0,1,2,3,4,5,0,1,2,3,4,5,0,1,2,3,4,5],"trees":[{"base_weights":[-3.772539E-1,4.497724E-3,-4.3103173E-1,-5.5589586E-1,1.8445642E-1,-4.5811835E-1,3.866231E-1,1.5789472E-2,-5.8293838E-2,6.731054E-1,-5.6603797E-2,-1.9778919E-1,-4.9958608E-1,1.2280698E-1,1.4745761E0,1.6666665E0,4.6826753E-1,-1.4084509E-1,8.644067E-1,7.894736E-1,-2.931554E-1,-5.074897E-1,6.437765E-2,9.3243235E-1,-1.9582246E-1,-3.1578947E-2,1.8979591E0,1.9772726E0,1.5789472E-2,7.731958E-1,-1.2676059E-1,2.5423702E-2,-3.367347E-1,1.2580644E0,-3.488372E-2,1.2972972E0,-1.22448996E-1,4.2673987E-3,-4.1758242E-1,-5.213358E-1,-2.864638E-1,6.106194E-1,-3.9130434E-1,-2.0632376E-8,1.5681818E0,-5.5645164E-2,4.1176465E-1,7.4999996E-2,2.2058824E-1,2.2058824E-1,6.315789E-2,9.93808E-2,-2.5301207E-2,-5.2447554E-2,5.454545E-2,5.7512946E-2,-1.7448409E-2,-5.0209206E-2,3.28125E-2,1.6764705E-1,6.9767423E-3,1.8387096E-1,2.8767122E-2,-4.6153847E-2,6.315789E-2,-9.880242E-3,1.3018867E-1,-4.7134187E-2,8.670517E-3,-4.1365094E-2,-5.3955443E-2,4.5132738E-2,-3.7762236E-2,1.153846E-1,-3.9622642E-2,1.5789472E-2,-5.084746E-2,6.315789E-2,-4.1379314E-2,1.9411764E-1,1.5789472E-2,1.04819275E-1,-2.727273E-2],"categories":[],"categories_nodes":[],"categories_segments":[],"categories_sizes":[],"default_left":[0,0,0,0,0,0,0,0,0,0,0,0,0,0,0,0,0,0,0,0,0,0,0,0,0,0,0,0,0,0,0,0,0,0,0,0,0,0,0,0,0,0,0,0,0,0,0,0,0,0,0,0,0,0,0,0,0,0,0,0,0,0,0,0,0,0,0,0,0,0,0,0,0,0,0,0,0,0,0,0,0,0,0],"id":0,"left_children":[1,3,5,7,9,11,13,-1,-1,15,17,19,21,23,25,27,29,31,33,35,37,39,41,43,45,-1,47,49,-1,51,53,55,57,59,-1,61,63,65,67,69,71,73,75,77,79,-1,81,-1,-1,-1,-1,-1,-1,-1,-1,-1,-1,-1,-1,-1,-1,-1,-1,-1,-1,-1,-1,-1,-1,-1,-1,-1,-1,-1,-1,-1,-1,-1,-1,-1,-1,-1,-1],"loss_changes":[2.4481415E1,1.505041E1,2.3324951E1,7.9230213E-1,1.334226E1,1.0827179E1,9.593522E0,0E0,0E0,6.828903E0,6.0614724E0,1.348065E1,3.9212189E0,7.534751E0,5.568534E0,2.4995995E0,5.9746785E0,2.3210545E0,3.5698113E0,6.024734E0,4.777796E0,2.483902E0,3.4609728E0,4.874078E0,4.8913784E0,0E0,2.7010727E-1,1.1082268E-1,0E0,5.1314945E0,3.4497192E0,4.4227095E0,3.7561035E0,2.4518566E0,0E0,3.965519E0,1.6835495E0,5.3521295E0,2.5079002E0,1.3630066E0,3.7312627E0,3.8907864E0,5.736338E-1,1.3938293E0,2.2651978E0,0E0,3.9887247E0,0E0,0E0,0E0,0E0,0E0,0E0,0E0,0E0,0E0,0E0,0E0,0E0,0E0,0E0,0E0,0E0,0E0,0E0,0E0,0E0,0E0,0E0,0E0,0E0,0E0,0E0,0E0,0E0,0E0,0E0,0E0,0E0,0E0,0E0,0E0,0E0],"parents":[2147483647,0,0,1,1,2,2,3,3,4,4,5,5,6,6,9,9,10,10,11,11,12,12,13,13,14,14,15,15,16,16,17,17,18,18,19,19,20,20,21,21,22,22,23,23,24,24,26,26,27,27,29,29,30,30,31,31,32,32,33,33,35,35,36,36,37,37,38,38,39,39,40,40,41,41,42,42,43,43,44,44,46,46],"right_children":[2,4,6,8,10,12,14,-1,-1,16,18,20,22,24,26,28,30,32,34,36,38,40,42,44,46,-1,48,50,-1,52,54,56,58,60,-1,62,64,66,68,70,72,74,76,78,80,-1,82,-1,-1,-1,-1,-1,-1,-1,-1,-1,-1,-1,-1,-1,-1,-1,-1,-1,-1,-1,-1,-1,-1,-1,-1,-1,-1,-1,-1,-1,-1,-1,-1,-1,-1,-1,-1],"split_conditions":[1.348E0,3.3302665E0,2.1955555E1,4.2427E0,8.818115E-1,-1.1E-1,9.781563E0,1.5789472E-2,-5.8293838E-2,-2E-1,1.10487E-1,5.01E-4,7.20672E0,4.1E-6,2.5095E0,1.0168E1,1.45E0,1.33E-3,1.797E-3,-2.2283159E-1,1.422E-3,1.7803684E1,2.095E-3,8.4678825E1,1.326E2,-3.1578947E-2,5.8E-2,1.96E2,1.5789472E-2,1.9637613E4,2.04E3,4.28965E0,1.75145E1,2.35E0,-3.488372E-2,2.964E0,1.54706E1,1.8216143E3,1.88336E0,1.902E0,1.916E0,1.8787401E1,3.7E-2,2.459279E6,7.49E-4,-5.5645164E-2,7.51583E-2,7.4999996E-2,2.2058824E-1,2.2058824E-1,6.315789E-2,9.93808E-2,-2.5301207E-2,-5.2447554E-2,5.454545E-2,5.7512946E-2,-1.7448409E-2,-5.0209206E-2,3.28125E-2,1.6764705E-1,6.9767423E-3,1.8387096E-1,2.8767122E-2,-4.6153847E-2,6.315789E-2,-9.880242E-3,1.3018867E-1,-4.7134187E-2,8.670517E-3,-4.1365094E-2,-5.3955443E-2,4.5132738E-2,-3.7762236E-2,1.153846E-1,-3.9622642E-2,1.5789472E-2,-5.084746E-2,6.315789E-2,-4.1379314E-2,1.9411764E-1,1.5789472E-2,1.04819275E-1,-2.727273E-2],"split_indices":[19,27,27,45,15,9,15,0,0,47,50,12,28,16,38,3,49,12,12,9,12,27,12,24,42,0,4,42,0,23,23,45,38,49,0,19,27,32,28,19,19,27,4,11,12,0,50,0,0,0,0,0,0,0,0,0,0,0,0,0,0,0,0,0,0,0,0,0,0,0,0,0,0,0,0,0,0,0,0,0,0,0,0],"split_type":[0,0,0,0,0,0,0,0,0,0,0,0,0,0,0,0,0,0,0,0,0,0,0,0,0,0,0,0,0,0,0,0,0,0,0,0,0,0,0,0,0,0,0,0,0,0,0,0,0,0,0,0,0,0,0,0,0,0,0,0,0,0,0,0,0,0,0,0,0,0,0,0,0,0,0,0,0,0,0,0,0,0,0],"sum_hessian":[1.1913889E3,1.4722223E2,1.0441667E3,3.527778E1,1.1194445E2,1.01111115E3,3.3055557E1,1.1111112E0,3.4166668E1,3.638889E1,7.555556E1,1.3972223E2,8.713889E2,2.7500002E1,5.555556E0,5E0,3.1388891E1,7E1,5.555556E0,1.1666667E1,1.2805556E2,8.5944446E2,1.1944445E1,7.2222223E0,2.0277779E1,1.1111112E0,4.4444447E0,3.888889E0,1.1111112E0,2.0555557E1,1.0833334E1,3.8333336E1,3.1666668E1,4.166667E0,1.388889E0,7.2222223E0,4.4444447E0,3.8055557E1,9.000001E1,8.0750006E2,5.1944447E1,5.277778E0,6.666667E0,3.3333335E0,3.888889E0,1.2777779E1,7.5000005E0,1.6666667E0,2.777778E0,2.777778E0,1.1111112E0,1.6944445E1,3.6111112E0,6.9444447E0,3.888889E0,9.722222E0,2.8611113E1,2.5555557E1,6.1111116E0,2.777778E0,1.388889E0,4.166667E0,3.0555558E0,3.3333335E0,1.1111112E0,3.6111115E1,1.9444445E0,8.138889E1,8.611112E0,1.2027779E2,6.872222E2,5.277778E0,4.6666668E1,3.3333335E0,1.9444445E0,1.1111112E0,5.555556E0,1.1111112E0,2.2222223E0,2.777778E0,1.1111112E0,3.6111112E0,3.888889E0],"tree_param":{"num_deleted":"0","num_feature":"53","num_nodes":"83","size_leaf_vector":"1"}},{"base_weights":[-2.783823E-1,4.5445612E-1,-4.5005184E-1,8.5849047E-1,9.757212E-2,-5.5403405E-1,-2.777101E-1,1.848341E-1,1.176334E0,2.928416E-1,-2.3471884E-1,-5.6150645E-1,-2.0930234E-1,-4.026678E-1,6.0402654E-2,6.951219E-1,-3.4365326E-1,-2.3595506E-1,1.3795233E0,9.850745E-1,1.2444834E-1,-3.541963E-1,4.2857137E-1,-6.8181835E-2,-5.6467897E-1,9.069767E-2,-3.9914164E-1,-4.8133022E-1,-2.0317005E-1,3.467656E-1,-2.5376594E-1,1.2972972E0,1.8181814E-1,2.876712E-1,-4.9253732E-1,-4.177215E-1,6.315789E-2,1.6521738E0,6.037151E-1,1.5638297E0,-3.0612245E-1,-6.465519E-2,9.013452E-1,6.2264144E-2,-4.2215568E-1,-4.698795E-2,1.4117646E0,4.8837207E-2,-4.2857144E-2,-5.02766E-1,-5.888755E-1,-5.4255318E-2,1.4285712E-1,-4.2253543E-2,-5.075781E-1,2.975871E-1,-3.804453E-1,1.0575539E0,4.831622E-2,4.6012264E-1,-4.0947077E-1,-3.1578947E-2,1.59375E-1,-3.75E-2,9.545454E-2,-3.488372E-2,7.4999996E-2,1.5789472E-2,-5.5645164E-2,-5.2173913E-2,1.5789472E-2,2.1955307E-1,1.1926229E-1,-4.8387095E-2,9.677418E-2,1.9565217E-1,3.529411E-2,-4.6153847E-2,1.5789472E-2,-1.2956813E-2,1.3255814E-1,-9.677421E-3,1.4189188E-1,-1.726619E-2,-5.735294E-2,1.5789472E-2,1.8749999E-1,-5.2280463E-2,-5.882355E-3,-4.8175182E-2,-5.9583392E-2,-3.488372E-2,6.315789E-2,-5.0442476E-2,4.067796E-2,-2.0632376E-9,-5.1717617E-2,-4.9514562E-2,5.6249995E-2,6.2264144E-2,-4.268537E-2,1.2962963E-1,-3.9622642E-2,-4.2205323E-2,3.287671E-2,-3.0612245E-2,1.2650602E-1,4.285714E-2,-4.769688E-2],"categories":[],"categories_nodes":[],"categories_segments":[],"categories_sizes":[],"default_left":[0,0,0,0,0,0,0,0,0,0,0,0,0,0,0,0,0,0,0,0,0,0,0,0,0,0,0,0,0,0,0,0,0,0,0,0,0,0,0,0,0,0,0,0,0,0,0,0,0,0,0,0,0,0,0,0,0,0,0,0,0,0,0,0,0,0,0,0,0,0,0,0,0,0,0,0,0,0,0,0,0,0,0,0,0,0,0,0,0,0,0,0,0,0,0,0,0,0,0,0,0,0,0,0,0,0,0,0,0],"id":1,"left_children":[1,3,5,7,9,11,13,15,17,19,21,23,25,27,29,31,33,35,37,39,41,43,45,47,49,-1,51,53,55,57,59,61,63,65,67,69,-1,71,73,75,77,79,81,-1,83,-1,85,-1,-1,87,89,-1,91,93,95,97,99,101,103,105,107,-1,-1,-1,-1,-1,-1,-1,-1,-1,-1,-1,-1,-1,-1,-1,-1,-1,-1,-1,-1,-1,-1,-1,-1,-1,-1,-1,-1,-1,-1,-1,-1,-1,-1,-1,-1,-1,-1,-1,-1,-1,-1,-1,-1,-1,-1,-1,-1],"loss_changes":[1.498648E2,3.254399E1,1.7127457E1,2.247902E1,7.9380007E0,1.4291992E0,1.5440798E1,9.72265E0,2.0938942E1,8.833669E0,3.753191E0,8.8038635E-1,3.399441E0,4.0852585E0,9.024645E0,5.396597E0,1.8283617E0,1.8231888E0,1.23168335E1,1.1604998E1,9.305694E0,2.8555655E0,7.190341E0,1.1898973E0,5.776367E-1,0E0,1.0836651E0,2.1733932E0,6.9585114E0,1.1062386E1,5.517714E0,4.4351864E0,5.090909E0,1.4550812E0,7.068198E-1,6.079428E-1,0E0,8.86779E0,7.572654E0,4.275858E0,4.655044E-1,4.82435E0,6.5374184E0,0E0,1.3025417E0,0E0,1.8982196E0,0E0,0E0,1.4879875E0,2.1194458E-2,0E0,1.0613744E0,2.660964E0,8.750229E-1,4.630292E0,2.9373245E0,5.8740654E0,5.144219E0,5.972544E0,2.4607792E0,0E0,0E0,0E0,0E0,0E0,0E0,0E0,0E0,0E0,0E0,0E0,0E0,0E0,0E0,0E0,0E0,0E0,0E0,0E0,0E0,0E0,0E0,0E0,0E0,0E0,0E0,0E0,0E0,0E0,0E0,0E0,0E0,0E0,0E0,0E0,0E0,0E0,0E0,0E0,0E0,0E0,0E0,0E0,0E0,0E0,0E0,0E0,0E0],"parents":[2147483647,0,0,1,1,2,2,3,3,4,4,5,5,6,6,7,7,8,8,9,9,10,10,11,11,12,12,13,13,14,14,15,15,16,16,17,17,18,18,19,19,20,20,21,21,22,22,23,23,24,24,26,26,27,27,28,28,29,29,30,30,31,31,32,32,33,33,34,34,35,35,37,37,38,38,39,39,40,40,41,41,42,42,44,44,46,46,49,49,50,50,52,52,53,53,54,54,55,55,56,56,57,57,58,58,59,59,60,60],"right_children":[2,4,6,8,10,12,14,16,18,20,22,24,26,28,30,32,34,36,38,40,42,44,46,48,50,-1,52,54,56,58,60,62,64,66,68,70,-1,72,74,76,78,80,82,-1,84,-1,86,-1,-1,88,90,-1,92,94,96,98,100,102,104,106,108,-1,-1,-1,-1,-1,-1,-1,-1,-1,-1,-1,-1,-1,-1,-1,-1,-1,-1,-1,-1,-1,-1,-1,-1,-1,-1,-1,-1,-1,-1,-1,-1,-1,-1,-1,-1,-1,-1,-1,-1,-1,-1,-1,-1,-1,-1,-1,-1],"split_conditions":[6.87E-1,2.048E-3,-7.62034E-1,-8.821375E-1,5.34E-1,-2.19142E-2,-1.055E-3,3.0161254E0,1.8E-6,4.4E0,1.59E2,-7.2635E1,5.5E-2,-2.13E-1,1.15876E1,1.05216E1,1.828E-1,3.661E0,1.11835E1,1.03E3,6.3612236E1,3.190002E1,4.7E-2,7.842316E3,6.3825E0,9.069767E-2,8.1935E0,8.515E-1,2.5095E0,4.7E-2,7.5E-1,1.6326848E2,1.055E3,1.5372544E8,2E-2,4.9119E1,6.315789E-2,7.9E-1,1.78E3,2.2849E1,2.2381998E2,2.032E2,1.9003656E2,6.2264144E-2,-2.6846E1,-4.698795E-2,5.4466785E1,4.8837207E-2,-4.2857144E-2,1.4E-1,3.79E0,-5.4255318E-2,-1.46636E0,-2.571751E-1,-7.53452E-1,1.02E3,1.9130697E1,1.95E0,-9.52571E-2,1.618E0,4.1283E0,-3.1578947E-2,1.59375E-1,-3.75E-2,9.545454E-2,-3.488372E-2,7.4999996E-2,1.5789472E-2,-5.5645164E-2,-5.2173913E-2,1.5789472E-2,2.1955307E-1,1.1926229E-1,-4.8387095E-2,9.677418E-2,1.9565217E-1,3.529411E-2,-4.6153847E-2,1.5789472E-2,-1.2956813E-2,1.3255814E-1,-9.677421E-3,1.4189188E-1,-1.726619E-2,-5.735294E-2,1.5789472E-2,1.8749999E-1,-5.2280463E-2,-5.882355E-3,-4.8175182E-2,-5.9583392E-2,-3.488372E-2,6.315789E-2,-5.0442476E-2,4.067796E-2,-2.0632376E-9,-5.1717617E-2,-4.9514562E-2,5.6249995E-2,6.2264144E-2,-4.268537E-2,1.2962963E-1,-3.9622642E-2,-4.2205323E-2,3.287671E-2,-3.0612245E-2,1.2650602E-1,4.285714E-2,-4.769688E-2],"split_indices":[38,12,29,29,20,47,13,27,16,45,42,3,8,21,33,33,38,19,33,32,2,1,4,23,38,0,38,38,38,4,49,23,23,0,50,7,0,49,23,3,1,7,1,0,7,0,1,0,0,50,45,0,29,29,29,23,1,49,47,19,45,0,0,0,0,0,0,0,0,0,0,0,0,0,0,0,0,0,0,0,0,0,0,0,0,0,0,0,0,0,0,0,0,0,0,0,0,0,0,0,0,0,0,0,0,0,0,0,0],"split_type":[0,0,0,0,0,0,0,0,0,0,0,0,0,0,0,0,0,0,0,0,0,0,0,0,0,0,0,0,0,0,0,0,0,0,0,0,0,0,0,0,0,0,0,0,0,0,0,0,0,0,0,0,0,0,0,0,0,0,0,0,0,0,0,0,0,0,0,0,0,0,0,0,0,0,0,0,0,0,0,0,0,0,0,0,0,0,0,0,0,0,0,0,0,0,0,0,0,0,0,0,0,0,0,0,0,0,0,0,0],"sum_hessian":[1.1886112E3,2.2527779E2,9.633334E2,1.0500001E2,1.2027779E2,5.9944446E2,3.6388892E2,3.4166668E1,7.0833336E1,7.5833336E1,4.4444447E1,5.8611115E2,1.3333334E1,2.6555557E2,9.8333336E1,1.7222223E1,1.6944445E1,8.888889E0,6.1944447E1,1.3888889E1,6.1944447E1,3.8055557E1,6.3888893E0,3.888889E0,5.822222E2,1.388889E0,1.1944445E1,1.8944446E2,7.6111115E1,5.1388893E1,4.6944447E1,7.2222223E0,1E1,3.0555558E0,1.3888889E1,7.777778E0,1.1111112E0,4.5000004E1,1.6944445E1,9.444445E0,4.4444447E0,5.0555557E1,1.1388889E1,1.9444445E0,3.6111115E1,3.6111112E0,2.777778E0,1.388889E0,2.5E0,1.6972223E2,4.1250003E2,9.444445E0,2.5E0,1.0833334E1,1.7861111E2,1.9722223E1,5.6388893E1,1.4444445E1,3.6944447E1,8.055556E0,3.888889E1,1.1111112E0,6.1111116E0,6.1111116E0,3.888889E0,1.388889E0,1.6666667E0,1.1111112E0,1.2777779E1,6.666667E0,1.1111112E0,1.888889E1,2.6111113E1,4.166667E0,1.2777779E1,6.666667E0,2.777778E0,3.3333335E0,1.1111112E0,4.9166668E1,1.388889E0,4.166667E0,7.2222223E0,1.4444445E1,2.1666668E1,1.1111112E0,1.6666667E0,1.6222223E2,7.5000005E0,2.9444447E1,3.8305557E2,1.388889E0,1.1111112E0,5.277778E0,5.555556E0,3.3333335E0,1.7527779E2,4.7222223E0,1.5000001E1,1.9444445E0,5.4444447E1,1.2500001E1,1.9444445E0,1.3611112E1,2.3333334E1,4.4444447E0,3.6111112E0,2.5E0,3.638889E1],"tree_param":{"num_deleted":"0","num_feature":"53","num_nodes":"109","size_leaf_vector":"1"}},{"base_weights":[-5.5119604E-1,-1.2034386E-1,-5.650886E-1,3.2673264E-1,-4.4309926E-1,-4.6048632E-1,-5.8877844E-1,8.1818175E-1,-5.121951E-2,-5.2671754E-1,6.315789E-2,-4.8711133E-1,7.3891595E-2,1.5789472E-2,-5.898251E-1,1.776699E0,-1.8584073E-1,1.5789472E-2,-5.7104558E-2,-8.053693E-2,-5.1937985E-1,-3.986014E-1,9.2307687E-1,-1.4285715E-1,-5.908608E-1,2.2058824E-1,6.2264144E-2,-4.8387095E-2,6.315789E-2,-3.2188842E-1,6.144578E-1,-5.426683E-1,-1.7341064E-2,-5.121951E-2,1.5789472E-2,-3.75E-2,1.8749999E-1,1.5789472E-2,-3.488372E-2,-5.918972E-1,-2.0547946E-1,-4.5812808E-2,3.7499998E-2,-1.4285715E-2,1.5789473E-1,-5.6586523E-2,-3.4351148E-2,4.838709E-2,-4.897959E-2,-5.9494443E-2,-4.7609944E-2,1.5789472E-2,-3.9622642E-2],"categories":[],"categories_nodes":[],"categories_segments":[],"categories_sizes":[],"default_left":[0,0,0,0,0,0,0,0,0,0,0,0,0,0,0,0,0,0,0,0,0,0,0,0,0,0,0,0,0,0,0,0,0,0,0,0,0,0,0,0,0,0,0,0,0,0,0,0,0,0,0,0,0],"id":2,"left_children":[1,3,5,7,9,11,13,15,-1,17,-1,19,21,-1,23,25,27,-1,-1,29,31,33,35,37,39,-1,-1,-1,-1,41,43,45,47,-1,-1,-1,-1,-1,-1,49,51,-1,-1,-1,-1,-1,-1,-1,-1,-1,-1,-1,-1],"loss_changes":[7.11911E0,5.7402673E0,2.6106567E0,7.359289E0,2.3945146E0,3.1566277E0,8.313904E-1,1.0916285E1,0E0,7.527518E-1,0E0,2.7008858E0,4.8929687E0,0E0,3.5235596E-1,1.4607544E0,1.8349684E0,0E0,0E0,2.9747827E0,2.2529335E0,5.8307683E-1,6.0576916E0,2.7190065E-1,2.541809E-1,0E0,0E0,0E0,0E0,1.4007933E0,3.5936227E0,6.597786E-1,2.5129097E0,0E0,0E0,0E0,0E0,0E0,0E0,4.7729492E-2,3.4366286E-1,0E0,0E0,0E0,0E0,0E0,0E0,0E0,0E0,0E0,0E0,0E0,0E0],"parents":[2147483647,0,0,1,1,2,2,3,3,4,4,5,5,6,6,7,7,9,9,11,11,12,12,14,14,15,15,16,16,19,19,20,20,21,21,22,22,23,23,24,24,29,29,30,30,31,31,32,32,39,39,40,40],"right_children":[2,4,6,8,10,12,14,16,-1,18,-1,20,22,-1,24,26,28,-1,-1,30,32,34,36,38,40,-1,-1,-1,-1,42,44,46,48,-1,-1,-1,-1,-1,-1,50,52,-1,-1,-1,-1,-1,-1,-1,-1,-1,-1,-1,-1],"split_conditions":[-2.3597E-3,2.4588142E6,2.4590465E6,6.9571E0,6.0536232E1,1.8E-2,2.15535E-1,2.2048775E1,-5.121951E-2,3.470093E-1,6.315789E-2,3.05E2,2.4588918E6,1.5789472E-2,3.45E0,1.38045E2,4.49884E0,1.5789472E-2,-5.7104558E-2,4.668104E1,7.68E-1,8.064E0,1.44815E1,1.4384219E8,2.01E-1,2.2058824E-1,6.2264144E-2,-4.8387095E-2,6.315789E-2,3.32381E1,1.57963E2,2.73154E3,-3.158E-4,-5.121951E-2,1.5789472E-2,-3.75E-2,1.8749999E-1,1.5789472E-2,-3.488372E-2,4.2064E1,8.159736E7,-4.5812808E-2,3.7499998E-2,-1.4285715E-2,1.5789473E-1,-5.6586523E-2,-3.4351148E-2,4.838709E-2,-4.897959E-2,-5.9494443E-2,-4.7609944E-2,1.5789472E-2,-3.9622642E-2],"split_indices":[17,11,11,27,2,34,49,15,0,31,0,23,11,0,45,31,45,0,0,2,20,3,38,0,34,0,0,0,0,24,37,31,17,0,0,0,0,0,0,7,0,0,0,0,0,0,0,0,0,0,0,0,0],"split_type":[0,0,0,0,0,0,0,0,0,0,0,0,0,0,0,0,0,0,0,0,0,0,0,0,0,0,0,0,0,0,0,0,0,0,0,0,0,0,0,0,0,0,0,0,0,0,0,0,0,0,0,0,0],"sum_hessian":[1.1997223E3,3.777778E1,1.1619445E3,1.5833334E1,2.1944445E1,2.1833334E2,9.4361115E2,1E1,5.8333335E0,2.0833334E1,1.1111112E0,2.0805557E2,1.0277779E1,1.1111112E0,9.4250006E2,4.7222223E0,5.277778E0,1.1111112E0,1.9722223E1,1.5555556E1,1.9250002E2,6.9444447E0,3.3333335E0,2.5E0,9.4000006E2,2.777778E0,1.9444445E0,4.166667E0,1.1111112E0,1.1944445E1,3.6111112E0,1.838889E2,8.611112E0,5.8333335E0,1.1111112E0,1.6666667E0,1.6666667E0,1.1111112E0,1.388889E0,9.369445E2,3.0555558E0,1.0277779E1,1.6666667E0,2.5E0,1.1111112E0,1.6305556E2,2.0833334E1,4.166667E0,4.4444447E0,9.088889E2,2.8055557E1,1.1111112E0,1.9444445E0],"tree_param":{"num_deleted":"0","num_feature":"53","num_nodes":"53","size_leaf_vector":"1"}},{"base_weights":[-2.8495045E-2,-2.0870438E-1,8.3788115E-1,1.7092334E-1,-3.0222562E-1,1.3482794E0,2.9706198E-1,-3.2841748E-1,6.534653E-1,-3.6793325E-2,-3.8169038E-1,1.0107166E0,2.4311512E0,2.4571827E-2,9.9999994E-1,6.7415726E-1,-4.360574E-1,-2.631579E-1,9.9999994E-1,-4.6425766E-1,2.2413789E-1,-4.0197945E-1,-1.9736867E-2,7.255676E-1,1.5542167E0,2.607748E0,-1.6763807E-9,-4.6583876E-2,1.2739725E0,-4.8387095E-2,1.2739725E0,-3.3333334E-1,1.7727272E-1,-4.9734747E-1,4.5132738E-1,1.3255814E-1,-3.9344263E-1,1.1154162E0,-2.3437501E-1,-5.4044116E-1,-1.4778349E-2,1.0310962E-1,1.0219779E0,-1.3976167E-1,-4.2642924E-1,1.3255814E-1,-1.1835337E-1,1.1857682E-2,9.40874E-1,-3.75E-2,1.6923076E0,2.6793892E0,6.315789E-2,-1.2408761E-1,1.2739725E0,1.8749999E-1,6.9767423E-3,-2.0632376E-8,1.4761903E0,-4.7727272E-2,1.5789472E-2,2.4489792E-2,-5.420168E-2,-4.1379314E-2,1.02739714E-1,-4.6153847E-2,6.315789E-2,1.173913E-1,-4.1379314E-2,6.315789E-2,-5E-2,8.823527E-3,-5.7225432E-2,7.142857E-2,-3.0379748E-2,-2.9679148E-2,3.7262008E-2,4.2857137E-2,2.181818E-1,6.774193E-2,-2.2641512E-2,-5.7416293E-3,-4.4235576E-2,-2.9381445E-2,2.1126758E-2,-2.727273E-2,7.808219E-2,1.2739725E-1,4.860335E-2,1.9801699E-1,6.992481E-2,6.315789E-2,2.758713E-1,2.1686744E-2,-3.4661356E-2,6.9767423E-3,1.8749999E-1,-3.9622642E-2,4.8837207E-2,1.771331E-1,3.7864074E-2],"categories":[],"categories_nodes":[],"categories_segments":[],"categories_sizes":[],"default_left":[0,0,0,0,0,0,0,0,0,0,0,0,0,0,0,0,0,0,0,0,0,0,0,0,0,0,0,0,0,0,0,0,0,0,0,0,0,0,0,0,0,0,0,0,0,0,0,0,0,0,0,0,0,0,0,0,0,0,0,0,0,0,0,0,0,0,0,0,0,0,0,0,0,0,0,0,0,0,0,0,0,0,0,0,0,0,0,0,0,0,0,0,0,0,0,0,0,0,0,0,0],"id":3,"left_children":[1,3,5,7,9,11,13,15,17,19,21,23,25,27,29,31,33,35,37,39,41,43,45,47,49,51,-1,53,55,-1,57,59,-1,61,63,-1,65,67,69,71,73,75,77,79,81,-1,83,85,87,-1,89,91,-1,93,95,-1,-1,97,99,-1,-1,-1,-1,-1,-1,-1,-1,-1,-1,-1,-1,-1,-1,-1,-1,-1,-1,-1,-1,-1,-1,-1,-1,-1,-1,-1,-1,-1,-1,-1,-1,-1,-1,-1,-1,-1,-1,-1,-1,-1,-1],"loss_changes":[1.8829308E2,3.5491795E1,5.6922348E1,4.7909897E1,1.6886925E1,3.6492813E1,1.9534164E1,1.0863848E1,3.2344975E1,2.0819288E1,4.5198593E0,1.1726921E1,1.0566391E1,6.6924224E0,1.2202831E1,1.1535919E1,5.0680103E0,6.4207115E0,1.073275E1,2.4137497E0,1.1095725E1,3.6831055E0,4.6382046E0,8.636837E0,8.005211E0,1.5561066E0,0E0,7.4816566E0,2.8044362E0,0E0,6.268753E0,4.9960113E-1,0E0,2.9104404E0,3.5537844E0,0E0,2.1838455E0,6.5139465E0,1.9514804E0,1.2593937E0,2.5933776E0,1.1085935E1,9.503494E0,3.7844367E0,3.1100311E0,0E0,1.9353057E0,3.288808E0,5.929268E0,0E0,6.047844E0,1.8042603E0,0E0,5.272356E0,2.8044362E0,0E0,0E0,1.0320315E0,6.1318626E0,0E0,0E0,0E0,0E0,0E0,0E0,0E0,0E0,0E0,0E0,0E0,0E0,0E0,0E0,0E0,0E0,0E0,0E0,0E0,0E0,0E0,0E0,0E0,0E0,0E0,0E0,0E0,0E0,0E0,0E0,0E0,0E0,0E0,0E0,0E0,0E0,0E0,0E0,0E0,0E0,0E0,0E0],"parents":[2147483647,0,0,1,1,2,2,3,3,4,4,5,5,6,6,7,7,8,8,9,9,10,10,11,11,12,12,13,13,14,14,15,15,16,16,17,17,18,18,19,19,20,20,21,21,22,22,23,23,24,24,25,25,27,27,28,28,30,30,31,31,33,33,34,34,36,36,37,37,38,38,39,39,40,40,41,41,42,42,43,43,44,44,46,46,47,47,48,48,50,50,51,51,53,53,54,54,57,57,58,58],"right_children":[2,4,6,8,10,12,14,16,18,20,22,24,26,28,30,32,34,36,38,40,42,44,46,48,50,52,-1,54,56,-1,58,60,-1,62,64,-1,66,68,70,72,74,76,78,80,82,-1,84,86,88,-1,90,92,-1,94,96,-1,-1,98,100,-1,-1,-1,-1,-1,-1,-1,-1,-1,-1,-1,-1,-1,-1,-1,-1,-1,-1,-1,-1,-1,-1,-1,-1,-1,-1,-1,-1,-1,-1,-1,-1,-1,-1,-1,-1,-1,-1,-1,-1,-1,-1],"split_conditions":[2.072937E3,2.459038E6,1.12854E1,4.07823E0,1.06237E1,1.725E-4,-1.50295E1,1.3828197E0,1.82E-5,1.14611E2,2.761E4,3.823956E1,2.4598695E6,1.8187332E4,8.9E-2,1.88E-5,-6.6425E0,7.438074E-1,8.483869E1,9.88067E-1,1.68452E1,1.7932884E0,9.373083E0,1.559E0,8.2866E0,2.7476E-3,-1.6763807E-9,2.4132E1,1.42745E1,-4.8387095E-2,1.15688E1,3.232955E8,1.7727272E-1,-9.49749E-2,-2.929E0,1.3255814E-1,4.94011E0,2.155E0,9.68E-5,7.19E1,-5.4400654E1,9.5831E0,1.0288886E1,2.7E-2,-3.42391E0,1.3255814E-1,2.149E0,1.59E-5,2.87E0,-3.75E-2,2.8E3,3.0793796E0,6.315789E-2,4.880255E3,6.05E3,1.8749999E-1,6.9767423E-3,3.094481E0,1.52568E1,-4.7727272E-2,1.5789472E-2,2.4489792E-2,-5.420168E-2,-4.1379314E-2,1.02739714E-1,-4.6153847E-2,6.315789E-2,1.173913E-1,-4.1379314E-2,6.315789E-2,-5E-2,8.823527E-3,-5.7225432E-2,7.142857E-2,-3.0379748E-2,-2.9679148E-2,3.7262008E-2,4.2857137E-2,2.181818E-1,6.774193E-2,-2.2641512E-2,-5.7416293E-3,-4.4235576E-2,-2.9381445E-2,2.1126758E-2,-2.727273E-2,7.808219E-2,1.2739725E-1,4.860335E-2,1.9801699E-1,6.992481E-2,6.315789E-2,2.758713E-1,2.1686744E-2,-3.4661356E-2,6.9767423E-3,1.8749999E-1,-3.9622642E-2,4.8837207E-2,1.771331E-1,3.7864074E-2],"split_indices":[31,11,33,27,33,16,39,15,16,31,23,2,11,31,20,16,25,15,15,28,27,15,27,19,33,16,0,27,27,0,33,0,0,51,3,0,28,8,16,42,2,33,15,8,29,0,19,16,19,0,23,27,0,23,41,0,0,2,27,0,0,0,0,0,0,0,0,0,0,0,0,0,0,0,0,0,0,0,0,0,0,0,0,0,0,0,0,0,0,0,0,0,0,0,0,0,0,0,0,0,0],"split_type":[0,0,0,0,0,0,0,0,0,0,0,0,0,0,0,0,0,0,0,0,0,0,0,0,0,0,0,0,0,0,0,0,0,0,0,0,0,0,0,0,0,0,0,0,0,0,0,0,0,0,0,0,0,0,0,0,0,0,0,0,0,0,0,0,0,0,0,0,0,0,0,0,0,0,0,0,0,0,0,0,0,0,0,0,0,0,0,0,0,0,0,0,0,0,0,0,0,0,0,0,0],"sum_hessian":[1.2038889E3,9.972223E2,2.0666667E2,1.9694446E2,8.0027783E2,1.0555556E2,1.01111115E2,9.694445E1,1.0000001E2,1.8472223E2,6.155556E2,8.194445E1,2.3611113E1,7.3611115E1,2.7500002E1,8.888889E0,8.805556E1,2.7500002E1,7.25E1,6.972223E1,1.1500001E2,5.8277783E2,3.277778E1,5.527778E1,2.6666668E1,2.1944445E1,1.6666667E0,7.055556E1,3.0555558E0,4.166667E0,2.3333334E1,5E0,3.888889E0,8.277778E1,5.277778E0,1.388889E0,2.6111113E1,6.638889E1,6.1111116E0,5.9444447E1,1.0277779E1,1.00833336E2,1.4166667E1,5.027778E1,5.325E2,1.388889E0,3.1388891E1,1.3055556E1,4.2222225E1,1.6666667E0,2.5000002E1,2.0833334E1,1.1111112E0,6.75E1,3.0555558E0,1.6666667E0,1.388889E0,3.3333335E0,2E1,3.888889E0,1.1111112E0,4.4444447E0,7.8333336E1,2.2222223E0,3.0555558E0,2.5000002E1,1.1111112E0,6.416667E1,2.2222223E0,1.1111112E0,5E0,2.777778E0,5.6666668E1,2.5E0,7.777778E0,4.0555557E1,6.0277782E1,1.0277779E1,3.888889E0,4.166667E0,4.6111115E1,2.2222223E1,5.102778E2,2.0555557E1,1.0833334E1,1E1,3.0555558E0,2.3333334E1,1.888889E1,1.8611113E1,6.3888893E0,1.1111112E0,1.9722223E1,2.6666668E1,4.0833336E1,1.388889E0,1.6666667E0,1.9444445E0,1.388889E0,1.5277779E1,4.7222223E0],"tree_param":{"num_deleted":"0","num_feature":"53","num_nodes":"101","size_leaf_vector":"1"}},{"base_weights":[-3.310795E-1,5.7838976E-1,-4.1783705E-1,8.9401233E-1,-4.5695364E-1,-4.2534235E-1,1.1632652E0,-3.0150777E-2,1.221808E0,-5.7446808E-2,7.4999996E-2,-4.5067376E-1,-1.4004916E-1,1.6153845E0,-3.1578947E-2,-4.4805196E-1,1.1666666E0,1.6577016E0,-1.6483518E-1,-4.972826E-1,-3.2042474E-1,-4.4200626E-1,5.35714E-2,2.0689654E-1,1.5789472E-2,-5.6043953E-2,2.8301883E-2,-3.75E-2,1.8461537E-1,-4.520548E-2,1.8204454E0,7.142857E-1,-3.9473686E-1,-2.600259E-1,-5.1124626E-1,1.1009171E-1,-4.790777E-1,6.2264144E-2,-5.2238804E-1,2.8021973E-1,-5.033557E-1,2.0014225E-1,-2.3076925E-2,1.3255814E-1,-3.1578947E-2,-5.454546E-2,3.7499998E-2,-5.7142854E-2,3.6319585E-3,-5.572473E-2,-4.5885917E-2,-5.1301118E-2,5.3299487E-2,-4.9384486E-2,1.10526316E-1,-5.8047015E-2,8.823527E-3,1.1144128E-2,1.7671232E-1,-5.611511E-2,1.5789472E-2],"categories":[],"categories_nodes":[],"categories_segments":[],"categories_sizes":[],"default_left":[0,0,0,0,0,0,0,0,0,0,0,0,0,0,0,0,0,0,0,0,0,0,0,0,0,0,0,0,0,0,0,0,0,0,0,0,0,0,0,0,0,0,0,0,0,0,0,0,0,0,0,0,0,0,0,0,0,0,0,0,0],"id":4,"left_children":[1,3,5,7,9,11,13,15,17,-1,-1,19,21,23,-1,25,27,29,31,33,35,37,39,-1,-1,-1,-1,-1,-1,-1,41,43,45,47,49,51,53,-1,55,57,59,-1,-1,-1,-1,-1,-1,-1,-1,-1,-1,-1,-1,-1,-1,-1,-1,-1,-1,-1,-1],"loss_changes":[9.489496E1,3.4683872E1,1.34973755E1,2.4490555E1,4.0003514E0,7.82341E0,4.1508713E0,1.158163E1,3.6303932E1,0E0,0E0,5.9225464E0,5.311523E0,2.538043E0,0E0,1.5645208E0,6.977563E0,1.6426308E1,3.3473105E0,2.3054047E0,1.8278187E1,3.3585362E0,7.2097397E0,0E0,0E0,0E0,0E0,0E0,0E0,0E0,1.6197556E1,2.6224866E0,1.6740434E0,3.983787E0,1.4168701E0,1.9421986E1,5.1119766E0,0E0,1.239337E0,9.952897E0,7.2131014E-1,0E0,0E0,0E0,0E0,0E0,0E0,0E0,0E0,0E0,0E0,0E0,0E0,0E0,0E0,0E0,0E0,0E0,0E0,0E0,0E0],"parents":[2147483647,0,0,1,1,2,2,3,3,4,4,5,5,6,6,7,7,8,8,11,11,12,12,13,13,15,15,16,16,17,17,18,18,19,19,20,20,21,21,22,22,30,30,31,31,32,32,33,33,34,34,35,35,36,36,38,38,39,39,40,40],"right_children":[2,4,6,8,10,12,14,16,18,-1,-1,20,22,24,-1,26,28,30,32,34,36,38,40,-1,-1,-1,-1,-1,-1,-1,42,44,46,48,50,52,54,-1,56,58,60,-1,-1,-1,-1,-1,-1,-1,-1,-1,-1,-1,-1,-1,-1,-1,-1,-1,-1,-1,-1],"split_conditions":[6E-2,1.3228354E0,2.4607752E6,-4.3452797E1,2.460197E6,-9.9E-2,3.012895E8,1.98E2,5.222784E1,-5.7446808E-2,7.4999996E-2,2.8030838E2,-3.009545E1,1.4294E1,-3.1578947E-2,2.711425E2,4.98445E-1,5.939835E2,1.4812914E8,7.21E-4,2.9755206E2,2.06315E-1,5.0241486E1,2.0689654E-1,1.5789472E-2,-5.6043953E-2,2.8301883E-2,-3.75E-2,1.8461537E-1,-4.520548E-2,9E-3,5.7E-2,8.48755E-1,1.06956E1,5.4E-2,3.5408115E1,-3E-7,6.2264144E-2,1.93E0,1.58E-3,8.308784E1,2.0014225E-1,-2.3076925E-2,1.3255814E-1,-3.1578947E-2,-5.454546E-2,3.7499998E-2,-5.7142854E-2,3.6319585E-3,-5.572473E-2,-4.5885917E-2,-5.1301118E-2,5.3299487E-2,-4.9384486E-2,1.10526316E-1,-5.8047015E-2,8.823527E-3,1.1144128E-2,1.7671232E-1,-5.611511E-2,1.5789472E-2],"split_indices":[20,28,11,2,11,21,0,42,2,0,0,1,2,3,0,1,28,32,0,12,1,28,2,0,0,0,0,0,0,0,34,4,28,27,4,2,17,0,49,12,2,0,0,0,0,0,0,0,0,0,0,0,0,0,0,0,0,0,0,0,0],"split_type":[0,0,0,0,0,0,0,0,0,0,0,0,0,0,0,0,0,0,0,0,0,0,0,0,0,0,0,0,0,0,0,0,0,0,0,0,0,0,0,0,0,0,0,0,0,0,0,0,0,0,0,0,0,0,0,0,0,0,0,0,0],"sum_hessian":[1.1986112E3,1.0388889E2,1.0947223E3,7.972223E1,2.4166668E1,1.0902778E3,4.4444447E0,2.1111113E1,5.8611115E1,2.2500002E1,1.6666667E0,1.0008334E3,8.944445E1,3.3333335E0,1.1111112E0,1.6111113E1,5E0,4.4444447E1,1.4166667E1,7.3500006E2,2.6583334E2,3.4444447E1,5.5000004E1,2.2222223E0,1.1111112E0,1.4166667E1,1.9444445E0,1.6666667E0,3.3333335E0,3.0555558E0,4.138889E1,2.5E0,1.1666667E1,4.1944447E1,6.930556E2,7.166667E1,1.9416667E2,1.9444445E0,3.25E1,3.9444447E1,1.5555556E1,3.8055557E1,3.3333335E0,1.388889E0,1.1111112E0,1E1,1.6666667E0,2E1,2.1944445E1,3.6388892E2,3.291667E2,2.888889E1,4.277778E1,1.9305556E2,1.1111112E0,2.9722223E1,2.777778E0,3.638889E1,3.0555558E0,1.4444445E1,1.1111112E0],"tree_param":{"num_deleted":"0","num_feature":"53","num_nodes":"61","size_leaf_vector":"1"}},{"base_weights":[1.5961118E0,9.837921E-1,2.032874E0,2.0843668E-1,1.2648304E0,9.661016E-1,2.1842008E0,4.1242933E-1,-1.8149468E-1,1.4264599E0,4.118738E-1,2.2105262E0,7.4837303E-1,2.261096E0,1.6321021E0,5.602409E-1,-3.074205E-1,4.426229E-1,-3.4513274E-1,1.4809984E0,-1.818182E-1,-3.962264E-1,7.326477E-1,2.6170212E-1,2.0689653E-1,1.2776735E0,4.0783405E-1,2.3304112E0,1.3454038E0,1.8524588E0,8.04878E-1,-4.761907E-2,7.8719E-1,6.2264144E-2,-4.8387095E-1,9.5121944E-1,-4.6153847E-2,7.317071E-2,-4.2408377E-1,1.5294002E0,2.961373E-1,7.4999996E-2,-4.2857143E-1,-5.017065E-1,4.8837207E-2,1.0568181E0,4.4776093E-2,6.315789E-2,-3.1578947E-2,1.6323528E0,1.0489508E-1,6.955017E-1,-1.5584417E-1,2.0621328E0,2.5488813E0,5.0913835E-1,2.184136E0,9.8936164E-1,1.9913791E0,-4.2857144E-2,1.0282685E0,-4.0336136E-2,4.936708E-2,1.1104971E-1,3.5891645E-2,-5.5263158E-2,1.5789472E-2,-3.75E-2,1.4516129E-1,-4.7727272E-2,9.622641E-2,-5.6804735E-2,-2.0158105E-2,1.0789473E-1,1.6841966E-1,1.3255814E-1,5.769228E-3,1.5789472E-2,-5.2702703E-2,-5.6043953E-2,1.5789472E-2,1.21166304E-1,-3.6144597E-3,5.639097E-2,-4.117647E-2,1.8781869E-1,4.109587E-3,1.10526316E-1,-2.195122E-2,9.069767E-2,-2.195122E-2,3.4090906E-2,-3.277311E-2,2.2243856E-1,1.5015416E-1,4.067796E-2,2.5926396E-1,9.579831E-2,-2.0245401E-2,3.529411E-2,2.4653463E-1,-3.9622642E-2,1.3529411E-1,1.3421051E-1,2.1476321E-1,1.3049327E-1,-2.0632376E-9],"categories":[],"categories_nodes":[],"categories_segments":[],"categories_sizes":[],"default_left":[0,0,0,0,0,0,0,0,0,0,0,0,0,0,0,0,0,0,0,0,0,0,0,0,0,0,0,0,0,0,0,0,0,0,0,0,0,0,0,0,0,0,0,0,0,0,0,0,0,0,0,0,0,0,0,0,0,0,0,0,0,0,0,0,0,0,0,0,0,0,0,0,0,0,0,0,0,0,0,0,0,0,0,0,0,0,0,0,0,0,0,0,0,0,0,0,0,0,0,0,0,0,0,0,0,0,0],"id":5,"left_children":[1,3,5,7,9,11,13,15,17,19,21,23,25,27,29,31,33,35,37,39,41,43,45,-1,47,49,51,53,55,57,59,61,63,-1,65,67,-1,69,71,73,75,-1,77,79,-1,81,83,-1,-1,85,87,89,91,93,95,97,99,101,103,-1,105,-1,-1,-1,-1,-1,-1,-1,-1,-1,-1,-1,-1,-1,-1,-1,-1,-1,-1,-1,-1,-1,-1,-1,-1,-1,-1,-1,-1,-1,-1,-1,-1,-1,-1,-1,-1,-1,-1,-1,-1,-1,-1,-1,-1,-1,-1],"loss_changes":[3.1822754E2,1.0878552E2,1.1055957E2,1.0760147E1,5.00235E1,2.2324493E1,2.2225342E1,9.588822E0,4.9358244E0,2.7304443E1,1.5814542E1,9.775116E0,1.332793E1,3.0708984E1,1.2767685E1,1.021537E1,2.88145E0,5.1142E0,1.2749906E0,1.6649902E1,2.8506494E0,1.8934526E0,9.5907E0,0E0,9.147005E-1,1.2145821E1,7.927718E0,2.3717285E1,2.6866135E1,5.3438416E0,5.4616528E0,4.242882E0,7.0477066E0,0E0,6.9524646E-1,5.0791693E0,0E0,3.8034658E0,9.0518713E-1,1.8144592E1,3.100943E0,0E0,6.221297E-1,7.190981E-1,0E0,5.008156E0,3.7609494E0,0E0,0E0,8.7896805E0,2.820803E0,6.412674E0,1.5727654E0,1.7317444E1,2.4086792E1,6.989952E0,9.228645E0,5.797683E0,2.347992E0,0E0,4.4727364E0,0E0,0E0,0E0,0E0,0E0,0E0,0E0,0E0,0E0,0E0,0E0,0E0,0E0,0E0,0E0,0E0,0E0,0E0,0E0,0E0,0E0,0E0,0E0,0E0,0E0,0E0,0E0,0E0,0E0,0E0,0E0,0E0,0E0,0E0,0E0,0E0,0E0,0E0,0E0,0E0,0E0,0E0,0E0,0E0,0E0,0E0],"parents":[2147483647,0,0,1,1,2,2,3,3,4,4,5,5,6,6,7,7,8,8,9,9,10,10,11,11,12,12,13,13,14,14,15,15,16,16,17,17,18,18,19,19,20,20,21,21,22,22,24,24,25,25,26,26,27,27,28,28,29,29,30,30,31,31,32,32,34,34,35,35,37,37,38,38,39,39,40,40,42,42,43,43,45,45,46,46,49,49,50,50,51,51,52,52,53,53,54,54,55,55,56,56,57,57,58,58,60,60],"right_children":[2,4,6,8,10,12,14,16,18,20,22,24,26,28,30,32,34,36,38,40,42,44,46,-1,48,50,52,54,56,58,60,62,64,-1,66,68,-1,70,72,74,76,-1,78,80,-1,82,84,-1,-1,86,88,90,92,94,96,98,100,102,104,-1,106,-1,-1,-1,-1,-1,-1,-1,-1,-1,-1,-1,-1,-1,-1,-1,-1,-1,-1,-1,-1,-1,-1,-1,-1,-1,-1,-1,-1,-1,-1,-1,-1,-1,-1,-1,-1,-1,-1,-1,-1,-1,-1,-1,-1,-1,-1],"split_conditions":[1.14031E1,1.036E-3,2.4590365E6,9.209E3,1.85E3,1.362E3,-3.6E-6,1.73698E1,4.4E-2,8.06E3,2.4588375E6,2.8030838E2,2.56192E1,1.36224E1,1.437E-3,4.85E-1,-1.3E-1,-1.2E-6,-4.0579E1,-1.12E-1,1.08605E1,7.481E-3,2.8899286E2,2.6170212E-1,2.866384E2,4.668104E1,1.501798E4,1.25787E1,2.4598508E6,1.22E2,5.65744E0,1.844891E-1,1.6941438E2,6.2264144E-2,1.08179E1,1.02173E1,-4.6153847E-2,6.0569E3,3.0704247E1,-1.7E-1,-6.0272636E1,7.4999996E-2,-2.0712E1,8.21E-1,4.8837207E-2,3.42391E0,4.9E-2,6.315789E-2,-3.1578947E-2,1.98E3,3.60674E2,2.8414343E2,2E-2,-1.41E-1,3.725E3,-5E-5,1.4073502E4,2.459272E6,4.68507E-2,-4.2857144E-2,3.024086E2,-4.0336136E-2,4.936708E-2,1.1104971E-1,3.5891645E-2,-5.5263158E-2,1.5789472E-2,-3.75E-2,1.4516129E-1,-4.7727272E-2,9.622641E-2,-5.6804735E-2,-2.0158105E-2,1.0789473E-1,1.6841966E-1,1.3255814E-1,5.769228E-3,1.5789472E-2,-5.2702703E-2,-5.6043953E-2,1.5789472E-2,1.21166304E-1,-3.6144597E-3,5.639097E-2,-4.117647E-2,1.8781869E-1,4.109587E-3,1.10526316E-1,-2.195122E-2,9.069767E-2,-2.195122E-2,3.4090906E-2,-3.277311E-2,2.2243856E-1,1.5015416E-1,4.067796E-2,2.5926396E-1,9.579831E-2,-2.0245401E-2,3.529411E-2,2.4653463E-1,-3.9622642E-2,1.3529411E-1,1.3421051E-1,2.1476321E-1,1.3049327E-1,-2.0632376E-9],"split_indices":[33,12,11,23,32,23,17,27,8,23,11,1,24,33,12,38,51,17,2,21,27,12,1,0,1,2,23,33,11,42,24,20,1,0,33,33,0,41,2,47,2,0,3,20,0,28,4,0,0,32,37,1,50,21,41,17,23,11,20,0,1,0,0,0,0,0,0,0,0,0,0,0,0,0,0,0,0,0,0,0,0,0,0,0,0,0,0,0,0,0,0,0,0,0,0,0,0,0,0,0,0,0,0,0,0,0,0],"split_type":[0,0,0,0,0,0,0,0,0,0,0,0,0,0,0,0,0,0,0,0,0,0,0,0,0,0,0,0,0,0,0,0,0,0,0,0,0,0,0,0,0,0,0,0,0,0,0,0,0,0,0,0,0,0,0,0,0,0,0,0,0,0,0,0,0,0,0,0,0,0,0,0,0,0,0,0,0,0,0,0,0,0,0,0,0,0,0,0,0,0,0,0,0,0,0,0,0,0,0,0,0,0,0,0,0,0,0],"sum_hessian":[1.1963889E3,4.9944446E2,6.9694446E2,1.3333334E2,3.661111E2,8.750001E1,6.0944446E2,8.750001E1,4.5833336E1,3.0722223E2,5.8888893E1,1.1666667E1,7.5833336E1,5.322222E2,7.722223E1,7.277778E1,1.4722223E1,9.166667E0,3.6666668E1,2.9722223E2,1E1,1.6666668E1,4.2222225E1,9.444445E0,2.2222223E0,2.8611113E1,4.7222225E1,4.9333334E2,3.888889E1,6.0000004E1,1.7222223E1,2E1,5.277778E1,1.9444445E0,1.2777779E1,5.8333335E0,3.3333335E0,5.8333335E0,3.0833334E1,2.852778E2,1.1944445E1,1.6666667E0,8.333334E0,1.5277779E1,1.388889E0,2.8333334E1,1.3888889E1,1.1111112E0,1.1111112E0,2.1666668E1,6.9444447E0,3.1111113E1,1.6111113E1,2.2611111E2,2.6722223E2,2.0277779E1,1.8611113E1,9.444445E0,5.0555557E1,2.5E0,1.4722223E1,1.2222223E1,7.777778E0,2.9166668E1,2.3611113E1,1.1666667E1,1.1111112E0,1.6666667E0,4.166667E0,3.888889E0,1.9444445E0,1.7777779E1,1.3055556E1,7.5E1,2.1027779E2,1.388889E0,1.0555556E1,1.1111112E0,7.2222223E0,1.4166667E1,1.1111112E0,2.4722223E1,3.6111112E0,6.3888893E0,7.5000005E0,1.8611113E1,3.0555558E0,1.1111112E0,5.8333335E0,2.5277779E1,5.8333335E0,3.888889E0,1.2222223E1,1.7305556E2,5.3055557E1,5.555556E0,2.616667E2,1.2222223E1,8.055556E0,2.777778E0,1.5833334E1,1.9444445E0,7.5000005E0,1.1666667E1,3.888889E1,1.1388889E1,3.3333335E0],"tree_param":{"num_deleted":"0","num_feature":"53","num_nodes":"107","size_leaf_vector":"1"}},{"base_weights":[-3.602764E-1,4.9047556E-2,-4.1709054E-1,-5.369541E-1,1.940762E-1,-4.617824E-1,6.442469E-2,1.6691186E-2,-5.7130694E-2,5.985125E-1,-1.3687984E-2,-1.5752222E-1,-4.9123293E-1,8.375698E-1,-6.974634E-2,1.2643093E0,4.3112332E-1,1.6319124E-1,-2.172244E-1,9.2339385E-1,-2.7226627E-1,-3.4764987E-1,-5.180775E-1,-4.1410845E-2,1.1368974E0,-1.7154165E-1,5.273032E-1,1.67202E0,-1.97876E-3,6.798954E-1,-1.0027287E-1,3.6502624E-1,-2.651317E-1,-3.063826E-1,6.298218E-1,1.9603116E-2,1.4864932E0,-3.4343186E-1,4.4571713E-1,-3.9483824E-1,3.7236053E-1,-4.7792187E-1,-5.71402E-1,-5.9060436E-3,1.4110376E0,1.244979E-1,-3.7425202E-1,-6.1596774E-2,1.1584979E0,1.9686526E-1,6.79282E-2,9.39809E-2,-1.7127564E-2,9.245663E-2,-4.24445E-2,2.0149117E-2,1.3503042E-1,-5.2215394E-2,9.446065E-3,2.4506873E-2,-3.7497677E-2,-3.7174635E-2,1.5902053E-1,5.941538E-2,-4.0281218E-2,1.777535E-1,6.443943E-2,1.4333665E-2,-4.0808614E-2,-2.6539806E-2,1.3040419E-1,-5.2141096E-2,-2.0327847E-2,-4.3260653E-2,7.892558E-2,-5.040111E-2,-2.7237928E-2,-5.778991E-2,9.654312E-3,1.836634E-1,5.0148606E-2,-2.8467882E-2,5.6432225E-2,-4.417067E-2,4.3296E-2,7.5857334E-2,-4.7872655E-2,1.5340742E-1,5.8439053E-3],"categories":[],"categories_nodes":[],"categories_segments":[],"categories_sizes":[],"default_left":[0,0,0,0,0,0,0,0,0,0,0,0,0,0,0,0,0,0,0,0,0,0,0,0,0,0,0,0,0,0,0,0,0,0,0,0,0,0,0,0,0,0,0,0,0,0,0,0,0,0,0,0,0,0,0,0,0,0,0,0,0,0,0,0,0,0,0,0,0,0,0,0,0,0,0,0,0,0,0,0,0,0,0,0,0,0,0,0,0],"id":6,"left_children":[1,3,5,7,9,11,13,-1,-1,15,17,19,21,23,25,27,29,31,33,35,37,39,41,-1,43,45,47,49,-1,51,53,55,57,59,61,63,65,67,69,71,73,75,77,-1,79,81,83,85,87,-1,-1,-1,-1,-1,-1,-1,-1,-1,-1,-1,-1,-1,-1,-1,-1,-1,-1,-1,-1,-1,-1,-1,-1,-1,-1,-1,-1,-1,-1,-1,-1,-1,-1,-1,-1,-1,-1,-1,-1],"loss_changes":[2.6792892E1,1.2105267E1,2.1786835E1,7.7916527E-1,9.581457E0,8.213699E0,9.056903E0,0E0,0E0,3.7665052E0,2.780305E0,1.0561855E1,3.069748E0,5.305662E0,4.639081E0,3.8313255E0,4.3556128E0,3.6727118E0,2.902604E0,4.146792E0,4.0324697E0,4.7625732E0,1.2435913E0,0E0,3.5852566E0,3.928924E0,4.2148314E0,2.87735E-1,0E0,5.0765276E0,4.117708E0,4.3258724E0,1.327334E0,1.3452721E0,4.1926303E0,1.2497368E0,9.034252E-2,2.250245E0,4.7908134E0,2.9969616E0,3.3181727E0,2.062149E0,1.3539963E0,0E0,2.45817E0,5.027751E0,2.2957335E0,2.6608918E0,2.1541176E0,0E0,0E0,0E0,0E0,0E0,0E0,0E0,0E0,0E0,0E0,0E0,0E0,0E0,0E0,0E0,0E0,0E0,0E0,0E0,0E0,0E0,0E0,0E0,0E0,0E0,0E0,0E0,0E0,0E0,0E0,0E0,0E0,0E0,0E0,0E0,0E0,0E0,0E0,0E0,0E0],"parents":[2147483647,0,0,1,1,2,2,3,3,4,4,5,5,6,6,9,9,10,10,11,11,12,12,13,13,14,14,15,15,16,16,17,17,18,18,19,19,20,20,21,21,22,22,24,24,25,25,26,26,27,27,29,29,30,30,31,31,32,32,33,33,34,34,35,35,36,36,37,37,38,38,39,39,40,40,41,41,42,42,44,44,45,45,46,46,47,47,48,48],"right_children":[2,4,6,8,10,12,14,-1,-1,16,18,20,22,24,26,28,30,32,34,36,38,40,42,-1,44,46,48,50,-1,52,54,56,58,60,62,64,66,68,70,72,74,76,78,-1,80,82,84,86,88,-1,-1,-1,-1,-1,-1,-1,-1,-1,-1,-1,-1,-1,-1,-1,-1,-1,-1,-1,-1,-1,-1,-1,-1,-1,-1,-1,-1,-1,-1,-1,-1,-1,-1,-1,-1,-1,-1,-1,-1],"split_conditions":[1.348E0,3.0793796E0,1.824524E1,8.5325E0,8.818115E-1,-2.2882524E-1,-1.34E-1,1.6691186E-2,-5.7130694E-2,1.21543E2,4.33357E0,4.84E-4,1.902E0,-7E-3,9.781563E0,2.459743E6,1.43536E0,1.837E-3,1.55E-1,1.8311873E2,2E-1,3.55654E-1,1.21314E1,-4.1410845E-2,-2.5E0,2.582E0,2.1955555E1,4.976E0,-1.97876E-3,1.34986E1,4.73E-4,4.045185E8,1.3262E1,5.1440655E1,1.14E-3,1.09E0,1.5E0,-7.56324E2,1.924E2,1.19E0,8.05202E-1,1.4589088E1,4.6257E4,-5.9060436E-3,1.9003656E2,1.305E2,3.2089517E2,-1.3871E1,2.968137E2,1.9686526E-1,6.79282E-2,9.39809E-2,-1.7127564E-2,9.245663E-2,-4.24445E-2,2.0149117E-2,1.3503042E-1,-5.2215394E-2,9.446065E-3,2.4506873E-2,-3.7497677E-2,-3.7174635E-2,1.5902053E-1,5.941538E-2,-4.0281218E-2,1.777535E-1,6.443943E-2,1.4333665E-2,-4.0808614E-2,-2.6539806E-2,1.3040419E-1,-5.2141096E-2,-2.0327847E-2,-4.3260653E-2,7.892558E-2,-5.040111E-2,-2.7237928E-2,-5.778991E-2,9.654312E-3,1.836634E-1,5.0148606E-2,-2.8467882E-2,5.6432225E-2,-4.417067E-2,4.3296E-2,7.5857334E-2,-4.7872655E-2,1.5340742E-1,5.8439053E-3],"split_indices":[19,27,27,33,15,5,5,0,0,42,45,12,19,35,15,11,49,12,8,1,46,46,33,0,5,19,27,7,0,33,12,0,38,1,12,49,8,25,42,49,28,27,23,0,1,42,1,7,1,0,0,0,0,0,0,0,0,0,0,0,0,0,0,0,0,0,0,0,0,0,0,0,0,0,0,0,0,0,0,0,0,0,0,0,0,0,0,0,0],"split_type":[0,0,0,0,0,0,0,0,0,0,0,0,0,0,0,0,0,0,0,0,0,0,0,0,0,0,0,0,0,0,0,0,0,0,0,0,0,0,0,0,0,0,0,0,0,0,0,0,0,0,0,0,0,0,0,0,0,0,0,0,0,0,0,0,0,0,0,0,0,0,0,0,0,0,0,0,0,0,0,0,0,0,0,0,0,0,0,0,0],"sum_hessian":[1.150236E3,1.4021045E2,1.0100255E3,2.7280136E1,1.1293031E2,9.242795E2,8.574605E1,1.0899092E0,2.6190228E1,3.768721E1,7.52431E1,8.212952E1,8.4214996E2,1.1904603E1,7.3841446E1,6.2549176E0,3.1432293E1,4.0363895E1,3.487921E1,7.2054133E0,7.49241E1,1.3484695E2,7.07303E2,2.2234578E0,9.681145E0,6.3694412E1,1.01470375E1,4.518243E0,1.7366748E0,2.1219141E1,1.0213151E1,2.753608E1,1.2827815E1,3.213504E1,2.74417E0,3.1631997E0,4.0422134E0,6.864207E1,6.282041E0,1.2697672E2,7.8702364E0,4.0915445E2,2.9814853E2,1.9516182E0,7.7295265E0,2.6044577E1,3.7649834E1,5.7162404E0,4.430797E0,2.721883E0,1.7963595E0,1.617562E1,5.043523E0,2.0091934E0,8.203958E0,2.464932E1,2.8867583E0,7.2171874E0,5.610628E0,3.2704077E0,2.8864634E1,1.643309E0,1.1008611E0,1.1679891E0,1.9952106E0,2.1784654E0,1.8637481E0,7.9055834E0,6.073648E1,3.8134356E0,2.4686055E0,7.542073E1,5.1555996E1,2.6724396E0,5.197797E0,3.6178192E2,4.7372517E1,2.954099E2,2.7386332E0,4.571269E0,3.1582575E0,1.3675111E1,1.2369465E1,3.5164143E1,2.4856923E0,1.6511524E0,4.065088E0,3.008957E0,1.4218401E0],"tree_param":{"num_deleted":"0","num_feature":"53","num_nodes":"89","size_leaf_vector":"1"}},{"base_weights":[-2.650804E-1,-4.3821985E-1,4.2346787E-1,-2.7255476E-1,-5.392383E-1,7.641463E-1,5.0335616E-2,3.8797002E-2,-4.0060687E-1,5.5361822E-2,-5.4552853E-1,9.192193E-1,-1.1059214E-1,-2.4048054E-1,3.6442345E-1,2.616989E-1,-2.2057448E-1,-4.3190587E-1,1.4554319E-3,1.10380284E-1,-3.280688E-1,-4.6518612E-1,-5.790013E-1,1.1464801E0,3.272812E-1,8.9650977E-1,-4.313699E-1,-3.2356706E-1,8.2221484E-1,1.0546107E-1,1.1910381E0,-2.0135914E-1,5.246227E-1,5.988789E-1,-3.6998355E-1,-4.9459025E-1,-2.7874672E-1,1.4583938E-1,-2.704325E-1,1.6694987E-2,-4.742561E-2,2.3925692E-1,-4.7516632E-1,-2.3478734E-1,-5.8137085E-2,1.2693375E0,1.1570572E-1,2.0316165E-2,8.3933866E-1,-3.222162E-2,1.3324963E0,2.0654504E-1,-5.5332787E-2,8.215895E-3,-4.791677E-1,-3.1215936E-2,1.2603076E0,-1.5850206E-1,1.1318638E0,1.7560513E0,1.8425123E-1,-4.3703794E-2,4.064274E-2,6.900389E-2,-3.5779662E-2,1.3056867E-1,-4.459941E-2,3.9669555E-2,-4.5164756E-2,-8.024192E-3,-5.202272E-2,-7.3895796E-4,-5.0337207E-2,2.7699891E-2,-5.451882E-2,-3.0694792E-2,6.741045E-2,-4.9611878E-2,-2.1926131E-2,-4.1867778E-2,1.8355483E-2,5.0741076E-2,1.4104323E-1,1.108707E-1,-2.5605617E-2,-5.312849E-2,3.7758946E-2,1.3556342E-1,-8.920496E-3,1.7645529E-1,1.4631219E-2,-3.1764857E-2,6.360283E-2,-3.1359125E-2,5.4234184E-2,2.328036E-2,-5.5320274E-2,1.5551309E-2,1.7044838E-1,2.2431118E-2,-3.9183214E-2,1.792657E-1,2.4442386E-4,5.540449E-3,2.10235E-1,8.830376E-2,-4.3931536E-2],"categories":[],"categories_nodes":[],"categories_segments":[],"categories_sizes":[],"default_left":[0,0,0,0,0,0,0,0,0,0,0,0,0,0,0,0,0,0,0,0,0,0,0,0,0,0,0,0,0,0,0,0,0,0,0,0,0,0,0,0,0,0,0,0,0,0,0,0,0,0,0,0,0,0,0,0,0,0,0,0,0,0,0,0,0,0,0,0,0,0,0,0,0,0,0,0,0,0,0,0,0,0,0,0,0,0,0,0,0,0,0,0,0,0,0,0,0,0,0,0,0,0,0,0,0,0,0],"id":7,"left_children":[1,3,5,7,9,11,13,15,17,19,21,23,25,27,29,31,33,35,37,-1,39,41,43,45,47,49,51,53,55,57,59,61,63,65,67,69,71,-1,73,-1,-1,75,77,79,-1,81,83,85,87,-1,89,91,-1,93,95,-1,97,99,101,103,105,-1,-1,-1,-1,-1,-1,-1,-1,-1,-1,-1,-1,-1,-1,-1,-1,-1,-1,-1,-1,-1,-1,-1,-1,-1,-1,-1,-1,-1,-1,-1,-1,-1,-1,-1,-1,-1,-1,-1,-1,-1,-1,-1,-1,-1,-1],"loss_changes":[1.4089438E2,1.5644913E1,3.017321E1,1.434712E1,2.2188263E0,1.6944473E1,1.0546346E1,6.1668386E0,3.2070312E0,3.1896262E0,1.2881012E0,1.3827255E1,6.715364E0,5.5686684E0,1.17431555E1,7.0802116E0,6.2675E0,2.1317177E0,8.078823E0,0E0,5.076485E-1,1.3468895E0,1.9360352E-1,9.463371E0,4.806614E0,3.116496E0,1.3227117E0,2.916554E0,2.697985E0,1.1915161E1,7.1449966E0,3.2529948E0,5.6209145E0,6.4882984E0,2.8328443E0,1.7264214E0,4.320645E0,0E0,2.7368302E0,0E0,0E0,9.4689184E-1,8.203926E-1,4.1876018E-1,0E0,6.5629272E0,3.6735244E0,4.1836686E0,5.6229973E0,0E0,1.7505422E0,9.272181E-1,0E0,3.4350388E0,2.1540966E0,0E0,1.473989E0,3.243846E0,6.7003336E0,4.7672195E0,2.9312499E0,0E0,0E0,0E0,0E0,0E0,0E0,0E0,0E0,0E0,0E0,0E0,0E0,0E0,0E0,0E0,0E0,0E0,0E0,0E0,0E0,0E0,0E0,0E0,0E0,0E0,0E0,0E0,0E0,0E0,0E0,0E0,0E0,0E0,0E0,0E0,0E0,0E0,0E0,0E0,0E0,0E0,0E0,0E0,0E0,0E0,0E0],"parents":[2147483647,0,0,1,1,2,2,3,3,4,4,5,5,6,6,7,7,8,8,9,9,10,10,11,11,12,12,13,13,14,14,15,15,16,16,17,17,18,18,20,20,21,21,22,22,23,23,24,24,25,25,26,26,27,27,28,28,29,29,30,30,31,31,32,32,33,33,34,34,35,35,36,36,38,38,41,41,42,42,43,43,45,45,46,46,47,47,48,48,50,50,51,51,53,53,54,54,56,56,57,57,58,58,59,59,60,60],"right_children":[2,4,6,8,10,12,14,16,18,20,22,24,26,28,30,32,34,36,38,-1,40,42,44,46,48,50,52,54,56,58,60,62,64,66,68,70,72,-1,74,-1,-1,76,78,80,-1,82,84,86,88,-1,90,92,-1,94,96,-1,98,100,102,104,106,-1,-1,-1,-1,-1,-1,-1,-1,-1,-1,-1,-1,-1,-1,-1,-1,-1,-1,-1,-1,-1,-1,-1,-1,-1,-1,-1,-1,-1,-1,-1,-1,-1,-1,-1,-1,-1,-1,-1,-1,-1,-1,-1,-1,-1,-1],"split_conditions":[-6.87E-1,7.62034E-1,2.183E-3,1.068E-3,-5.8419E1,9.517082E0,2.4596E6,1.15688E1,6.2024226E0,8.48755E-1,6.3825E0,1.11315E1,5.49472E-1,1.49953E2,1.57E2,3.1653383E0,2.4589818E6,-2.13E-1,5.2765E3,1.10380284E-1,1.282E0,-6.227E0,4.80494E-1,1.5786946E3,4.73E3,3.5928E-1,-2.66979E-1,9.6504E0,-3.4738846E1,-7.9684E-2,3.075001E-1,6.829047E-1,2.4601848E6,1.73E2,1.1885E0,-9.06E-1,1.21023E1,1.4583938E-1,3.211596E1,1.6694987E-2,-4.742561E-2,4.2E-2,6.68503E1,4.445E0,-5.8137085E-2,4.4845166E2,1.6833E-1,4.9E-2,1.72756E-2,-3.222162E-2,1.19133E1,2.4586318E6,-5.5332787E-2,7.28E-4,6.345E-2,-3.1215936E-2,3.421E3,4.185825E-1,9.2789E0,1.4777755E0,-3.5371E1,-4.3703794E-2,4.064274E-2,6.900389E-2,-3.5779662E-2,1.3056867E-1,-4.459941E-2,3.9669555E-2,-4.5164756E-2,-8.024192E-3,-5.202272E-2,-7.3895796E-4,-5.0337207E-2,2.7699891E-2,-5.451882E-2,-3.0694792E-2,6.741045E-2,-4.9611878E-2,-2.1926131E-2,-4.1867778E-2,1.8355483E-2,5.0741076E-2,1.4104323E-1,1.108707E-1,-2.5605617E-2,-5.312849E-2,3.7758946E-2,1.3556342E-1,-8.920496E-3,1.7645529E-1,1.4631219E-2,-3.1764857E-2,6.360283E-2,-3.1359125E-2,5.4234184E-2,2.328036E-2,-5.5320274E-2,1.5551309E-2,1.7044838E-1,2.2431118E-2,-3.9183214E-2,1.792657E-1,2.4442386E-4,5.540449E-3,2.10235E-1,8.830376E-2,-4.3931536E-2],"split_indices":[39,28,12,12,3,27,11,33,19,28,38,33,28,3,42,15,11,21,41,0,19,39,24,32,23,28,47,33,2,47,28,28,11,42,38,21,33,0,24,0,0,4,2,19,0,23,28,8,50,0,27,11,0,16,38,0,41,20,33,27,3,0,0,0,0,0,0,0,0,0,0,0,0,0,0,0,0,0,0,0,0,0,0,0,0,0,0,0,0,0,0,0,0,0,0,0,0,0,0,0,0,0,0,0,0,0,0],"split_type":[0,0,0,0,0,0,0,0,0,0,0,0,0,0,0,0,0,0,0,0,0,0,0,0,0,0,0,0,0,0,0,0,0,0,0,0,0,0,0,0,0,0,0,0,0,0,0,0,0,0,0,0,0,0,0,0,0,0,0,0,0,0,0,0,0,0,0,0,0,0,0,0,0,0,0,0,0,0,0,0,0,0,0,0,0,0,0,0,0,0,0,0,0,0,0,0,0,0,0,0,0,0,0,0,0,0,0],"sum_hessian":[1.179296E3,9.426299E2,2.3666615E2,3.5846454E2,5.8416534E2,1.2316538E2,1.1350078E2,1.046677E2,2.5379683E2,6.0335135E0,5.7813184E2,1.0457547E2,1.8589912E1,5.905536E1,5.4445423E1,5.628652E1,4.8381184E1,2.3539778E2,1.8399046E1,1.112573E0,4.9209404E0,1.7440837E2,4.0372348E2,7.488738E1,2.9688082E1,4.057219E0,1.4532693E1,5.5418037E1,3.63732E0,4.231617E1,1.2129254E1,2.0469696E1,3.5816822E1,6.9969864E0,4.1384197E1,1.6545271E2,6.994507E1,2.2072618E0,1.6191784E1,1.0895354E0,3.8314054E0,2.1154845E0,1.722929E2,3.4444783E0,4.00279E2,6.670537E1,8.182017E0,1.9211166E1,1.0476916E1,1.1377585E0,2.9194603E0,2.2211478E0,1.2311545E1,1.7994997E1,3.742304E1,1.0934519E0,2.543868E0,3.4332382E1,7.9837875E0,7.2924733E0,4.8367815E0,1.4952547E1,5.51715E0,3.0346209E1,5.470613E0,4.024791E0,2.9721959E0,3.6124144E0,3.7771782E1,9.881205E0,1.555715E2,3.214519E1,3.779988E1,5.4081864E0,1.0783597E1,1.0680499E0,1.0474346E0,1.5838618E2,1.3906702E1,2.3921568E0,1.0523214E0,1.1140696E1,5.556467E1,1.6888038E0,6.4932137E0,7.3603406E0,1.1850825E1,6.437521E0,4.0393953E0,1.7825834E0,1.136877E0,1.117549E0,1.103599E0,1.1487031E1,6.507967E0,3.3229342E0,3.4100105E1,1.1166222E0,1.427246E0,1.3016121E1,2.131626E1,4.6663785E0,3.3174093E0,1.4299731E0,5.8625E0,2.0846055E0,2.7521758E0],"tree_param":{"num_deleted":"0","num_feature":"53","num_nodes":"107","size_leaf_vector":"1"}},{"base_weights":[-5.4466116E-1,-2.0948863E-1,-5.605029E-1,1.4597164E-1,-4.504977E-1,-4.64108E-1,-5.820445E-1,-1.7897776E-1,8.183516E-1,-5.0944954E-1,5.0935954E-2,-4.9827954E-1,1.8308467E-1,1.630835E-2,-5.8315194E-1,2.0106952E-1,-5.262318E-2,1.6250248E-1,1.1019865E-1,-5.3898114E-1,7.85278E-4,-2.710523E-1,-5.262962E-1,-2.467089E-1,8.494902E-1,-1.3269056E-1,-5.8424544E-1,5.86033E-1,-4.34581E-2,8.471118E-2,-4.3449994E-2,6.9005776E-4,-5.7204496E-2,-1.906734E-2,-5.424583E-2,-5.573219E-1,-2.3120588E-1,4.0426668E-2,-4.937722E-2,9.464598E-4,1.3202195E-1,-3.4520723E-2,1.7373664E-2,-5.853441E-2,-1.3366015E-1,-3.6702063E-2,1.06459856E-1,-1.9654995E-2,7.5893246E-2,1.865812E-2,-5.6359332E-2,-3.7353724E-2,6.364813E-2,1.6970308E-2,-3.4456536E-2],"categories":[],"categories_nodes":[],"categories_segments":[],"categories_sizes":[],"default_left":[0,0,0,0,0,0,0,0,0,0,0,0,0,0,0,0,0,0,0,0,0,0,0,0,0,0,0,0,0,0,0,0,0,0,0,0,0,0,0,0,0,0,0,0,0,0,0,0,0,0,0,0,0,0,0],"id":8,"left_children":[1,3,5,7,9,11,13,15,17,19,-1,21,23,-1,25,27,-1,-1,29,31,-1,33,35,37,39,41,43,45,-1,-1,-1,-1,-1,47,-1,49,51,-1,-1,-1,-1,-1,-1,-1,53,-1,-1,-1,-1,-1,-1,-1,-1,-1,-1],"loss_changes":[5.9529724E0,4.62282E0,1.9954834E0,5.007572E0,2.0671139E0,4.607746E0,8.2769775E-1,2.1936445E0,4.06445E0,4.7164917E-1,0E0,1.0939751E0,3.352558E0,0E0,3.5928345E-1,2.280072E0,0E0,0E0,2.3865156E0,5.2661705E-1,0E0,1.5888706E0,1.4446487E0,1.3971664E0,1.7777843E0,2.8407407E-1,3.595276E-1,2.9361248E0,0E0,0E0,0E0,0E0,0E0,1.9666096E0,0E0,8.273773E-1,2.4681203E0,0E0,0E0,0E0,0E0,0E0,0E0,0E0,2.790038E-1,0E0,0E0,0E0,0E0,0E0,0E0,0E0,0E0,0E0,0E0],"parents":[2147483647,0,0,1,1,2,2,3,3,4,4,5,5,6,6,7,7,8,8,9,9,11,11,12,12,14,14,15,15,18,18,19,19,21,21,22,22,23,23,24,24,25,25,26,26,27,27,33,33,35,35,36,36,44,44],"right_children":[2,4,6,8,10,12,14,16,18,20,-1,22,24,-1,26,28,-1,-1,30,32,-1,34,36,38,40,42,44,46,-1,-1,-1,-1,-1,48,-1,50,52,-1,-1,-1,-1,-1,-1,-1,54,-1,-1,-1,-1,-1,-1,-1,-1,-1,-1],"split_conditions":[-1.51E-3,2.4588375E6,2.4590465E6,4.438E0,1.09E0,1.8E-2,2.15535E-1,1.01125E1,7.017672E-1,1.9624E3,5.0935954E-2,-6.138283E-1,2.4589308E6,1.630835E-2,3.45E0,4.653E-3,-5.262318E-2,1.6250248E-1,1.02763E1,3.470093E-1,7.85278E-4,1.65105E2,2.147E3,6.829047E-1,1.44815E1,5.154E0,2.01E-1,4.1E0,-4.34581E-2,8.471118E-2,-4.3449994E-2,6.9005776E-4,-5.7204496E-2,1.48574E2,-5.424583E-2,5.23E-1,1.1289E1,4.0426668E-2,-4.937722E-2,9.464598E-4,1.3202195E-1,-3.4520723E-2,1.7373664E-2,-5.853441E-2,1.9724E1,-3.6702063E-2,1.06459856E-1,-1.9654995E-2,7.5893246E-2,1.865812E-2,-5.6359332E-2,-3.7353724E-2,6.364813E-2,1.6970308E-2,-3.4456536E-2],"split_indices":[17,11,11,45,20,34,49,33,28,31,0,21,11,0,45,16,0,0,33,31,0,37,32,28,38,7,34,45,0,0,0,0,0,37,0,19,3,0,0,0,0,0,0,0,38,0,0,0,0,0,0,0,0,0,0],"split_type":[0,0,0,0,0,0,0,0,0,0,0,0,0,0,0,0,0,0,0,0,0,0,0,0,0,0,0,0,0,0,0,0,0,0,0,0,0,0,0,0,0,0,0,0,0,0,0,0,0,0,0,0,0,0,0],"sum_hessian":[1.142263E3,5.2193714E1,1.0900692E3,2.1248695E1,3.0945019E1,2.032236E2,8.8684564E2,1.4820178E1,6.4285164E0,2.9596523E1,1.3484954E0,1.9325015E2,9.973452E0,1.0990707E0,8.857466E2,7.2769713E0,7.543206E0,2.3999462E0,4.0285707E0,2.7958527E1,1.6379951E0,2.2383656E1,1.7086649E2,6.445964E0,3.5274875E0,2.4412756E0,8.833053E2,4.5807996E0,2.6961718E0,1.476222E0,2.5523484E0,1.6419125E0,2.6316614E1,1.2162097E1,1.0221559E1,1.5380667E2,1.7059818E1,1.5983248E0,4.847639E0,1.6331697E0,1.8943179E0,1.3668015E0,1.0744742E0,8.8085846E2,2.4468107E0,1.6091974E0,2.9716024E0,1.0511505E1,1.6505911E0,1.0454603E0,1.5276122E2,1.5145004E1,1.9148139E0,1.0835726E0,1.363238E0],"tree_param":{"num_deleted":"0","num_feature":"53","num_nodes":"55","size_leaf_vector":"1"}},{"base_weights":[-2.8903423E-2,-1.6292262E-1,8.611831E-1,2.3260368E-1,-2.591422E-1,1.4036952E0,5.800233E-1,-2.7367613E-1,6.6588074E-1,5.7901535E-2,-3.5697216E-1,1.5208257E0,-2.3693258E-1,1.0360975E0,3.032419E-1,1.1007425E0,-3.7554967E-1,9.009126E-1,-1.7291191E-1,-3.0104983E-1,3.9537016E-1,4.012776E-2,-3.7636253E-1,1.8577387E0,9.654281E-1,-4.1431203E-2,1.3870952E-2,-1.2630892E-2,1.2561204E0,9.414589E-2,9.9852943E-1,-1.4742756E-1,1.8727836E-1,8.675419E-2,-5.1288307E-1,7.880397E-1,1.8648216E0,-4.9887246E-1,4.206168E-1,-3.5688683E-1,1.3477747E-1,1.5403698E-1,8.760792E-1,-1.613751E-1,1.0711132E0,-3.8307884E-1,4.853791E-1,3.8449737E-1,2.0478582E0,1.2838002E0,-1.1278397E-2,8.450157E-2,-3.4786466E-1,1.5124108E0,4.3806985E-1,-4.760926E-2,9.7340673E-1,1.1232371E0,-3.151936E-2,1.7142547E-2,-3.5844367E-2,1.4797148E-1,-4.36959E-2,-5.6899387E-2,1.2481024E-2,8.681753E-2,-3.3307064E-2,2.1002944E-1,4.514223E-2,-5.5672683E-2,1.7385444E-2,-2.72993E-2,9.598846E-2,-4.7059026E-2,5.6454815E-2,4.4622347E-2,-1.3645801E-2,1.0786495E-1,8.71153E-3,1.0063236E-1,-3.239387E-2,-5.962583E-7,1.5838885E-1,-1.572234E-2,-4.126415E-2,1.156373E-1,-3.995625E-2,1.0100907E-1,-3.915341E-2,2.1359837E-1,1.2085454E-2,1.7697838E-1,1.7680213E-2,-4.4380315E-2,4.933552E-2,-4.8540194E-2,1.5136276E-2,-3.2442223E-2,1.6178565E-1,-2.8279452E-2,1.02606915E-1,1.0668707E-1,-1.4842971E-2,-3.8422655E-2,1.4618364E-1,1.2819198E-1,-1.6202427E-3],"categories":[],"categories_nodes":[],"categories_segments":[],"categories_sizes":[],"default_left":[0,0,0,0,0,0,0,0,0,0,0,0,0,0,0,0,0,0,0,0,0,0,0,0,0,0,0,0,0,0,0,0,0,0,0,0,0,0,0,0,0,0,0,0,0,0,0,0,0,0,0,0,0,0,0,0,0,0,0,0,0,0,0,0,0,0,0,0,0,0,0,0,0,0,0,0,0,0,0,0,0,0,0,0,0,0,0,0,0,0,0,0,0,0,0,0,0,0,0,0,0,0,0,0,0,0,0],"id":9,"left_children":[1,3,5,7,9,11,13,15,17,19,21,23,25,27,29,31,33,35,37,39,41,43,45,47,49,-1,-1,51,53,55,57,59,-1,61,63,65,67,69,71,73,-1,75,77,79,81,83,85,87,89,91,93,-1,95,97,99,101,103,105,-1,-1,-1,-1,-1,-1,-1,-1,-1,-1,-1,-1,-1,-1,-1,-1,-1,-1,-1,-1,-1,-1,-1,-1,-1,-1,-1,-1,-1,-1,-1,-1,-1,-1,-1,-1,-1,-1,-1,-1,-1,-1,-1,-1,-1,-1,-1,-1,-1],"loss_changes":[1.4275043E2,3.9635986E1,2.30737E1,4.493215E1,2.5978065E1,1.0497917E1,1.2921875E1,1.3684837E1,2.1884499E1,2.4128605E1,4.9406433E0,7.445282E0,3.4934926E-1,9.058075E0,9.598201E0,6.82415E0,5.694417E0,7.9149475E0,5.0393105E0,9.375751E0,1.1766861E1,6.5476303E0,3.7164612E0,7.5171432E0,6.458744E0,0E0,0E0,2.5324488E0,6.1306725E0,6.572193E0,2.8622236E0,2.9854152E-1,0E0,1.6138754E1,2.531107E0,7.381695E0,1.8175201E0,7.4173117E-1,3.7750053E0,1.0139162E1,0E0,5.9612627E0,5.3521996E0,5.3634944E0,2.8273883E0,3.9802704E0,3.5251818E0,2.6384184E0,4.1621017E0,8.100132E0,1.5473065E0,0E0,5.064644E-1,5.224476E0,4.163169E0,5.331728E0,5.412865E0,2.5885124E0,0E0,0E0,0E0,0E0,0E0,0E0,0E0,0E0,0E0,0E0,0E0,0E0,0E0,0E0,0E0,0E0,0E0,0E0,0E0,0E0,0E0,0E0,0E0,0E0,0E0,0E0,0E0,0E0,0E0,0E0,0E0,0E0,0E0,0E0,0E0,0E0,0E0,0E0,0E0,0E0,0E0,0E0,0E0,0E0,0E0,0E0,0E0,0E0,0E0],"parents":[2147483647,0,0,1,1,2,2,3,3,4,4,5,5,6,6,7,7,8,8,9,9,10,10,11,11,12,12,13,13,14,14,15,15,16,16,17,17,18,18,19,19,20,20,21,21,22,22,23,23,24,24,27,27,28,28,29,29,30,30,31,31,33,33,34,34,35,35,36,36,37,37,38,38,39,39,41,41,42,42,43,43,44,44,45,45,46,46,47,47,48,48,49,49,50,50,52,52,53,53,54,54,55,55,56,56,57,57],"right_children":[2,4,6,8,10,12,14,16,18,20,22,24,26,28,30,32,34,36,38,40,42,44,46,48,50,-1,-1,52,54,56,58,60,-1,62,64,66,68,70,72,74,-1,76,78,80,82,84,86,88,90,92,94,-1,96,98,100,102,104,106,-1,-1,-1,-1,-1,-1,-1,-1,-1,-1,-1,-1,-1,-1,-1,-1,-1,-1,-1,-1,-1,-1,-1,-1,-1,-1,-1,-1,-1,-1,-1,-1,-1,-1,-1,-1,-1,-1,-1,-1,-1,-1,-1,-1,-1,-1,-1,-1,-1],"split_conditions":[1.93E3,2.459038E6,-3.26E-5,4.07823E0,1.05954E1,2.4600158E6,9.90988E0,5.11899E0,-1.99E-5,1.55755E2,-3.42391E0,1.12542E1,7.2176E3,9.01E-4,7.31617E2,8.16E-1,3.246285E0,1.85536E1,8.88822E-1,1.58295E1,1.3228354E0,3.509E0,1.14425E2,3.4610443E0,7.277E3,-4.1431203E-2,1.3870952E-2,-9.5E-6,3.552E-3,1.8187332E4,3.2655E1,2.2997662E8,1.8727836E-1,-3.13E-5,1.24258E1,5.117015E1,3.704E-3,1.3814E1,3.33E-4,1.487E3,1.3477747E-1,3.224E0,1.03622E1,-3.1477E1,1.53325E1,1.9519092E0,2.4593858E6,6.7E-2,5.504E0,2.88E-1,2.7985136E8,8.450157E-2,-5E-7,5.317898E1,5.3210497E0,3.62E0,3.7E-4,3.523E0,-3.151936E-2,1.7142547E-2,-3.5844367E-2,1.4797148E-1,-4.36959E-2,-5.6899387E-2,1.2481024E-2,8.681753E-2,-3.3307064E-2,2.1002944E-1,4.514223E-2,-5.5672683E-2,1.7385444E-2,-2.72993E-2,9.598846E-2,-4.7059026E-2,5.6454815E-2,4.4622347E-2,-1.3645801E-2,1.0786495E-1,8.71153E-3,1.0063236E-1,-3.239387E-2,-5.962583E-7,1.5838885E-1,-1.572234E-2,-4.126415E-2,1.156373E-1,-3.995625E-2,1.0100907E-1,-3.915341E-2,2.1359837E-1,1.2085454E-2,1.7697838E-1,1.7680213E-2,-4.4380315E-2,4.933552E-2,-4.8540194E-2,1.5136276E-2,-3.2442223E-2,1.6178565E-1,-2.8279452E-2,1.02606915E-1,1.0668707E-1,-1.4842971E-2,-3.8422655E-2,1.4618364E-1,1.2819198E-1,-1.6202427E-3],"split_indices":[32,11,17,27,33,11,27,24,17,37,29,33,41,12,24,38,15,27,28,27,28,19,38,27,41,0,0,17,12,31,38,0,0,17,33,15,12,33,12,32,0,19,33,7,27,15,11,8,19,3,0,0,17,1,27,45,12,19,0,0,0,0,0,0,0,0,0,0,0,0,0,0,0,0,0,0,0,0,0,0,0,0,0,0,0,0,0,0,0,0,0,0,0,0,0,0,0,0,0,0,0,0,0,0,0,0,0],"split_type":[0,0,0,0,0,0,0,0,0,0,0,0,0,0,0,0,0,0,0,0,0,0,0,0,0,0,0,0,0,0,0,0,0,0,0,0,0,0,0,0,0,0,0,0,0,0,0,0,0,0,0,0,0,0,0,0,0,0,0,0,0,0,0,0,0,0,0,0,0,0,0,0,0,0,0,0,0,0,0,0,0,0,0,0,0,0,0,0,0,0,0,0,0,0,0,0,0,0,0,0,0,0,0,0,0,0,0],"sum_hessian":[1.1945043E3,1.038896E3,1.5560829E2,2.030027E2,8.3589325E2,5.1753925E1,1.03854355E2,9.3784645E1,1.0921805E2,1.9720541E2,6.3868787E2,4.8373394E1,3.380534E0,3.8187107E1,6.566725E1,5.7951317E0,8.798952E1,8.525525E1,2.3962801E1,9.5613365E1,1.0159205E2,2.9685371E1,6.090025E2,2.864936E1,1.9724031E1,2.2263162E0,1.1542177E0,6.7857513E0,3.1401358E1,5.1357693E1,1.4309556E1,2.5238419E0,3.2712896E0,2.0236362E1,6.775315E1,7.794545E1,7.3097982E0,1.557089E1,8.39191E0,9.323939E1,2.3739748E0,6.8515335E1,3.3076717E1,2.5537601E1,4.147769E0,6.048439E2,4.1586194E0,3.620031E0,2.5029331E1,1.46381035E1,5.085927E0,1.4796379E0,5.3061137E0,2.3264069E1,8.137288E0,4.5041862E1,6.3158317E0,1.32013855E1,1.1081703E0,1.0798175E0,1.4440243E0,5.0306153E0,1.5205748E1,6.2372692E1,5.38046E0,7.295624E1,4.9892135E0,5.8493133E0,1.460485E0,1.4496617E1,1.0742729E0,3.8866482E0,4.5052614E0,8.343317E1,9.806217E0,3.3890957E1,3.462438E1,2.6026987E1,7.0497284E0,2.4865203E0,2.305108E1,1.6665524E0,2.481217E0,7.0737236E1,5.341066E2,2.1907744E0,1.9678448E0,1.8372953E0,1.7827357E0,2.3831043E1,1.198288E0,9.756275E0,4.881829E0,2.803539E0,2.2823877E0,4.181738E0,1.1243758E0,1.1502559E0,2.2113813E1,3.888812E0,4.248476E0,2.9417338E0,4.210013E1,1.7274829E0,4.588349E0,1.1477888E1,1.7234974E0],"tree_param":{"num_deleted":"0","num_feature":"53","num_nodes":"107","size_leaf_vector":"1"}},{"base_weights":[-3.1516188E-1,-3.9208132E-1,3.5821158E-1,-3.9984816E-1,1.150553E0,6.3090116E-1,-4.756737E-1,-4.2087948E-1,1.03746586E-1,1.5815268E-1,-3.09241E-2,8.827639E-1,-5.053033E-1,-5.390408E-1,3.6570888E-2,-2.5232401E-1,-4.7146383E-1,-4.4489142E-1,1.4005764E0,-3.478359E-2,1.1359358E0,-5.6119144E-2,1.4227025E-2,1.6300946E-2,-5.7353344E-2,-9.890179E-2,-5.075606E-1,-5.6099826E-1,-4.314588E-1,-5.6771476E-2,-1.2564443E-1,-3.6674928E-2,1.6876452E0,-4.495866E-1,6.148902E-1,1.3527861E0,-4.5726523E-2,-4.661595E-2,1.9251521E-3,6.714731E-2,-5.2993096E-2,1.7764335E-2,-5.6517996E-2,-3.6962893E-2,-5.7234168E-2,-5.018126E-2,4.5224827E-2,2.1722715E-1,2.9216705E-2,1.6261267E-2,-5.344851E-2,1.2861826E-1,-2.0366466E-2,1.6136812E-1,9.57772E-3,7.917015E-2,-3.9898597E-2],"categories":[],"categories_nodes":[],"categories_segments":[],"categories_sizes":[],"default_left":[0,0,0,0,0,0,0,0,0,0,0,0,0,0,0,0,0,0,0,0,0,0,0,0,0,0,0,0,0,0,0,0,0,0,0,0,0,0,0,0,0,0,0,0,0,0,0,0,0,0,0,0,0,0,0,0,0],"id":10,"left_children":[1,3,5,7,9,11,13,15,17,-1,-1,19,21,23,-1,25,27,29,31,33,35,-1,-1,-1,-1,37,39,41,43,-1,45,-1,47,49,51,53,55,-1,-1,-1,-1,-1,-1,-1,-1,-1,-1,-1,-1,-1,-1,-1,-1,-1,-1,-1,-1],"loss_changes":[5.9956284E1,1.2883942E1,2.7340736E1,1.0978882E1,3.919406E0,2.6213211E1,1.7899117E0,8.332993E0,3.064257E1,0E0,0E0,1.7245335E1,6.941576E-1,7.7603436E-1,0E0,8.994388E0,2.484848E0,1.1209965E0,7.1050453E0,4.8544226E0,1.4944595E1,0E0,0E0,0E0,0E0,6.3226113E0,2.6365433E0,8.1632996E-1,4.40979E0,0E0,2.3426774E0,0E0,6.9238586E0,6.5581226E-1,4.131517E0,1.595005E1,3.26622E0,0E0,0E0,0E0,0E0,0E0,0E0,0E0,0E0,0E0,0E0,0E0,0E0,0E0,0E0,0E0,0E0,0E0,0E0,0E0,0E0],"parents":[2147483647,0,0,1,1,2,2,3,3,4,4,5,5,6,6,7,7,8,8,11,11,12,12,13,13,15,15,16,16,17,17,18,18,19,19,20,20,25,25,26,26,27,27,28,28,30,30,32,32,33,33,34,34,35,35,36,36],"right_children":[2,4,6,8,10,12,14,16,18,-1,-1,20,22,24,-1,26,28,30,32,34,36,-1,-1,-1,-1,38,40,42,44,-1,46,-1,48,50,52,54,56,-1,-1,-1,-1,-1,-1,-1,-1,-1,-1,-1,-1,-1,-1,-1,-1,-1,-1,-1,-1],"split_conditions":[-5.01E-4,2.4607752E6,1.29281E0,1.37111E1,2.5184894E8,5.944441E0,2.460478E6,1.258E-3,4.80155E2,1.5815268E-1,-3.09241E-2,-5.0177433E1,3.2296854E2,6.578481E0,3.6570888E-2,1.184E0,-3.1790813E1,-3.07E-5,8.399283E1,1.88E2,-4E-2,-5.6119144E-2,1.4227025E-2,1.6300946E-2,-5.7353344E-2,-4.9444946E1,2.3E-2,1.69227E1,5.130389E1,-5.6771476E-2,1.797E-3,-3.6674928E-2,6E-2,-4.69E-5,1.24541E0,5.0241486E1,5.23428E1,-4.661595E-2,1.9251521E-3,6.714731E-2,-5.2993096E-2,1.7764335E-2,-5.6517996E-2,-3.6962893E-2,-5.7234168E-2,-5.018126E-2,4.5224827E-2,2.1722715E-1,2.9216705E-2,1.6261267E-2,-5.344851E-2,1.2861826E-1,-2.0366466E-2,1.6136812E-1,9.57772E-3,7.917015E-2,-3.9898597E-2],"split_indices":[13,11,28,33,0,15,11,12,37,0,0,2,1,1,0,28,2,17,1,42,51,0,0,0,0,2,8,37,2,0,12,0,8,17,49,2,37,0,0,0,0,0,0,0,0,0,0,0,0,0,0,0,0,0,0,0,0],"split_type":[0,0,0,0,0,0,0,0,0,0,0,0,0,0,0,0,0,0,0,0,0,0,0,0,0,0,0,0,0,0,0,0,0,0,0,0,0,0,0,0,0,0,0,0,0,0,0,0,0,0,0,0,0,0,0,0,0],"sum_hessian":[1.1538462E3,1.0359297E3,1.1791647E2,1.0314772E3,4.452476E0,8.9042145E1,2.8874329E1,9.9028485E2,4.119239E1,3.3732145E0,1.0792615E0,7.306816E1,1.5973982E1,2.7186192E1,1.688137E0,2.2997104E2,7.603138E2,2.9407967E1,1.1784423E1,1.5987768E1,5.7080395E1,1.4827688E1,1.1462936E0,1.0986546E0,2.6087538E1,1.4449992E2,8.5471115E1,2.3078207E2,5.2953174E2,2.06753E1,8.732665E0,1.6079E0,1.0176523E1,9.945657E0,6.0421114E0,4.8107273E1,8.973124E0,3.445562E1,1.100443E2,1.0512002E0,8.4419914E1,1.0656698E0,2.297164E2,3.7053653E2,1.589952E2,5.3692837E0,3.363381E0,7.1402E0,3.036323E0,1.099784E0,8.845873E0,3.0057926E0,3.0363185E0,3.960369E1,8.503581E0,2.2939675E0,6.679156E0],"tree_param":{"num_deleted":"0","num_feature":"53","num_nodes":"57","size_leaf_vector":"1"}},{"base_weights":[1.3341643E0,8.6538327E-1,1.6430144E0,1.1638727E0,3.9837065E-1,1.0557884E0,1.7774957E0,6.868079E-1,1.4063002E0,6.434752E-1,1.304066E-1,4.1280702E-1,1.2684784E0,9.918206E-1,1.8256018E0,-1.2960437E-1,1.0096807E0,1.5455754E0,9.9214286E-1,2.8197974E-1,8.5656273E-1,-3.8029373E-1,2.5843915E-1,8.9533716E-1,1.3422205E-1,1.4542153E0,3.1753767E-1,5.9880483E-1,1.4215903E0,2.1286936E-1,1.8404713E0,-3.4197587E-1,1.1304834E0,1.1589974E0,9.121437E-2,1.6217831E0,3.5665372E-1,4.3994978E-2,1.2462945E0,1.3178591E-1,1.4845976E0,1.0548607E0,3.4347722E-1,5.8253385E-2,-4.682222E-1,3.6339605E-1,-3.8286215E-1,1.693437E-1,1.4289182E0,-3.720595E-1,4.6035513E-1,7.0629317E-1,1.7009788E0,5.040674E-2,1.1157248E0,1.1618358E0,2.2928116E-1,1.574218E0,1.9997107E-2,-4.473349E-2,7.5913393E-1,1.5067118E0,1.9314916E0,1.2904773E-2,-4.891699E-2,4.789649E-3,1.5678577E-1,1.0841816E-2,1.272115E-1,4.462187E-2,-4.915869E-2,1.6591881E-1,1.3802572E-2,9.954394E-2,-5.0156303E-2,-3.271492E-2,7.184977E-2,1.3614169E-1,9.1184955E-3,-3.5355166E-2,5.3540625E-2,1.8479271E-1,4.3697514E-2,1.20553635E-1,-1.8954106E-2,1.4203407E-1,6.0372357E-3,1.6546523E-2,-5.145098E-2,2.0798102E-2,1.02379404E-1,9.024466E-3,-5.341954E-2,-4.634937E-2,7.935452E-2,1.8047753E-1,2.3296647E-2,4.357338E-2,-5.474739E-2,1.0245865E-1,-2.7707849E-2,-5.0409045E-2,1.03304125E-1,1.9202238E-1,6.9228016E-2,9.135457E-2,-2.4719317E-2,1.6712163E-1,2.3405742E-2,8.21744E-3,1.3384458E-1,-3.8027454E-2,6.745993E-2,2.1177528E-2,1.7675786E-1,1.3245825E-1,-3.3278305E-2,-1.5165712E-2,1.5663105E-1,1.9848499E-1,1.2555651E-1],"categories":[],"categories_nodes":[],"categories_segments":[],"categories_sizes":[],"default_left":[0,0,0,0,0,0,0,0,0,0,0,0,0,0,0,0,0,0,0,0,0,0,0,0,0,0,0,0,0,0,0,0,0,0,0,0,0,0,0,0,0,0,0,0,0,0,0,0,0,0,0,0,0,0,0,0,0,0,0,0,0,0,0,0,0,0,0,0,0,0,0,0,0,0,0,0,0,0,0,0,0,0,0,0,0,0,0,0,0,0,0,0,0,0,0,0,0,0,0,0,0,0,0,0,0,0,0,0,0,0,0,0,0,0,0,0,0,0,0,0,0],"id":11,"left_children":[1,3,5,7,9,11,13,15,17,19,21,23,25,27,29,31,33,35,37,39,41,43,45,47,49,51,53,55,57,59,61,63,65,67,69,71,73,75,77,79,81,83,85,-1,87,89,91,93,95,97,99,101,103,105,107,109,111,113,-1,-1,115,117,119,-1,-1,-1,-1,-1,-1,-1,-1,-1,-1,-1,-1,-1,-1,-1,-1,-1,-1,-1,-1,-1,-1,-1,-1,-1,-1,-1,-1,-1,-1,-1,-1,-1,-1,-1,-1,-1,-1,-1,-1,-1,-1,-1,-1,-1,-1,-1,-1,-1,-1,-1,-1,-1,-1,-1,-1,-1,-1],"loss_changes":[1.93177E2,7.4244934E1,6.2021484E1,3.6788116E1,1.3741287E1,2.043222E1,2.3017822E1,2.9639523E1,1.0896606E1,8.207367E0,6.7554445E0,5.1992455E0,1.9790771E1,5.9202614E0,1.442334E1,9.113702E0,1.0911514E1,1.3870422E1,1.3686245E1,7.4208646E0,6.608734E0,2.0347629E0,5.6584744E0,5.300478E0,4.5078273E0,1.6451447E1,4.2115526E0,4.4498444E0,3.1200333E0,2.7829678E0,1.5682861E1,2.051278E0,2.2619867E0,8.063751E0,2.7681637E0,8.072784E0,6.468233E0,3.5121322E0,5.850952E0,7.747442E0,9.37377E-1,9.403694E0,6.1888537E0,0E0,6.607871E-1,7.0721874E0,9.087876E-1,3.210142E0,3.2260437E0,1.7749856E0,7.116316E0,1.0581509E1,1.4418854E1,4.347086E0,2.043777E0,1.555872E0,4.309747E0,3.9014702E0,0E0,0E0,2.958775E0,1.3648926E1,1.4723877E1,0E0,0E0,0E0,0E0,0E0,0E0,0E0,0E0,0E0,0E0,0E0,0E0,0E0,0E0,0E0,0E0,0E0,0E0,0E0,0E0,0E0,0E0,0E0,0E0,0E0,0E0,0E0,0E0,0E0,0E0,0E0,0E0,0E0,0E0,0E0,0E0,0E0,0E0,0E0,0E0,0E0,0E0,0E0,0E0,0E0,0E0,0E0,0E0,0E0,0E0,0E0,0E0,0E0,0E0,0E0,0E0,0E0,0E0],"parents":[2147483647,0,0,1,1,2,2,3,3,4,4,5,5,6,6,7,7,8,8,9,9,10,10,11,11,12,12,13,13,14,14,15,15,16,16,17,17,18,18,19,19,20,20,21,21,22,22,23,23,24,24,25,25,26,26,27,27,28,28,29,29,30,30,31,31,32,32,33,33,34,34,35,35,36,36,37,37,38,38,39,39,40,40,41,41,42,42,44,44,45,45,46,46,47,47,48,48,49,49,50,50,51,51,52,52,53,53,54,54,55,55,56,56,57,57,60,60,61,61,62,62],"right_children":[2,4,6,8,10,12,14,16,18,20,22,24,26,28,30,32,34,36,38,40,42,44,46,48,50,52,54,56,58,60,62,64,66,68,70,72,74,76,78,80,82,84,86,-1,88,90,92,94,96,98,100,102,104,106,108,110,112,114,-1,-1,116,118,120,-1,-1,-1,-1,-1,-1,-1,-1,-1,-1,-1,-1,-1,-1,-1,-1,-1,-1,-1,-1,-1,-1,-1,-1,-1,-1,-1,-1,-1,-1,-1,-1,-1,-1,-1,-1,-1,-1,-1,-1,-1,-1,-1,-1,-1,-1,-1,-1,-1,-1,-1,-1,-1,-1,-1,-1,-1,-1],"split_conditions":[1.14373E1,-1.58E-3,2.459212E6,4.132031E0,-7.49E-4,1.9519092E0,1.1203828E0,2.4591568E6,1.3E-1,-2.54E-5,2.458796E6,-3.4738846E1,4.8160812E2,1.30417E1,9.0297E-3,-1.99E-5,2.57E3,-2E-5,-2.4871E1,3.847876E1,3.7349804E1,-7.1303764E1,2.93824E2,-2.92E-5,2.7815E0,1.28E-1,1.6142E1,-4E-6,2.57E3,4.1E-1,1.21196E1,-9.542E0,1.94E-1,1.62E-1,-8.9E-6,1.3324E2,-1.28E2,5.15E-1,2.55657E2,2.4592308E6,1.867326E-1,4.73E-1,9.274524E-1,5.8253385E-2,7.9179E0,1.05395E1,1.1736702E3,-5.7433075E1,3.0409735E2,5.3759E-3,1.06522484E2,2.4584948E6,4.1785786E1,4.9178123E1,1.1736702E3,5.28099E0,1.8647051E8,-2.01E2,1.9997107E-2,-4.473349E-2,2.3723205E8,4.11064E-2,1.37111E1,1.2904773E-2,-4.891699E-2,4.789649E-3,1.5678577E-1,1.0841816E-2,1.272115E-1,4.462187E-2,-4.915869E-2,1.6591881E-1,1.3802572E-2,9.954394E-2,-5.0156303E-2,-3.271492E-2,7.184977E-2,1.3614169E-1,9.1184955E-3,-3.5355166E-2,5.3540625E-2,1.8479271E-1,4.3697514E-2,1.20553635E-1,-1.8954106E-2,1.4203407E-1,6.0372357E-3,1.6546523E-2,-5.145098E-2,2.0798102E-2,1.02379404E-1,9.024466E-3,-5.341954E-2,-4.634937E-2,7.935452E-2,1.8047753E-1,2.3296647E-2,4.357338E-2,-5.474739E-2,1.0245865E-1,-2.7707849E-2,-5.0409045E-2,1.03304125E-1,1.9202238E-1,6.9228016E-2,9.135457E-2,-2.4719317E-2,1.6712163E-1,2.3405742E-2,8.21744E-3,1.3384458E-1,-3.8027454E-2,6.745993E-2,2.1177528E-2,1.7675786E-1,1.3245825E-1,-3.3278305E-2,-1.5165712E-2,1.5663105E-1,1.9848499E-1,1.2555651E-1],"split_indices":[33,13,11,15,13,15,15,11,46,17,11,2,24,33,46,17,32,17,7,15,2,2,24,17,38,20,38,17,32,49,33,3,20,20,17,3,43,20,24,11,20,20,19,0,33,38,32,2,1,46,1,11,2,1,32,24,0,43,0,0,0,20,33,0,0,0,0,0,0,0,0,0,0,0,0,0,0,0,0,0,0,0,0,0,0,0,0,0,0,0,0,0,0,0,0,0,0,0,0,0,0,0,0,0,0,0,0,0,0,0,0,0,0,0,0,0,0,0,0,0,0],"split_type":[0,0,0,0,0,0,0,0,0,0,0,0,0,0,0,0,0,0,0,0,0,0,0,0,0,0,0,0,0,0,0,0,0,0,0,0,0,0,0,0,0,0,0,0,0,0,0,0,0,0,0,0,0,0,0,0,0,0,0,0,0,0,0,0,0,0,0,0,0,0,0,0,0,0,0,0,0,0,0,0,0,0,0,0,0,0,0,0,0,0,0,0,0,0,0,0,0,0,0,0,0,0,0,0,0,0,0,0,0,0,0,0,0,0,0,0,0,0,0,0,0],"sum_hessian":[1.3430731E3,5.349357E2,8.0813745E2,3.2543982E2,2.094959E2,1.5223567E2,6.559018E2,1.10945984E2,2.1449382E2,1.08683044E2,1.0081284E2,3.8571457E1,1.13664215E2,3.909036E1,6.168114E2,3.1611677E1,7.9334305E1,1.5847058E2,5.6023243E1,4.1167374E1,6.751568E1,1.9812765E1,8.1000084E1,1.3307679E1,2.5263779E1,9.4648346E1,1.9015867E1,2.166838E1,1.7421978E1,5.775008E0,6.1103644E2,2.7675877E1,3.9358015E0,6.801509E1,1.1319218E1,1.4858263E2,9.887957E0,1.2090621E1,4.3932625E1,3.758322E1,3.584151E0,4.7934116E1,1.958156E1,1.1872407E0,1.8625525E1,6.9980286E1,1.1019794E1,6.1954656E0,7.1122136E0,9.842964E0,1.5420814E1,2.4438692E1,7.0209656E1,1.5044159E1,3.9717078E0,7.7364564E0,1.3931925E1,1.5230469E1,2.1915092E0,2.6968057E0,3.0782025E0,1.3469202E2,4.763444E2,6.618818E0,2.1057058E1,1.4518068E0,2.483995E0,6.8017964E0,6.1213295E1,7.179992E0,4.139226E0,1.448137E2,3.7689278E0,5.577003E0,4.310953E0,8.13134E0,3.959281E0,3.978855E1,4.144072E0,1.7120518E1,2.0462702E1,2.0939991E0,1.4901519E0,4.278484E1,5.149278E0,3.2400746E0,1.6341484E1,1.0926185E0,1.7532906E1,5.771325E1,1.2267038E1,2.7684805E0,8.251313E0,3.2042978E0,2.991168E0,5.024174E0,2.0880392E0,1.4913208E0,8.351643E0,8.515765E0,6.9050484E0,5.0795608E0,1.9359133E1,5.693165E1,1.3278007E1,3.326497E0,1.1717662E1,1.8871794E0,2.0845284E0,1.2936057E0,6.4428506E0,5.943064E0,7.988861E0,2.153298E0,1.307717E1,1.8876195E0,1.190583E0,4.6190715E0,1.3007295E2,4.3969775E2,3.6646645E1],"tree_param":{"num_deleted":"0","num_feature":"53","num_nodes":"121","size_leaf_vector":"1"}},{"base_weights":[-3.674252E-1,-1.2134672E-1,-4.5069453E-1,-5.610899E-1,-6.3674143E-3,-4.8670146E-1,-6.5124184E-2,1.8100431E-2,-5.77825E-2,7.395157E-1,-8.335371E-2,-4.927173E-1,5.906882E-1,3.6061352E-1,-3.1995845E-1,-4.339947E-2,9.3313086E-1,1.1369135E-1,-2.0470424E-1,-2.5765345E-1,-5.1044565E-1,1.065348E-1,-3.4064017E-2,7.1381056E-1,-4.2074198E-1,4.3361652E-1,-3.911101E-1,1.0810318E0,-3.7076157E-2,-1.9622636E-1,3.3618495E-1,-9.231135E-2,-5.4110676E-1,1.1535122E0,-4.0382758E-1,-5.1833105E-1,-2.2879976E-1,2.3491335E-1,1.1256175E0,1.6607666E-2,-5.200107E-2,-3.8540624E-2,1.1737372E-1,-4.4606087E-1,6.781231E-2,1.2770052E-1,-1.1940507E-2,6.6031784E-2,-3.1524923E-2,-1.113914E-2,6.9687314E-2,-1.9552253E-2,3.6020998E-2,-5.7121336E-2,-1.1247386E-2,1.6075893E-1,2.5550593E-2,-4.5766383E-2,6.3792765E-2,-5.220824E-2,-8.504833E-3,2.3145763E-2,-5.4270323E-2,-2.4901489E-2,1.10825E-1,1.4132348E-1,-3.5842076E-2,-4.688992E-2,1.7978491E-2,5.301669E-2,-4.127356E-2],"categories":[],"categories_nodes":[],"categories_segments":[],"categories_sizes":[],"default_left":[0,0,0,0,0,0,0,0,0,0,0,0,0,0,0,0,0,0,0,0,0,0,0,0,0,0,0,0,0,0,0,0,0,0,0,0,0,0,0,0,0,0,0,0,0,0,0,0,0,0,0,0,0,0,0,0,0,0,0,0,0,0,0,0,0,0,0,0,0,0,0],"id":12,"left_children":[1,3,5,7,9,11,13,-1,-1,15,17,19,21,23,25,-1,27,29,31,33,35,-1,-1,37,39,41,43,45,-1,47,49,51,53,55,57,59,61,63,65,-1,-1,-1,-1,67,69,-1,-1,-1,-1,-1,-1,-1,-1,-1,-1,-1,-1,-1,-1,-1,-1,-1,-1,-1,-1,-1,-1,-1,-1,-1,-1],"loss_changes":[2.2806824E1,1.4328115E1,1.1536453E1,8.340893E-1,1.3022587E1,5.2293854E0,7.961787E0,0E0,0E0,5.226E0,4.9369106E0,3.0282745E0,2.434211E0,7.903509E0,2.6237745E0,0E0,3.9744282E0,5.5108066E0,4.771859E0,1.1851124E1,1.4450226E0,0E0,0E0,3.5505877E0,6.2262964E-1,3.1335282E0,1.0981989E0,4.127901E0,0E0,3.6366577E0,7.5573854E0,4.591404E0,3.452444E-1,1.8074656E0,3.138486E0,1.0674896E0,3.1545634E0,4.5899897E0,4.8334055E0,0E0,0E0,0E0,0E0,6.267576E-1,1.4178437E0,0E0,0E0,0E0,0E0,0E0,0E0,0E0,0E0,0E0,0E0,0E0,0E0,0E0,0E0,0E0,0E0,0E0,0E0,0E0,0E0,0E0,0E0,0E0,0E0,0E0,0E0],"parents":[2147483647,0,0,1,1,2,2,3,3,4,4,5,5,6,6,9,9,10,10,11,11,12,12,13,13,14,14,16,16,17,17,18,18,19,19,20,20,23,23,24,24,25,25,26,26,27,27,29,29,30,30,31,31,32,32,33,33,34,34,35,35,36,36,37,37,38,38,43,43,44,44],"right_children":[2,4,6,8,10,12,14,-1,-1,16,18,20,22,24,26,-1,28,30,32,34,36,-1,-1,38,40,42,44,46,-1,48,50,52,54,56,58,60,62,64,66,-1,-1,-1,-1,68,70,-1,-1,-1,-1,-1,-1,-1,-1,-1,-1,-1,-1,-1,-1,-1,-1,-1,-1,-1,-1,-1,-1,-1,-1,-1,-1],"split_conditions":[1.817E0,3.0793796E0,1.824524E1,4.13E0,-2E-1,3.4E0,1.403E3,1.8100431E-2,-5.77825E-2,-1.783E-3,1.208E0,-9.43E-1,4.659072E-1,1.22951E1,-1.8197E1,-4.339947E-2,-8.511083E0,3.13795E2,-3.7E-2,1.29525E2,4.80684E-1,1.065348E-1,-3.4064017E-2,2.4593845E6,1.2274291E1,-8.53E-4,3.1852374E2,1.29621E1,-3.7076157E-2,1.048E2,-1.5724613E1,1.53325E1,1.788E0,2.4598695E6,2.007716E3,7.20672E0,1.699566E-1,1.3E0,6.796E3,1.6607666E-2,-5.200107E-2,-3.8540624E-2,1.1737372E-1,-5.46E1,1.3E-1,1.2770052E-1,-1.1940507E-2,6.6031784E-2,-3.1524923E-2,-1.113914E-2,6.9687314E-2,-1.9552253E-2,3.6020998E-2,-5.7121336E-2,-1.1247386E-2,1.6075893E-1,2.5550593E-2,-4.5766383E-2,6.3792765E-2,-5.220824E-2,-8.504833E-3,2.3145763E-2,-5.4270323E-2,-2.4901489E-2,1.10825E-1,1.4132348E-1,-3.5842076E-2,-4.688992E-2,1.7978491E-2,5.301669E-2,-4.127356E-2],"split_indices":[19,27,27,45,47,8,32,0,0,13,19,9,20,33,3,0,2,37,5,37,46,0,0,11,1,13,1,33,0,42,2,27,19,11,24,28,20,8,41,0,0,0,0,43,46,0,0,0,0,0,0,0,0,0,0,0,0,0,0,0,0,0,0,0,0,0,0,0,0,0,0],"split_type":[0,0,0,0,0,0,0,0,0,0,0,0,0,0,0,0,0,0,0,0,0,0,0,0,0,0,0,0,0,0,0,0,0,0,0,0,0,0,0,0,0,0,0,0,0,0,0,0,0,0,0,0,0,0,0,0,0,0,0,0,0,0,0,0,0,0,0,0,0,0,0],"sum_hessian":[1.1146976E3,2.8245135E2,8.322463E2,5.7740498E1,2.2471086E2,7.609242E2,7.132206E1,1.056925E0,5.668357E1,2.021843E1,2.0449243E2,7.5723865E2,3.685542E0,2.6550497E1,4.4771557E1,2.687547E0,1.7530884E1,7.7962524E1,1.2652991E2,5.419454E1,7.030441E2,2.345987E0,1.339555E0,1.8344608E1,8.205889E0,3.4230788E0,4.134848E1,1.5898437E1,1.632446E0,3.262972E1,4.533281E1,9.579797E1,3.073193E1,4.439944E0,4.9754593E1,6.830791E2,1.9965025E1,9.207499E0,9.137111E0,1.0899196E0,7.1159697E0,1.8524309E0,1.5706478E0,3.6951927E1,4.396552E0,1.3612404E1,2.2860327E0,3.4260962E0,2.9203623E1,2.0538206E1,2.4794603E1,7.8468735E1,1.7329243E1,2.8404215E1,2.3277154E0,2.4240475E0,2.0158963E0,4.7842834E1,1.9117615E0,6.7701263E2,6.0664816E0,8.201831E0,1.1763194E1,6.384581E0,2.8229172E0,7.693722E0,1.4433885E0,3.5892902E1,1.0590265E0,2.1880682E0,2.2084837E0],"tree_param":{"num_deleted":"0","num_feature":"53","num_nodes":"71","size_leaf_vector":"1"}},{"base_weights":[-2.517754E-1,4.474118E-1,-4.1397697E-1,6.550415E-2,7.2112924E-1,-2.3745255E-1,-5.2726984E-1,5.818073E-1,-1.3645719E-1,9.958588E-1,3.502107E-1,-3.4961554E-1,1.3421462E-1,-4.3332347E-1,-5.690707E-1,9.56491E-1,-6.134649E-2,-3.9496914E-1,3.2167485E-1,-4.240388E-2,1.0461302E0,8.093869E-1,-1.4176418E-1,-3.8830978E-1,3.9466757E-2,3.5750502E-1,-2.0311162E-1,1.0837813E-1,-4.4691122E-1,-1.0201504E-2,-5.7408077E-1,2.4913765E-1,1.8119489E-1,8.988937E-2,-3.1080103E-1,5.03519E-1,-4.794337E-1,-2.105328E-1,1.0027189E0,1.368272E0,6.979372E-1,9.662565E-1,-4.471105E-2,-4.9018893E-1,2.2961274E-1,-2.2852978E-1,-4.6763763E-1,5.210459E-1,-4.7060424E-1,-8.796536E-2,5.916046E-1,-3.521619E-1,2.9293138E-1,-4.365317E-2,9.732547E-2,-4.6112213E-1,1.03602014E-1,6.2837355E-2,-4.1288704E-2,-1.8047635E-1,-5.7658732E-2,-4.5522477E-2,6.481688E-2,6.0181648E-2,-5.2209277E-2,1.4625995E-1,-3.9500043E-2,-5.2628186E-2,2.264728E-2,5.020539E-2,-3.8320795E-2,1.3002442E-1,-3.7995514E-2,-5.342694E-3,1.4496748E-1,4.1847616E-2,1.3867247E-1,1.2608495E-1,1.926486E-2,-5.5630516E-2,1.5593951E-2,9.559073E-2,-2.1888241E-2,-3.27468E-2,1.8231316E-2,-2.6185632E-2,-5.125335E-2,2.4786869E-3,1.1806523E-1,-5.4253887E-2,1.9163815E-2,5.9169967E-2,-3.462554E-2,8.1942104E-2,-1.8337715E-2,-4.808221E-2,2.652207E-2,-3.1090474E-2,1.079242E-1,-1.3571386E-2,-4.7864657E-2,7.9571754E-2,-4.2522784E-2,1.9161401E-2,-3.835493E-2],"categories":[],"categories_nodes":[],"categories_segments":[],"categories_sizes":[],"default_left":[0,0,0,0,0,0,0,0,0,0,0,0,0,0,0,0,0,0,0,0,0,0,0,0,0,0,0,0,0,0,0,0,0,0,0,0,0,0,0,0,0,0,0,0,0,0,0,0,0,0,0,0,0,0,0,0,0,0,0,0,0,0,0,0,0,0,0,0,0,0,0,0,0,0,0,0,0,0,0,0,0,0,0,0,0,0,0,0,0,0,0,0,0,0,0,0,0,0,0,0,0,0,0,0,0],"id":13,"left_children":[1,3,5,7,9,11,13,15,17,19,21,23,25,27,29,31,33,35,37,-1,39,41,43,45,47,49,51,53,55,57,59,61,-1,-1,63,65,67,69,71,73,75,77,-1,79,81,83,85,87,89,91,93,95,97,-1,-1,99,101,-1,-1,103,-1,-1,-1,-1,-1,-1,-1,-1,-1,-1,-1,-1,-1,-1,-1,-1,-1,-1,-1,-1,-1,-1,-1,-1,-1,-1,-1,-1,-1,-1,-1,-1,-1,-1,-1,-1,-1,-1,-1,-1,-1,-1,-1,-1,-1],"loss_changes":[1.2909552E2,2.2377632E1,1.8337036E1,9.532837E0,1.2374786E1,1.5166645E1,1.9583435E0,6.2474585E0,7.9410543E0,5.525055E0,1.2465248E1,4.2140923E0,6.4601483E0,1.3518753E0,1.073204E0,9.40472E0,2.7690325E0,3.4764013E0,9.037392E0,0E0,6.7893906E0,6.035267E0,3.6378658E0,3.1094856E0,6.6648955E0,5.41111E0,2.6476002E0,2.8463197E0,1.4007988E0,1.4017389E0,2.7275848E-1,3.1268501E0,0E0,0E0,2.0483916E0,4.154587E0,1.4246912E0,1.9760368E0,4.9597797E0,4.1073914E0,6.1993504E0,5.588747E0,0E0,7.0086336E-1,4.726825E0,3.5612602E0,1.4235573E0,4.526366E0,7.3361826E-1,3.4654047E0,6.12057E0,2.2656074E0,4.3701468E0,0E0,0E0,8.97522E-1,2.2301512E0,0E0,0E0,3.6610734E-1,0E0,0E0,0E0,0E0,0E0,0E0,0E0,0E0,0E0,0E0,0E0,0E0,0E0,0E0,0E0,0E0,0E0,0E0,0E0,0E0,0E0,0E0,0E0,0E0,0E0,0E0,0E0,0E0,0E0,0E0,0E0,0E0,0E0,0E0,0E0,0E0,0E0,0E0,0E0,0E0,0E0,0E0,0E0,0E0,0E0],"parents":[2147483647,0,0,1,1,2,2,3,3,4,4,5,5,6,6,7,7,8,8,9,9,10,10,11,11,12,12,13,13,14,14,15,15,16,16,17,17,18,18,20,20,21,21,22,22,23,23,24,24,25,25,26,26,27,27,28,28,29,29,30,30,31,31,34,34,35,35,36,36,37,37,38,38,39,39,40,40,41,41,43,43,44,44,45,45,46,46,47,47,48,48,49,49,50,50,51,51,52,52,55,55,56,56,59,59],"right_children":[2,4,6,8,10,12,14,16,18,20,22,24,26,28,30,32,34,36,38,-1,40,42,44,46,48,50,52,54,56,58,60,62,-1,-1,64,66,68,70,72,74,76,78,-1,80,82,84,86,88,90,92,94,96,98,-1,-1,100,102,-1,-1,104,-1,-1,-1,-1,-1,-1,-1,-1,-1,-1,-1,-1,-1,-1,-1,-1,-1,-1,-1,-1,-1,-1,-1,-1,-1,-1,-1,-1,-1,-1,-1,-1,-1,-1,-1,-1,-1,-1,-1,-1,-1,-1,-1,-1,-1],"split_conditions":[5.68E-1,-2.443E-3,7.62034E-1,4.44653E0,5.56533E-1,-8.62E-4,6.3825E0,5.34E-1,1.57E2,3.2E-2,7.45217E1,-1.43086E0,3.675E0,1.48688E-2,1.73915E-2,2.4596E6,-7.3356E1,7.76287E-2,2.4595342E6,-4.240388E-2,5.6E-2,1.814E2,5.1496E3,2.247E0,7.92672E2,-8.703E0,4.781E0,1.91026E3,6.115E0,2.4125273E2,4.80494E-1,1.81669E1,1.8119489E-1,8.988937E-2,2.298E-1,8.6014E0,4.2861465E1,6.345E-2,2.460206E6,2.4583605E6,1.7E-1,4.226833E-1,-4.471105E-2,5.475E-1,9.1E-1,4.880255E3,2.4592475E6,3.13795E2,1.8167E1,9.505E-1,1.0537E1,3.641862E8,6.2299E3,-4.365317E-2,9.732547E-2,-4.2903E1,3.95257E2,6.2837355E-2,-4.1288704E-2,9.291E0,-5.7658732E-2,-4.5522477E-2,6.481688E-2,6.0181648E-2,-5.2209277E-2,1.4625995E-1,-3.9500043E-2,-5.2628186E-2,2.264728E-2,5.020539E-2,-3.8320795E-2,1.3002442E-1,-3.7995514E-2,-5.342694E-3,1.4496748E-1,4.1847616E-2,1.3867247E-1,1.2608495E-1,1.926486E-2,-5.5630516E-2,1.5593951E-2,9.559073E-2,-2.1888241E-2,-3.27468E-2,1.8231316E-2,-2.6185632E-2,-5.125335E-2,2.4786869E-3,1.1806523E-1,-5.4253887E-2,1.9163815E-2,5.9169967E-2,-3.462554E-2,8.1942104E-2,-1.8337715E-2,-4.808221E-2,2.652207E-2,-3.1090474E-2,1.079242E-1,-1.3571386E-2,-4.7864657E-2,7.9571754E-2,-4.2522784E-2,1.9161401E-2,-3.835493E-2],"split_indices":[38,13,28,45,28,13,38,20,42,4,37,25,38,20,46,11,7,46,11,0,4,42,41,38,31,3,7,31,38,24,24,24,0,0,38,33,15,38,11,11,46,20,0,38,49,23,11,37,38,38,7,0,41,0,0,3,37,0,0,38,0,0,0,0,0,0,0,0,0,0,0,0,0,0,0,0,0,0,0,0,0,0,0,0,0,0,0,0,0,0,0,0,0,0,0,0,0,0,0,0,0,0,0,0,0],"split_type":[0,0,0,0,0,0,0,0,0,0,0,0,0,0,0,0,0,0,0,0,0,0,0,0,0,0,0,0,0,0,0,0,0,0,0,0,0,0,0,0,0,0,0,0,0,0,0,0,0,0,0,0,0,0,0,0,0,0,0,0,0,0,0,0,0,0,0,0,0,0,0,0,0,0,0,0,0,0,0,0,0,0,0,0,0,0,0,0,0,0,0,0,0,0,0,0,0,0,0,0,0,0,0,0,0],"sum_hessian":[1.1356825E3,2.135206E2,9.2216187E2,8.9660286E1,1.23860306E2,3.6169376E2,5.6046814E2,2.4681807E1,6.497848E1,7.0188614E1,5.367169E1,2.7789038E2,8.380337E1,1.7608603E2,3.8438208E2,1.5288158E1,9.393647E0,4.1627205E1,2.3351274E1,2.1458168E0,6.80428E1,2.7427517E1,2.6244175E1,2.5275578E2,2.5134588E1,5.0388973E1,3.34144E1,4.1380596E0,1.7194798E2,3.4422092E0,3.8093988E2,9.075294E0,6.212865E0,1.4002284E0,7.993419E0,3.1506805E0,3.8476524E1,1.3495763E1,9.855511E0,3.3821827E1,3.4220974E1,2.458869E1,2.838826E0,1.3375447E1,1.2868729E1,8.51433E1,1.6761249E2,1.2917307E1,1.2217281E1,1.7573128E1,3.2815845E1,2.5916962E1,7.4974346E0,2.8424559E0,1.2956038E0,1.6777931E2,4.168665E0,1.1144568E0,2.3277524E0,2.872528E0,3.7806735E2,3.23106E0,5.844234E0,1.1552699E0,6.838149E0,1.2203206E0,1.9303598E0,3.632054E1,2.1559854E0,2.2603526E0,1.1235411E1,8.159382E0,1.6961284E0,1.8502855E0,3.197154E1,2.5487507E1,8.733464E0,1.7351385E1,7.2373047E0,1.2259944E1,1.1155026E0,4.48093E0,8.387799E0,6.878226E1,1.636104E1,3.1242805E1,1.3636969E2,7.963497E0,4.95381E0,1.1183277E1,1.0340039E0,4.4837484E0,1.308938E1,2.5316402E1,7.499444E0,2.1630451E1,4.2865105E0,4.5827665E0,2.9146678E0,9.020655E0,1.5875865E2,1.5869889E0,2.581676E0,1.0341265E0,1.8384016E0],"tree_param":{"num_deleted":"0","num_feature":"53","num_nodes":"105","size_leaf_vector":"1"}},{"base_weights":[-5.3623515E-1,-1.07080765E-1,-5.529298E-1,-2.6190048E-1,1.0255587E0,-2.7061784E-1,-5.571626E-1,-4.3205845E-1,2.569602E-1,-3.0745013E-2,1.437329E0,4.3978086E-1,-4.7579944E-1,-5.5896604E-1,-2.1940518E-2,-1.7283535E-2,-4.8816445E-1,8.324415E-1,-1.9282846E-1,4.92447E-2,1.7244706E-1,1.1402603E-1,-1.21883206E-1,-5.4340154E-2,1.8762728E-2,-4.1195077E-1,-5.6568134E-1,6.447738E-2,-4.2221125E-2,6.2499035E-2,-4.1656192E-2,-5.617366E-2,-4.9401693E-2,1.15207575E-1,6.4434423E-3,6.152692E-2,-4.8275154E-2,-3.2857038E-2,1.596546E-2,-4.6282884E-1,1.144769E-1,1.745767E-2,-5.666663E-1,6.1130054E-2,-4.2759452E-2,-5.2217253E-2,8.859642E-4,7.8959465E-2,-4.186855E-2,-2.9958611E-2,-5.704537E-2],"categories":[],"categories_nodes":[],"categories_segments":[],"categories_sizes":[],"default_left":[0,0,0,0,0,0,0,0,0,0,0,0,0,0,0,0,0,0,0,0,0,0,0,0,0,0,0,0,0,0,0,0,0,0,0,0,0,0,0,0,0,0,0,0,0,0,0,0,0,0,0],"id":14,"left_children":[1,3,5,7,9,11,13,15,17,-1,19,21,23,25,27,29,31,33,35,-1,-1,-1,37,-1,-1,39,41,-1,-1,-1,-1,-1,43,-1,-1,-1,-1,-1,-1,45,47,-1,49,-1,-1,-1,-1,-1,-1,-1,-1],"loss_changes":[7.7726746E0,7.6637125E0,1.1062622E0,3.4569325E0,3.3371725E0,2.7577024E0,9.8721313E-1,6.64371E-1,2.7453775E0,0E0,2.9196644E-1,1.884959E0,7.319081E-1,7.857971E-1,1.4779912E0,1.4096187E0,7.9314375E-1,1.0473762E0,1.8004628E0,0E0,0E0,0E0,2.4834782E-1,0E0,0E0,1.3589048E0,8.1655884E-1,0E0,0E0,0E0,0E0,0E0,1.4478347E0,0E0,0E0,0E0,0E0,0E0,0E0,1.2547216E0,2.1658835E0,0E0,8.2354736E-1,0E0,0E0,0E0,0E0,0E0,0E0,0E0,0E0],"parents":[2147483647,0,0,1,1,2,2,3,3,4,4,5,5,6,6,7,7,8,8,10,10,11,11,12,12,13,13,14,14,15,15,16,16,17,17,18,18,22,22,25,25,26,26,32,32,39,39,40,40,42,42],"right_children":[2,4,6,8,10,12,14,16,18,-1,20,22,24,26,28,30,32,34,36,-1,-1,-1,38,-1,-1,40,42,-1,-1,-1,-1,-1,44,-1,-1,-1,-1,-1,-1,46,48,-1,50,-1,-1,-1,-1,-1,-1,-1,-1],"split_conditions":[-2.108E-3,6.0536232E1,-1.015E-2,7.49E-1,4.5E-2,3.246E0,2.01E-1,3.548332E7,9.23E-1,-3.0745013E-2,-1.625E0,7.918525E0,-2.8949E0,8.6781E0,1.437E-3,-2.4623778E2,6.379E3,1.33496E2,5.137E3,4.92447E-2,1.7244706E-1,1.1402603E-1,-4.76E0,-5.4340154E-2,1.8762728E-2,3.87047E0,6E-3,6.447738E-2,-4.2221125E-2,6.2499035E-2,-4.1656192E-2,-5.617366E-2,9.2789E0,1.15207575E-1,6.4434423E-3,6.152692E-2,-4.8275154E-2,-3.2857038E-2,1.596546E-2,6.68374E3,2.149E0,1.745767E-2,3.09478E2,6.1130054E-2,-4.2759452E-2,-5.2217253E-2,8.859642E-4,7.8959465E-2,-4.186855E-2,-2.9958611E-2,-5.704537E-2],"split_indices":[17,2,13,20,4,19,34,0,20,0,7,2,25,33,12,25,41,37,41,0,0,0,7,0,0,28,34,0,0,0,0,0,33,0,0,0,0,0,0,31,19,0,32,0,0,0,0,0,0,0,0],"split_type":[0,0,0,0,0,0,0,0,0,0,0,0,0,0,0,0,0,0,0,0,0,0,0,0,0,0,0,0,0,0,0,0,0,0,0,0,0,0,0,0,0,0,0,0,0,0,0,0,0,0,0],"sum_hessian":[1.0921372E3,4.1172287E1,1.0509648E3,3.6897552E1,4.2747316E0,1.6483824E1,1.0344811E3,2.7911425E1,8.98613E0,1.0686328E0,3.206099E0,3.4377956E0,1.3046028E1,1.0309629E3,3.518221E0,3.4815326E0,2.4429892E1,3.5690176E0,5.417112E0,1.3799999E0,1.826099E0,1.0714233E0,2.3663723E0,1.2003779E1,1.0422488E0,4.7758205E1,9.8320465E2,1.0906787E0,2.4275422E0,1.1179361E0,2.3635964E0,2.0681694E1,3.7481985E0,2.1670396E0,1.401978E0,1.1340404E0,4.283072E0,1.2682488E0,1.0981236E0,4.3659428E1,4.098778E0,1.0723377E0,9.821323E2,1.1400902E0,2.6081083E0,3.8685352E1,4.9740753E0,1.5963863E0,2.5023916E0,1.48525E1,9.672798E2],"tree_param":{"num_deleted":"0","num_feature":"53","num_nodes":"51","size_leaf_vector":"1"}},{"base_weights":[-2.510783E-2,-1.8772383E-1,6.5599304E-1,5.3000486E-1,-2.240366E-1,1.0542104E0,2.7744415E-1,9.47552E-1,-6.903552E-2,5.4232083E-2,-2.9175207E-1,1.1836486E0,-2.1675171E-2,-1.590856E-2,7.9054695E-1,4.9586754E-2,1.2901531E0,6.888241E-1,-3.5788313E-1,1.0112958E0,-1.6515549E-1,-7.25007E-2,-3.5965487E-1,9.2304045E-1,1.7373137E0,-3.4331915E-1,7.8790694E-1,7.395558E-1,-1.191601E-1,1.1028695E0,-1.2920493E-1,4.0111527E-1,-4.4970617E-2,-1.790456E-1,1.5433723E0,-3.9427646E-2,1.3232324E-1,-4.8216376E-1,6.3950025E-2,1.2420734E0,2.925507E-1,-4.7152472E-1,1.9524856E-1,-4.419513E-1,1.7883855E-1,-3.6892956E-1,2.4069175E-1,8.990114E-2,1.0809757E0,3.769286E-2,1.8004735E0,4.6429437E-2,-5.3513087E-2,1.2758617E-1,1.6087554E-3,-4.4795837E-2,1.3365723E0,3.2219595E-1,-2.5954148E-1,1.6950801E-1,1.2604698E0,7.238507E-2,-3.4617826E-1,-3.84217E-2,8.495943E-2,-3.8168058E-2,1.7132524E-2,8.821041E-2,1.8951467E-1,-5.5051085E-2,1.7960994E-2,-3.8620498E-2,1.3801602E-1,9.579318E-2,-9.357007E-3,-5.0671984E-2,5.7585616E-2,-4.5252677E-2,5.7628002E-2,-4.824683E-2,1.0906118E-1,5.2257287E-3,7.5132184E-2,4.5821995E-2,-3.7488688E-2,-4.7013175E-2,8.3067924E-2,5.604272E-2,-3.7438434E-2,8.702176E-2,1.6154934E-1,1.8696892E-1,3.834437E-2,1.1535904E-2,1.5980779E-1,6.2093835E-2,-2.1820117E-2,-4.3468118E-2,8.557635E-3,5.5438932E-2,-4.0843073E-2,1.4402814E-1,1.307739E-2,-5.2905984E-2,3.1125376E-2],"categories":[],"categories_nodes":[],"categories_segments":[],"categories_sizes":[],"default_left":[0,0,0,0,0,0,0,0,0,0,0,0,0,0,0,0,0,0,0,0,0,0,0,0,0,0,0,0,0,0,0,0,0,0,0,0,0,0,0,0,0,0,0,0,0,0,0,0,0,0,0,0,0,0,0,0,0,0,0,0,0,0,0,0,0,0,0,0,0,0,0,0,0,0,0,0,0,0,0,0,0,0,0,0,0,0,0,0,0,0,0,0,0,0,0,0,0,0,0,0,0,0,0,0,0],"id":15,"left_children":[1,3,5,7,9,11,13,15,17,19,21,23,25,27,29,31,33,35,37,39,41,43,45,47,49,51,53,55,57,59,61,63,-1,65,67,-1,-1,69,-1,71,73,75,77,79,81,83,85,87,89,-1,91,-1,-1,-1,-1,-1,93,95,97,99,101,-1,103,-1,-1,-1,-1,-1,-1,-1,-1,-1,-1,-1,-1,-1,-1,-1,-1,-1,-1,-1,-1,-1,-1,-1,-1,-1,-1,-1,-1,-1,-1,-1,-1,-1,-1,-1,-1,-1,-1,-1,-1,-1,-1],"loss_changes":[1.3070728E2,2.4944626E1,3.3996094E1,1.1613627E1,1.7113571E1,1.5413101E1,1.7769062E1,8.326668E0,4.601737E0,3.7632267E1,1.0841141E1,1.2629959E1,3.616033E0,6.019187E0,1.2474844E1,1.6849163E0,7.6059875E0,4.529195E0,2.1755066E0,5.1791954E0,1.621491E1,1.622326E1,3.1906433E0,9.009319E0,1.9366226E0,1.7807105E0,1.4695561E0,7.178886E0,4.2816057E0,4.516014E0,2.4305518E0,2.2843206E0,0E0,3.3464822E-1,2.2616844E0,0E0,0E0,7.3048663E-1,0E0,6.1508713E0,2.5122366E0,3.2120075E0,1.6995281E1,4.9149866E0,7.510312E0,2.877037E0,4.198697E0,2.857422E0,5.138054E0,0E0,2.1100388E0,0E0,0E0,0E0,0E0,0E0,1.868227E0,2.8470933E0,3.177782E0,1.5166185E0,5.3679237E0,0E0,1.3749428E0,0E0,0E0,0E0,0E0,0E0,0E0,0E0,0E0,0E0,0E0,0E0,0E0,0E0,0E0,0E0,0E0,0E0,0E0,0E0,0E0,0E0,0E0,0E0,0E0,0E0,0E0,0E0,0E0,0E0,0E0,0E0,0E0,0E0,0E0,0E0,0E0,0E0,0E0,0E0,0E0,0E0,0E0],"parents":[2147483647,0,0,1,1,2,2,3,3,4,4,5,5,6,6,7,7,8,8,9,9,10,10,11,11,12,12,13,13,14,14,15,15,16,16,17,17,18,18,19,19,20,20,21,21,22,22,23,23,24,24,25,25,26,26,27,27,28,28,29,29,30,30,31,31,33,33,34,34,37,37,39,39,40,40,41,41,42,42,43,43,44,44,45,45,46,46,47,47,48,48,50,50,56,56,57,57,58,58,59,59,60,60,62,62],"right_children":[2,4,6,8,10,12,14,16,18,20,22,24,26,28,30,32,34,36,38,40,42,44,46,48,50,52,54,56,58,60,62,64,-1,66,68,-1,-1,70,-1,72,74,76,78,80,82,84,86,88,90,-1,92,-1,-1,-1,-1,-1,94,96,98,100,102,-1,104,-1,-1,-1,-1,-1,-1,-1,-1,-1,-1,-1,-1,-1,-1,-1,-1,-1,-1,-1,-1,-1,-1,-1,-1,-1,-1,-1,-1,-1,-1,-1,-1,-1,-1,-1,-1,-1,-1,-1,-1,-1,-1],"split_conditions":[2.072937E3,-3.87047E0,1.07778E1,2.4594562E6,2.459038E6,-4.24E-4,-1.68025E1,-3.858709E-1,4.07E0,7.14588E0,1.06237E1,1.4144867E4,2.3640909E2,2.4588142E6,-1.14E-3,6.065E3,8.9E-6,3.96878E0,-7.6E-2,-1.437E-3,2.174148E3,9.707632E2,1.48916E1,1.363E0,2.8670807E2,-4.11485E-1,1.03951E2,5.796E3,1.1976556E0,5.501E3,1.22E2,4.6E-2,-4.4970617E-2,2.459229E6,2.36E0,-3.9427646E-2,1.3232324E-1,1.26203E3,6.3950025E-2,-9.462E-3,4.4E-2,1.543E3,1.82E-5,2.3994297E4,1.54747E2,-1.639E0,1.91E-5,1.326E2,2.187E-4,3.769286E-2,4.4716263E0,4.6429437E-2,-5.3513087E-2,1.2758617E-1,1.6087554E-3,-4.4795837E-2,1.32E0,6.3412E3,2.165E3,2.3655223E2,9.75E3,7.238507E-2,8.2E-6,-3.84217E-2,8.495943E-2,-3.8168058E-2,1.7132524E-2,8.821041E-2,1.8951467E-1,-5.5051085E-2,1.7960994E-2,-3.8620498E-2,1.3801602E-1,9.579318E-2,-9.357007E-3,-5.0671984E-2,5.7585616E-2,-4.5252677E-2,5.7628002E-2,-4.824683E-2,1.0906118E-1,5.2257287E-3,7.5132184E-2,4.5821995E-2,-3.7488688E-2,-4.7013175E-2,8.3067924E-2,5.604272E-2,-3.7438434E-2,8.702176E-2,1.6154934E-1,1.8696892E-1,3.834437E-2,1.1535904E-2,1.5980779E-1,6.2093835E-2,-2.1820117E-2,-4.3468118E-2,8.557635E-3,5.5438932E-2,-4.0843073E-2,1.4402814E-1,1.307739E-2,-5.2905984E-2,3.1125376E-2],"split_indices":[31,29,33,11,11,13,39,21,45,24,33,31,24,11,13,41,16,45,21,13,23,32,33,19,23,47,42,41,15,41,42,8,0,11,19,0,0,31,0,13,8,32,16,23,24,21,16,42,16,0,15,0,0,0,0,0,49,41,32,1,23,0,16,0,0,0,0,0,0,0,0,0,0,0,0,0,0,0,0,0,0,0,0,0,0,0,0,0,0,0,0,0,0,0,0,0,0,0,0,0,0,0,0,0,0],"split_type":[0,0,0,0,0,0,0,0,0,0,0,0,0,0,0,0,0,0,0,0,0,0,0,0,0,0,0,0,0,0,0,0,0,0,0,0,0,0,0,0,0,0,0,0,0,0,0,0,0,0,0,0,0,0,0,0,0,0,0,0,0,0,0,0,0,0,0,0,0,0,0,0,0,0,0,0,0,0,0,0,0,0,0,0,0,0,0,0,0,0,0,0,0,0,0,0,0,0,0,0,0,0,0,0,0],"sum_hessian":[1.1780052E3,9.5154407E2,2.264612E2,4.5169277E1,9.063748E2,1.0949365E2,1.16967545E2,2.627389E1,1.8895388E1,1.7743323E2,7.289416E2,9.764586E1,1.1847793E1,7.503646E1,4.193108E1,7.5720673E0,1.8701822E1,4.8322115E0,1.4063175E1,3.241506E1,1.4501817E2,1.7286034E2,5.5608124E2,6.820783E1,2.943803E1,8.891259E0,2.956534E0,8.281349E0,6.675511E1,3.1153208E1,1.0777873E1,4.5589557E0,3.0131114E0,2.7924879E0,1.5909334E1,1.9247218E0,2.9074898E0,1.2964307E1,1.0988679E0,2.3985561E1,8.429499E0,7.821851E1,6.679966E1,6.967893E1,1.031814E2,5.4800073E2,8.080539E0,1.1119499E1,5.7088333E1,1.6152544E0,2.7822777E1,1.4337888E0,7.45747E0,1.4112593E0,1.5452746E0,2.8540616E0,5.4272876E0,1.5796406E1,5.0958706E1,4.800224E0,2.6352983E1,1.7117608E0,9.0661125E0,1.7092224E0,2.849733E0,1.7126341E0,1.0798538E0,6.7424355E0,9.166899E0,1.19031E1,1.061207E0,1.7346184E0,2.2250942E1,2.551582E0,5.877916E0,7.617501E1,2.0435057E0,2.4670593E1,4.2129063E1,6.855179E1,1.1271442E0,8.5391785E1,1.7789618E1,3.375735E0,5.4462494E2,3.7570968E0,4.323442E0,5.419788E0,5.6997113E0,4.2829063E1,1.4259266E1,2.622248E1,1.6002963E0,1.2113758E0,4.2159114E0,1.0076739E1,5.719666E0,3.3631798E1,1.732691E1,2.9058232E0,1.8944006E0,2.2497215E1,3.8557684E0,7.2457767E0,1.8203356E0],"tree_param":{"num_deleted":"0","num_feature":"53","num_nodes":"105","size_leaf_vector":"1"}},{"base_weights":[-3.1010732E-1,3.9377263E-1,-3.982181E-1,5.9642446E-1,-2.7763906E-1,-4.2172298E-1,1.4010674E-1,8.601288E-1,-1.0614364E-1,-4.4428045E-1,2.8682533E-1,-2.3258793E-1,-4.636042E-1,-4.377813E-1,1.368908E0,-2.620176E-1,1.0428495E0,-5.3638138E-2,1.3610399E-1,-5.208277E-1,1.7860052E-1,-4.6005826E-2,1.0486556E0,5.6292915E-1,-2.6186997E-1,4.6243852E-1,-4.737252E-1,-1.4177877E-1,-5.616069E-2,3.5318822E-1,1.8735363E0,4.5352298E-1,-5.2131064E-2,1.1765357E0,-2.114661E-1,5.029478E-1,-2.3728736E-1,-8.184952E-2,-5.6527622E-2,5.745246E-2,-3.1710885E-2,1.3434555E-1,1.5363077E-2,-2.141832E-1,1.3630847E0,8.5109705E-1,-2.8130504E-1,9.3988883E-1,-4.4280402E-2,-5.1835126E-1,-3.8960826E-1,-3.9738014E-1,5.990507E-2,-4.2721853E-2,1.0532441E0,1.2227549E-2,2.1229659E-1,8.999015E-2,-2.9578725E-2,-5.4778773E-3,1.3138755E-1,3.7102394E-2,-4.7851E-2,-8.604047E-3,1.5252838E-1,3.9917786E-2,-5.2150715E-2,1.7146721E-2,-3.001739E-2,1.8889932E-2,-4.0687054E-2,1.8486993E-2,1.8158337E-1,1.7766884E-2,1.1070906E-1,-4.3407008E-2,-1.442482E-2,-3.708028E-2,1.4889921E-1,-4.243485E-2,-5.3676564E-2,-2.0537768E-3,-4.2318013E-2,1.4082478E-2,-5.0619233E-2,1.4876495E-1,1.2928276E-2],"categories":[],"categories_nodes":[],"categories_segments":[],"categories_sizes":[],"default_left":[0,0,0,0,0,0,0,0,0,0,0,0,0,0,0,0,0,0,0,0,0,0,0,0,0,0,0,0,0,0,0,0,0,0,0,0,0,0,0,0,0,0,0,0,0,0,0,0,0,0,0,0,0,0,0,0,0,0,0,0,0,0,0,0,0,0,0,0,0,0,0,0,0,0,0,0,0,0,0,0,0,0,0,0,0,0,0],"id":16,"left_children":[1,3,5,7,9,11,13,15,17,19,21,23,25,27,29,31,33,-1,35,37,39,-1,41,43,45,47,49,51,-1,53,55,57,-1,59,61,63,65,67,-1,-1,-1,-1,-1,69,71,73,75,77,-1,79,81,83,-1,-1,85,-1,-1,-1,-1,-1,-1,-1,-1,-1,-1,-1,-1,-1,-1,-1,-1,-1,-1,-1,-1,-1,-1,-1,-1,-1,-1,-1,-1,-1,-1,-1,-1],"loss_changes":[7.000532E1,1.7282173E1,1.2730545E1,1.8053295E1,2.9351134E0,7.494873E0,3.088338E1,1.4749332E1,2.9233997E0,1.2105284E0,4.699385E0,4.2474155E0,7.5743866E0,1.0112944E0,6.454382E0,2.2189636E0,1.046347E1,0E0,2.6252673E0,3.6598063E-1,8.317667E-1,0E0,8.421049E-1,4.3748503E0,3.9261856E0,4.301912E0,2.7139587E0,2.153644E0,0E0,3.640762E0,3.6905327E0,1.3956985E0,0E0,9.406937E0,1.222029E0,5.880962E0,1.9711546E0,2.2357532E-1,0E0,0E0,0E0,0E0,0E0,4.026975E-1,1.4624662E0,3.5042286E-1,3.4605083E0,5.018772E0,0E0,6.4553833E-1,3.377411E0,5.4696465E-1,0E0,0E0,1.1592119E0,0E0,0E0,0E0,0E0,0E0,0E0,0E0,0E0,0E0,0E0,0E0,0E0,0E0,0E0,0E0,0E0,0E0,0E0,0E0,0E0,0E0,0E0,0E0,0E0,0E0,0E0,0E0,0E0,0E0,0E0,0E0,0E0],"parents":[2147483647,0,0,1,1,2,2,3,3,4,4,5,5,6,6,7,7,8,8,9,9,10,10,11,11,12,12,13,13,14,14,15,15,16,16,18,18,19,19,20,20,22,22,23,23,24,24,25,25,26,26,27,27,29,29,30,30,31,31,33,33,34,34,35,35,36,36,37,37,43,43,44,44,45,45,46,46,47,47,49,49,50,50,51,51,54,54],"right_children":[2,4,6,8,10,12,14,16,18,20,22,24,26,28,30,32,34,-1,36,38,40,-1,42,44,46,48,50,52,-1,54,56,58,-1,60,62,64,66,68,-1,-1,-1,-1,-1,70,72,74,76,78,-1,80,82,84,-1,-1,86,-1,-1,-1,-1,-1,-1,-1,-1,-1,-1,-1,-1,-1,-1,-1,-1,-1,-1,-1,-1,-1,-1,-1,-1,-1,-1,-1,-1,-1,-1,-1,-1],"split_conditions":[6.64072E-2,4.986503E0,1.37111E1,4.20478E2,1.98E2,1.46E-1,4.578E3,1.257813E0,-4.4E-6,4.1045024E8,-2.0561937E2,1.1034516E7,3.93E-4,2.69E-5,-5.6E-2,2.19E-4,1.3032E1,-5.3638138E-2,1.1248E4,4.13895E-2,2.459299E6,-4.6005826E-2,2.459174E6,5.3913795E1,1.69227E1,2.8E-6,6.73916E0,-7.2E-2,-5.616069E-2,3.190373E0,1.922E-3,-7.584E0,-5.2131064E-2,6.066E3,1.15455E1,8.78E3,1E-6,1.01913E2,-5.6527622E-2,5.745246E-2,-3.1710885E-2,1.3434555E-1,1.5363077E-2,1.4217345E2,1.291E2,7.6E-2,1.20431E1,1.0462516E1,-4.4280402E-2,1.313E-3,2E-5,4.64404E0,5.990507E-2,-4.2721853E-2,2.92E-5,1.2227549E-2,2.1229659E-1,8.999015E-2,-2.9578725E-2,-5.4778773E-3,1.3138755E-1,3.7102394E-2,-4.7851E-2,-8.604047E-3,1.5252838E-1,3.9917786E-2,-5.2150715E-2,1.7146721E-2,-3.001739E-2,1.8889932E-2,-4.0687054E-2,1.8486993E-2,1.8158337E-1,1.7766884E-2,1.1070906E-1,-4.3407008E-2,-1.442482E-2,-3.708028E-2,1.4889921E-1,-4.243485E-2,-5.3676564E-2,-2.0537768E-3,-4.2318013E-2,1.4082478E-2,-5.0619233E-2,1.4876495E-1,1.2928276E-2],"split_indices":[20,15,33,37,42,20,41,15,17,0,43,0,12,16,9,12,33,0,23,50,11,0,11,24,37,16,15,9,0,15,12,7,0,23,27,23,16,37,0,0,0,0,0,1,42,4,27,27,0,12,16,45,0,0,16,0,0,0,0,0,0,0,0,0,0,0,0,0,0,0,0,0,0,0,0,0,0,0,0,0,0,0,0,0,0,0,0],"split_type":[0,0,0,0,0,0,0,0,0,0,0,0,0,0,0,0,0,0,0,0,0,0,0,0,0,0,0,0,0,0,0,0,0,0,0,0,0,0,0,0,0,0,0,0,0,0,0,0,0,0,0,0,0,0,0,0,0,0,0,0,0,0,0,0,0,0,0,0,0,0,0,0,0,0,0,0,0,0,0,0,0,0,0,0,0,0,0],"sum_hessian":[1.1252363E3,1.2479914E2,1.00043713E3,9.5950226E1,2.8848917E1,9.5879004E2,4.1647076E1,6.9601494E1,2.6348732E1,2.2437754E1,6.4111648E0,1.7500836E2,7.837817E2,2.8763662E1,1.2883413E1,9.6855345E0,5.991596E1,9.054152E0,1.729458E1,2.0128016E1,2.3097377E0,3.4373593E0,2.9738054E0,5.5661464E0,1.6944221E2,7.990401E0,7.757913E2,9.116305E0,1.9647356E1,4.840438E0,8.042975E0,2.3769817E0,7.3085527E0,5.4201153E1,5.7148027E0,8.548757E0,8.745824E0,2.1119184E0,1.8016096E1,1.1957195E0,1.1140182E0,1.8601054E0,1.1137002E0,3.1952436E0,2.3709028E0,2.1736639E0,1.6726855E2,5.206221E0,2.78418E0,5.035066E2,2.7228473E2,7.1224985E0,1.9938072E0,2.4731555E0,2.3672824E0,1.1885202E0,6.8544555E0,1.3636538E0,1.013328E0,5.499219E0,4.8701935E1,1.674004E0,4.040799E0,6.004997E0,2.54376E0,2.5750153E0,6.170809E0,1.0769639E0,1.0349545E0,1.0397825E0,2.155461E0,1.0490992E0,1.3218036E0,1.0652928E0,1.108371E0,7.807653E1,8.919202E1,1.6330044E0,3.5732164E0,8.641493E1,4.1709164E2,2.2837173E1,2.4944754E2,1.1483504E0,5.9741483E0,1.195251E0,1.1720314E0],"tree_param":{"num_deleted":"0","num_feature":"53","num_nodes":"87","size_leaf_vector":"1"}},{"base_weights":[1.1282184E0,8.014537E-1,1.4376768E0,9.205897E-1,2.9266807E-1,8.877224E-1,1.5081644E0,9.7687143E-1,2.0451257E-1,4.9637217E-2,5.949915E-1,4.2927954E-1,1.0346544E0,4.2305624E-1,1.5385195E0,6.912653E-1,1.0962982E0,6.0318935E-1,-2.789405E-1,3.0601034E-1,-2.881827E-1,8.477962E-1,-1.1012965E-1,1.288767E-1,1.210754E0,1.2190402E0,6.1308575E-1,9.364549E-1,-2.3468593E-1,1.5459702E0,-1.928182E-1,-3.6673918E-1,7.3067206E-1,7.387282E-1,1.203993E0,-3.410465E-1,8.650949E-1,4.648554E-1,-4.0163815E-1,-1.5628417E-1,5.7334524E-1,1.3857153E-1,-4.239646E-1,3.7643556E-2,1.0096442E0,-3.361085E-1,5.2058196E-1,-5.4732885E-2,6.341364E-1,1.7979728E-1,-7.6374635E-3,1.6114665E0,8.511985E-1,-8.661212E-2,8.616625E-1,1.1851534E0,-3.7542906E-2,-5.3724464E-2,7.246637E-2,9.5782804E-1,1.5711993E0,-3.940616E-2,1.6206177E-2,1.1722294E-2,-4.996003E-2,4.4944752E-2,8.811198E-2,4.278883E-2,1.2484982E-1,1.0183322E-1,1.4172594E-1,-4.845598E-2,1.4020656E-2,2.51192E-3,1.1329836E-1,-3.1269114E-2,9.800493E-2,3.1756483E-2,-5.0078213E-2,1.2499394E-1,-4.2754736E-2,1.10081494E-1,3.1666034E-3,-3.5443854E-2,1.078889E-1,-5.2891087E-2,2.0100048E-2,6.591245E-2,-4.9551636E-2,-1.6145494E-2,1.098001E-1,2.5700659E-2,-5.4536767E-2,-4.089576E-2,1.2448869E-1,-3.9538868E-2,8.642204E-2,1.4814146E-2,1.6835293E-1,-4.555197E-3,1.0899186E-1,5.6379E-2,-4.873169E-2,-3.793044E-2,1.0164541E-1,7.128318E-3,1.3529575E-1,1.5712176E-1,4.999635E-2,1.1958917E-1,1.6108309E-1],"categories":[],"categories_nodes":[],"categories_segments":[],"categories_sizes":[],"default_left":[0,0,0,0,0,0,0,0,0,0,0,0,0,0,0,0,0,0,0,0,0,0,0,0,0,0,0,0,0,0,0,0,0,0,0,0,0,0,0,0,0,0,0,0,0,0,0,0,0,0,0,0,0,0,0,0,0,0,0,0,0,0,0,0,0,0,0,0,0,0,0,0,0,0,0,0,0,0,0,0,0,0,0,0,0,0,0,0,0,0,0,0,0,0,0,0,0,0,0,0,0,0,0,0,0,0,0,0,0,0,0],"id":17,"left_children":[1,3,5,7,9,11,13,15,17,19,21,23,25,27,29,31,33,35,37,39,41,43,45,47,49,51,53,55,57,59,61,63,65,67,69,71,73,75,77,79,81,83,85,87,89,91,93,-1,95,-1,-1,97,99,101,103,105,-1,-1,-1,107,109,-1,-1,-1,-1,-1,-1,-1,-1,-1,-1,-1,-1,-1,-1,-1,-1,-1,-1,-1,-1,-1,-1,-1,-1,-1,-1,-1,-1,-1,-1,-1,-1,-1,-1,-1,-1,-1,-1,-1,-1,-1,-1,-1,-1,-1,-1,-1,-1,-1,-1],"loss_changes":[1.4772583E2,4.327487E1,2.792517E1,2.324054E1,1.0092582E1,5.4966583E0,2.134253E1,1.7625854E1,8.580859E0,6.797054E0,1.1020979E1,5.2704086E0,4.389099E0,6.821409E0,8.672119E0,7.006508E0,1.3679932E1,6.2888823E0,2.0493612E0,5.592357E0,2.0252633E0,5.8938026E0,2.606949E0,6.4340615E0,4.89843E0,5.118431E0,3.921791E0,4.092573E0,3.108975E0,8.088013E0,3.260213E-1,4.7455716E-1,6.2108765E0,1.3752678E1,1.00069275E1,4.809656E-1,4.304734E0,1.6498733E0,1.4465337E0,7.0572214E0,8.086839E0,4.529299E0,1.8110709E0,3.166757E0,4.074913E0,1.774745E0,3.8036113E0,0E0,2.8668427E0,0E0,0E0,1.9264526E0,5.4714355E0,2.0226908E0,3.5382051E0,1.705184E0,0E0,0E0,0E0,7.4020443E0,7.270874E0,0E0,0E0,0E0,0E0,0E0,0E0,0E0,0E0,0E0,0E0,0E0,0E0,0E0,0E0,0E0,0E0,0E0,0E0,0E0,0E0,0E0,0E0,0E0,0E0,0E0,0E0,0E0,0E0,0E0,0E0,0E0,0E0,0E0,0E0,0E0,0E0,0E0,0E0,0E0,0E0,0E0,0E0,0E0,0E0,0E0,0E0,0E0,0E0,0E0,0E0],"parents":[2147483647,0,0,1,1,2,2,3,3,4,4,5,5,6,6,7,7,8,8,9,9,10,10,11,11,12,12,13,13,14,14,15,15,16,16,17,17,18,18,19,19,20,20,21,21,22,22,23,23,24,24,25,25,26,26,27,27,28,28,29,29,30,30,31,31,32,32,33,33,34,34,35,35,36,36,37,37,38,38,39,39,40,40,41,41,42,42,43,43,44,44,45,45,46,46,48,48,51,51,52,52,53,53,54,54,55,55,59,59,60,60],"right_children":[2,4,6,8,10,12,14,16,18,20,22,24,26,28,30,32,34,36,38,40,42,44,46,48,50,52,54,56,58,60,62,64,66,68,70,72,74,76,78,80,82,84,86,88,90,92,94,-1,96,-1,-1,98,100,102,104,106,-1,-1,-1,108,110,-1,-1,-1,-1,-1,-1,-1,-1,-1,-1,-1,-1,-1,-1,-1,-1,-1,-1,-1,-1,-1,-1,-1,-1,-1,-1,-1,-1,-1,-1,-1,-1,-1,-1,-1,-1,-1,-1,-1,-1,-1,-1,-1,-1,-1,-1,-1,-1,-1,-1],"split_conditions":[1.19221E1,-7.49E-4,1.5057127E0,5.01192E3,1.07447E1,-1.0702E1,8.10643E1,2.36E-1,2.76E-5,7.074393E3,1.501798E4,-5.772E-1,2.98264E3,2.22182E0,2.82675E1,1.58777E-2,-1.7E-1,1.248E2,2.8670807E2,1.34E0,2.278E0,-1.8852E1,3.774979E1,9.65916E0,7.848E0,-3.2842E1,1.395824E-1,1.33356E1,-3.075001E-1,6E-2,9.60874E2,1E0,1.03345E1,1.05579E1,3.497E-3,5.781511E1,4.2E-6,8.045139E-1,-5.992517E1,9.28013E0,1.28011E1,3.9589903E0,3.43885E2,1.09056274E2,3.99366E0,5.84754E0,8.138665E1,-5.4732885E-2,-8E-3,1.7979728E-1,-7.6374635E-3,-2.7E-2,7.438074E-1,1.02E-3,6.48721E0,8.7E-6,-3.7542906E-2,-5.3724464E-2,7.246637E-2,